{"version":"0.5.4","metadata":{"date":{"year":2025,"month":10,"day":3,"hour":7,"minute":48,"second":55},"loudness":-23.891094207763672,"gain":0.8252292194655895,"name":"[AMP] 100W BOLD CRUSH Chugga412 SM57 - STD","modeled_by":"2dor","gear_type":"amp","gear_make":"tz-make","gear_model":"tz-model","tone_type":"overdrive","input_level_dbu":22.85,"output_level_dbu":13.195,"training":{"settings":{"ignore_checks":true},"data":{"latency":{"manual":0,"calibration":{"algorithm_version":1,"delays":[1],"safety_factor":1,"recommended":0,"warnings":{"matches_lookahead":false,"disagreement_too_high":false}}},"checks":{"version":4,"passed":false}},"validation_esr":0.01120087968424795}},"architecture":"WaveNet","config":{"layers":[{"input_size":1,"condition_size":1,"head_size":8,"channels":16,"kernel_size":3,"dilations":[1,2,4,8,16,32,64,128,256,512],"activation":"Tanh","gated":false,"head_bias":false},{"input_size":16,"condition_size":1,"head_size":1,"channels":8,"kernel_size":3,"dilations":[1,2,4,8,16,32,64,128,256,512],"activation":"Tanh","gated":false,"head_bias":true}],"head":null,"head_scale":0.02},"weights":[0.0027020752895623446,-0.0002092609356623143,0.0010387658840045333,-0.1959792822599411,-0.0021837123204022646,-0.0009075645939446986,-0.0037669690791517496,0.4922429621219635,0.0015389875043183565,0.00018604367505759,0.0027031435165554285,-0.0008509703911840916,-0.6934707164764404,-0.0009830701164901257,-0.0029403415974229574,-0.00044884646194987,0.0993199422955513,-0.13819976150989532,-0.03909354284405708,-0.04838642105460167,0.22716060280799866,0.21570713818073273,0.0681254044175148,-0.0192422978579998,0.129657581448555,0.025835970416665077,0.1313176304101944,0.052230317145586014,-0.07196032255887985,-0.0005669530364684761,0.26511529088020325,-0.2039872407913208,0.08904843777418137,0.12556606531143188,-0.007178305648267269,-0.04861918091773987,-0.04455479234457016,0.10669225454330444,0.06754519045352936,-0.1206524521112442,-0.08516138792037964,-0.18738679587841034,-0.145207017660141,-0.05518363416194916,0.0830027163028717,-0.053588319569826126,0.20286664366722107,0.18092425167560577,-0.03348812088370323,-0.18543680012226105,0.04016212373971939,-0.14844684302806854,0.06912922114133835,0.014014587737619877,0.2788352966308594,-0.12581053376197815,-0.026868091896176338,-0.04153541848063469,-0.03293469920754433,-0.021670890972018242,-0.004517115652561188,-0.07594837248325348,0.04142792522907257,-0.103180892765522,0.14503183960914612,0.1403259038925171,-0.02249249257147312,0.09231529384851456,0.09191061556339264,-0.047526560723781586,-0.07776286453008652,0.03352368250489235,-0.01672406867146492,0.015310733579099178,0.06339756399393082,-0.07573991268873215,0.11476624011993408,-0.05149983614683151,-0.10120347887277603,0.028079455718398094,0.048096511512994766,-0.24671101570129395,-0.10081565380096436,-0.10760433226823807,0.2109973281621933,0.07001865655183792,0.052982717752456665,0.11342763155698776,-0.03770258650183678,-0.11859879642724991,-0.0878676101565361,0.19358161091804504,0.05981798470020294,-0.11897671967744827,-0.07496052980422974,-0.06327418982982635,0.11707569658756256,0.08510208874940872,-0.06182665750384331,0.016432905569672585,0.04517187550663948,0.019252918660640717,-0.24251262843608856,0.009971383959054947,-0.0679696723818779,-0.04182444512844086,0.007254397962242365,0.11574053019285202,-0.1198904737830162,0.011401036754250526,0.08267983049154282,0.0988614410161972,0.03964655101299286,0.019557630643248558,0.030363908037543297,-0.09355738013982773,-0.02890266478061676,-0.1281524896621704,0.14444804191589355,0.003998312167823315,0.09641222655773163,0.07922884821891785,-0.5606977939605713,0.08906949311494827,0.003837047843262553,-0.018828537315130234,0.03639565408229828,-0.21537770330905914,-0.051274433732032776,0.1498645395040512,-0.03515653312206268,0.012133343145251274,-0.080219566822052,-0.10556893795728683,1.0707863569259644,-0.1925765573978424,0.11702486127614975,0.023168938234448433,0.24090522527694702,-0.02573789283633232,0.019721515476703644,0.04237056151032448,-0.0413498692214489,-0.027296341955661774,0.12775209546089172,-0.09009215980768204,0.03493180871009827,0.009697265923023224,-0.10301393270492554,-1.0953059196472168,-0.10839689522981644,-0.06058807298541069,0.037221118807792664,-0.026543650776147842,0.008933786302804947,0.019060343503952026,-0.029013948515057564,-0.22389857470989227,0.009852615185081959,-0.2941858172416687,0.010015981271862984,-0.005353859160095453,-0.40379682183265686,-0.03629063442349434,-0.02486988715827465,-0.04292725771665573,0.0612032413482666,0.01017922442406416,0.02747216820716858,0.41664570569992065,0.3131565749645233,-0.0398072712123394,-0.01660035364329815,0.03555919602513313,0.05876169353723526,-0.04088836535811424,0.005111087579280138,0.2648938000202179,0.023003263399004936,-0.007750447373837233,0.023769622668623924,-0.4094960391521454,-0.5523663759231567,0.17522414028644562,0.017596818506717682,0.04392768815159798,0.11714200675487518,0.06395525485277176,-0.02448735013604164,0.09444454312324524,0.06887165457010269,0.09468679875135422,-0.20027771592140198,0.0587146021425724,0.018362369388341904,0.06884880363941193,0.42056307196617126,0.6978579163551331,-0.09823939949274063,0.09377693384885788,0.019535010680556297,-0.001424700254574418,-0.010932444594800472,-0.03563981130719185,0.04396667331457138,0.017727425321936607,-0.04819532856345177,-0.03133060038089752,-0.07383491843938828,-0.09971804171800613,0.21180377900600433,-0.03303307667374611,0.08528422564268112,0.05460807681083679,-0.02205635793507099,-0.160855233669281,0.20315834879875183,-0.09279386699199677,0.1712465137243271,-0.1362343579530716,0.12805543839931488,-0.017692875117063522,-0.23033227026462555,0.3287642002105713,-0.05539679899811745,-0.37278813123703003,-0.07597385346889496,-0.055417828261852264,0.0007961795199662447,0.005792084150016308,-0.04574744775891304,0.10929836332798004,0.11206412315368652,0.003946959972381592,-0.12654902040958405,0.015090909786522388,0.06652317941188812,-0.023464631289243698,-0.04544840753078461,0.09574468433856964,-0.050239142030477524,-0.016242654994130135,-0.09666126221418381,0.089833565056324,0.026974115520715714,-0.08252944052219391,0.0910189226269722,-0.05889817699790001,-0.05728976055979729,-0.042110275477170944,0.02509453147649765,-0.1194935142993927,0.010467969812452793,0.07177744060754776,0.05914841964840889,0.17030680179595947,-0.006216185167431831,-0.018549710512161255,-0.1310245841741562,-0.02464253641664982,-0.006871333345770836,0.03005318157374859,-0.14518578350543976,0.042412612587213516,-0.07748435437679291,0.33547350764274597,-0.09871917217969894,-0.006042880471795797,0.04428092762827873,-0.07583358138799667,-0.23160038888454437,0.16877685487270355,0.08289672434329987,-1.5025609731674194,-0.01522743795067072,-0.05975595489144325,0.1954616755247116,-0.484966903924942,0.44405725598335266,-0.040194302797317505,-0.06325886398553848,-0.191879004240036,-0.27536818385124207,0.1245756521821022,0.0004874698934145272,0.021631278097629547,-0.13854871690273285,0.0018981246976181865,0.1765093058347702,-0.11318626254796982,-0.10267207771539688,0.07030303031206131,0.3204365074634552,-0.4834010601043701,-0.09627612680196762,-0.05599280446767807,0.07624310255050659,0.25649529695510864,0.0042481934651732445,0.086350217461586,-0.07798077166080475,0.05202241241931915,0.07838290929794312,0.34588879346847534,0.0035116076469421387,-0.05985496938228607,-0.1412520557641983,0.07137390971183777,0.04712143540382385,0.11417052894830704,-0.1035342738032341,0.0008764957310631871,-0.0967332199215889,-0.3292871415615082,-0.46286773681640625,0.40065237879753113,-0.06554072350263596,-0.013987688347697258,-0.05042639002203941,-0.0038315767887979746,-0.052595559507608414,0.2801136374473572,0.015394823625683784,0.0026418790221214294,0.043020687997341156,0.37352871894836426,1.0987820625305176,-0.41947296261787415,-0.08441781997680664,0.07030361890792847,-0.10499855130910873,0.038111232221126556,-0.007301220670342445,-0.08206029236316681,-0.19652414321899414,0.04521023854613304,0.037372369319200516,0.05332198366522789,0.028649253770709038,0.012592178769409657,-0.40843164920806885,-1.0859392881393433,0.40059879422187805,0.04406922683119774,-0.032755520194768906,-0.056841086596250534,-0.0004478287592064589,-0.02136709727346897,0.012301528826355934,0.10104551166296005,-0.07196053862571716,0.10501492768526077,-0.0024357433430850506,0.18159730732440948,0.018809467554092407,0.13255298137664795,-0.06834486871957779,-0.09589729458093643,-0.08429506421089172,-0.006972976960241795,-0.08347870409488678,-0.17429590225219727,-0.12771399319171906,-0.15776368975639343,0.11330042034387589,-0.006337904371321201,-0.05636655166745186,-0.09147495031356812,-0.04893799126148224,0.41693881154060364,-0.08548568934202194,-0.16463537514209747,-0.0642167404294014,-0.12694323062896729,-0.04273902252316475,0.15212081372737885,-0.06067749112844467,-0.14852863550186157,0.11164724081754684,0.05785462260246277,0.07692945003509521,-0.044612664729356766,0.0003309653839096427,0.11032793670892715,-0.02801428735256195,0.056430596858263016,-0.062077175825834274,-0.21959137916564941,-0.041689179837703705,0.00407566549256444,-0.2655818462371826,-0.00008290439291158691,-0.01968284323811531,-0.04527071863412857,0.019898347556591034,-0.09470976144075394,-0.05099201574921608,0.24982573091983795,0.0818546935915947,0.16761308908462524,-0.01670062355697155,0.06947627663612366,-0.0550808422267437,-0.00887096207588911,-0.02466672845184803,-0.07965350896120071,0.12360995262861252,0.033888984471559525,0.06122039258480072,-0.724416196346283,-0.12225005030632019,0.06463880091905594,0.10145383328199387,0.09664854407310486,0.23239898681640625,-0.3294740915298462,0.10901795327663422,0.7161852121353149,0.046228498220443726,-0.02969112992286682,-0.04981054365634918,0.6542017459869385,0.5293715596199036,-0.15255522727966309,-0.0028028457891196012,-0.03568519651889801,0.07152479141950607,0.02488766238093376,-0.08246216177940369,0.1296696811914444,0.09667186439037323,-0.01473790593445301,0.20383591949939728,0.03649255260825157,0.016818085685372353,0.1073378473520279,-0.8445737361907959,-0.6390341520309448,0.14452356100082397,0.07105876505374908,0.0222393199801445,0.08594772219657898,0.03853505477309227,-0.027017882093787193,0.017032591626048088,0.1409626454114914,0.03181686997413635,0.09063053131103516,0.03624705225229263,0.11526176333427429,-0.1511099934577942,0.22412174940109253,0.14411264657974243,-0.16782893240451813,-0.005194985773414373,-0.040844231843948364,0.11703882366418839,0.05137300863862038,-0.12352084368467331,0.0033045257441699505,0.11584553867578506,-0.022088130936026573,0.01856796257197857,0.26126888394355774,0.15518558025360107,-0.3905538022518158,-0.08166542649269104,-0.0375044159591198,-0.19416724145412445,-0.02288876101374626,0.07965290546417236,0.09149850159883499,-0.03451996296644211,-0.08289643377065659,-0.042612023651599884,-0.04121537506580353,-0.0422896184027195,0.05588342249393463,-0.01578519493341446,-0.0015986451180651784,-0.048913586884737015,0.0608515702188015,0.04567376524209976,0.010441622696816921,-0.03178374096751213,0.09072702378034592,0.14691710472106934,-0.00966213084757328,0.0937957838177681,0.0638723075389862,-0.02808651700615883,-0.13029958307743073,-0.05661642551422119,-0.2341286838054657,-0.06420379132032394,0.06285204738378525,0.022019002586603165,0.10630513727664948,0.33611318469047546,-0.18278086185455322,-0.10033059865236282,-0.0588863380253315,0.015830883756279945,-0.10978003591299057,0.06313072890043259,-0.05907832831144333,0.1731564849615097,-0.12474924325942993,0.141347274184227,-0.14607471227645874,-0.22713997960090637,0.015305781736969948,0.008756478317081928,0.09208036959171295,0.05453620105981827,-0.11558578908443451,-0.0843549370765686,-0.08359786123037338,0.0258382186293602,0.12270603328943253,0.07160952687263489,0.008011405356228352,-0.07951857894659042,-0.001534974784590304,-0.12339677661657333,-0.04856248199939728,-0.004925700835883617,0.12423031032085419,-0.05687689036130905,-0.012581013143062592,-0.17689946293830872,-0.12802590429782867,-0.04479626566171646,-0.03041846677660942,-0.28678253293037415,0.11284766346216202,-0.027470942586660385,-0.14795304834842682,-0.08107469230890274,-0.038349807262420654,0.005860565230250359,-0.06120040640234947,0.103737011551857,0.1725231260061264,0.0007797153666615486,-0.01990095153450966,0.07340489327907562,-0.10907310992479324,-0.1203058734536171,0.11822222173213959,-0.06579552590847015,-0.020628735423088074,0.10630431771278381,-0.000911661540158093,0.05943155288696289,-0.09193981438875198,0.17022287845611572,0.1285209208726883,-0.11371824890375137,0.27926895022392273,-0.1552269607782364,-0.5107245445251465,0.030201749876141548,-0.020698804408311844,-0.07945287227630615,0.06448381394147873,-0.08141568303108215,0.10151274502277374,0.02043735980987549,0.13281439244747162,-0.09802178293466568,-0.03239560127258301,-0.005973063874989748,-0.06748253107070923,0.18662819266319275,-0.023592693731188774,0.10311731696128845,-0.052299775183200836,0.09497757256031036,0.19926780462265015,0.050197385251522064,-0.07430320233106613,-0.23652075231075287,-0.04154212400317192,0.011977513320744038,-0.18828383088111877,-0.04315226897597313,-0.04882711544632912,0.07144618034362793,0.009491943754255772,0.10801000893115997,0.0821177288889885,-0.06360337138175964,0.04385961964726448,-0.07023376226425171,-0.04751208797097206,0.000535800529178232,0.05459893122315407,-0.027482444420456886,0.058007076382637024,-0.14093415439128876,-0.01811753772199154,-0.06080004200339317,0.22112149000167847,-0.10941632091999054,0.1341916024684906,0.056476060301065445,-0.15950530767440796,-0.2914266884326935,0.29730328917503357,-0.15422482788562775,-0.022878646850585938,0.03529283404350281,-0.11541730165481567,0.013626320287585258,0.029542336240410805,0.028745505958795547,0.11825143545866013,0.04450196400284767,-0.007227759342640638,0.08901114016771317,-0.0650695189833641,-0.1018267497420311,-0.09343399852514267,0.02113528735935688,0.09576111286878586,-0.04812050610780716,-0.04298640042543411,-0.07414266467094421,0.027506938204169273,0.18911483883857727,0.12843407690525055,0.10137221962213516,0.022904107347130775,-0.08918745815753937,0.10431372374296188,-0.026819052174687386,0.0035636210814118385,-0.02563541941344738,0.11268302798271179,0.18304520845413208,-0.0511331744492054,-0.40810543298721313,-0.18311551213264465,0.009156443178653717,0.301876425743103,0.1477264165878296,0.04819183424115181,0.17490391433238983,-0.049234338104724884,-0.0786687582731247,-0.36390361189842224,-0.38215315341949463,-0.007700574118643999,0.11940810829401016,-0.784207284450531,-0.10383471846580505,0.8899422287940979,-0.12455666810274124,0.011851828545331955,0.10193949937820435,0.014998859725892544,0.0478188581764698,0.2977125644683838,0.026389017701148987,0.01622682996094227,0.0017914366908371449,0.056752704083919525,-0.20455369353294373,-0.35799843072891235,0.002506345510482788,0.007581143639981747,0.22684437036514282,0.04337707906961441,-0.17847293615341187,-0.11348900198936462,0.02860952541232109,0.05737524479627609,-0.20819954574108124,0.026617739349603653,-0.06713489443063736,-0.3386118710041046,0.0794455036520958,0.06124044582247734,0.10677813738584518,-0.070504330098629,0.1417829394340515,-0.06844008713960648,0.0004600482643581927,-0.0671486109495163,-0.2675839960575104,0.07102024555206299,0.015355391427874565,0.07415502518415451,-0.05582590028643608,0.031359147280454636,-0.02215617150068283,-0.6148292422294617,0.5712754726409912,-0.1262827068567276,-0.03840985521674156,-0.09443540126085281,-0.028829539194703102,0.15726593136787415,0.07472150772809982,-0.24343597888946533,-0.04325445368885994,0.019702065736055374,0.09438379853963852,0.545125424861908,-0.31118083000183105,-0.11390544474124908,0.024985721334815025,0.005203449632972479,-0.014834539033472538,-0.0026277906727045774,0.010606138966977596,-0.023133747279644012,0.03047780692577362,-0.06130116805434227,0.20574156939983368,0.12070910632610321,0.04962771385908127,-0.056800100952386856,-0.5679399967193604,0.36121243238449097,0.13980484008789062,0.049330782145261765,-0.0002162453456548974,-0.08196042478084564,-0.06330785900354385,-0.034510888159275055,0.025146251544356346,-0.024448424577713013,0.012657180428504944,0.004392640199512243,-0.06684379279613495,0.029886405915021896,0.17721746861934662,-0.042064882814884186,0.004961867351084948,0.04125991463661194,0.06284884363412857,-0.02236221171915531,0.04742003604769707,0.22533230483531952,-0.06940086930990219,0.1527377963066101,0.3063412606716156,0.013706079684197903,-0.4189549386501312,0.8311863541603088,-0.010453719645738602,-0.879321277141571,-0.011079911142587662,0.005408443510532379,-0.1673043668270111,0.18147000670433044,-0.02811923809349537,-0.19285540282726288,0.2741139829158783,0.031347841024398804,-0.32858967781066895,0.13047577440738678,0.11305934935808182,-0.2170456349849701,0.016174254938960075,0.01762903667986393,-0.175154909491539,-0.11741670966148376,0.02086537890136242,-0.15665088593959808,0.06544850021600723,-0.0013675093650817871,0.24861803650856018,-0.21270382404327393,-0.011847871355712414,0.002674244809895754,-0.03295627236366272,-0.0019492056453600526,0.2610352635383606,-0.19552569091320038,-0.015490162186324596,-0.004866573493927717,-0.0004921542713418603,-0.0001278954150620848,-0.057307492941617966,0.032083865255117416,0.000570821575820446,-0.09742578119039536,-0.042539920657873154,0.00025819274014793336,-0.07337439805269241,0.000334560259943828,0.00015281820378731936,-0.00013288459740579128,-0.00004487195474212058,-0.0004969491856172681,0.03093627840280533,-0.00010025785013567656,0.2647112309932709,-0.24223335087299347,0.7014608979225159,-0.6852728724479675,-0.016702022403478622,0.8985743522644043,0.6662887334823608,-0.29121291637420654,0.07742409408092499,0.05850929394364357,-0.28589609265327454,-0.23301587998867035,0.16175632178783417,-0.3632858693599701,0.13231493532657623,0.29807284474372864,0.0023985295556485653,-0.0003744487767107785,0.5488040447235107,1.3326365947723389,-0.005309069063514471,0.41991254687309265,0.3275355100631714,-0.0016259010881185532,0.13880452513694763,0.000750600709579885,-0.006329187657684088,0.0034001818858087063,0.007328472565859556,0.006148661952465773,0.8357985019683838,-0.0072164880111813545,0.002562436508014798,0.0038165173027664423,0.11990149319171906,0.08034918457269669,-0.013954801484942436,-0.022765301167964935,-0.13101856410503387,0.00948604941368103,0.11356069892644882,0.002622700296342373,0.020180944353342056,-0.011370986700057983,-0.012320510111749172,0.006072857417166233,-0.007028958294540644,0.0021439928095787764,-0.004707517568022013,-0.004186753183603287,-0.20019835233688354,-0.2630783021450043,0.013707764446735382,-0.0381397120654583,0.04732891172170639,0.0012612141435965896,-0.0782088041305542,0.005147992633283138,-0.005197526421397924,-0.0002922281273640692,0.006634652614593506,-0.003460769774392247,-0.13370123505592346,-0.006918895523995161,-0.006044394802302122,-0.0016909944824874401,-0.0030658214818686247,-0.5457136631011963,0.0026239154394716024,-0.07925422489643097,-0.19971570372581482,-0.004604367073625326,-0.19664911925792694,0.006618767976760864,-0.007803449407219887,0.0070641664788126945,0.006605464033782482,0.00006536892033182085,-0.012505806051194668,-0.003564131213352084,-0.0018916104454547167,0.008088684640824795,-0.025906043127179146,-0.08493460714817047,0.0015001193387433887,-0.04764089733362198,0.018123552203178406,0.003895676461979747,-0.2059103548526764,0.0015135181602090597,0.003717034822329879,-0.0032017859630286694,-0.004489712417125702,-0.0037209251895546913,-0.05102502927184105,0.007026036735624075,0.004151641391217709,0.003146915463730693,0.19094331562519073,0.21053224802017212,-0.00789590086787939,0.2568669319152832,-0.0444059781730175,-0.0009848044719547033,-0.22329284250736237,-0.005446476396173239,0.0008455617935396731,-0.0007134414045140147,-0.0001940175861818716,0.0029743986669927835,0.02325681410729885,0.001192781375721097,0.006962685380131006,0.0055038658902049065,0.07875026017427444,-0.3337177336215973,-0.0007883243379183114,-0.27753379940986633,-0.09071668982505798,-0.004201709758490324,-0.21335507929325104,-0.00014279696915764362,-0.007480180822312832,0.003959630150347948,0.004902325104922056,0.008081323467195034,-0.05756920576095581,-0.008507036603987217,-0.001808344153687358,-0.0007325906190089881,0.48475080728530884,-0.28703632950782776,0.002724009333178401,0.13866016268730164,0.6201071739196777,0.000004073239779245341,0.35044464468955994,0.0012408458860591054,0.00009367550228489563,0.0008910700562410057,0.00030267226975411177,-0.001768723945133388,0.027728699147701263,0.0001557946961838752,0.015111083164811134,-0.0018513932591304183,-0.5412073731422424,-0.4100051820278168,-0.007873822934925556,0.13067470490932465,0.06721076369285583,-0.0008071186020970345,0.060806501656770706,-0.003925349097698927,0.002354835858568549,-0.003760415595024824,0.005873644258826971,0.011427217163145542,-0.35896655917167664,-0.0013318122364580631,-0.008523634634912014,-0.0003995801380369812,-0.16205176711082458,-0.23119397461414337,0.0026075837668031454,-0.034893203526735306,0.20961067080497742,-0.002442992525175214,-0.2965730130672455,0.007242323365062475,-0.005839333403855562,0.009794969111680984,0.003340209135785699,-0.0017041764222085476,0.038817182183265686,-0.0028022457845509052,-0.005897501949220896,-0.007101638242602348,-0.36208397150039673,0.20682384073734283,0.013929346576333046,-0.036873653531074524,-0.05269097536802292,-0.0005837390781380236,-0.14695683121681213,0.007038000505417585,-0.001618060632608831,0.0014482976403087378,0.0018652068683877587,-0.009702042676508427,-0.4279898405075073,0.00204498996026814,-0.007519384380429983,-0.006321448367089033,-0.21487942337989807,-0.2430233508348465,-0.001276323921047151,-0.015857478603720665,0.12961022555828094,0.002592424862086773,-0.15429040789604187,0.005409181118011475,0.0016444675857201219,-0.0040774354711174965,-0.00039529462810605764,-0.0046757920645177364,-0.07777039706707001,0.013819858431816101,0.0005842629470862448,0.001942922594025731,0.11634176224470139,0.1385796070098877,-0.0012009070487692952,0.06151440367102623,0.23858901858329773,0.0002944821899291128,-0.13757595419883728,-0.00042730639688670635,0.00017131165077444166,-0.00009006544860312715,-0.0009008815395645797,0.0006009676144458354,-0.3259299099445343,-0.0003885668993461877,0.021453579887747765,0.008687690831720829,0.13369134068489075,0.10447360575199127,-0.016258150339126587,-0.1071668192744255,0.233615905046463,0.007495320402085781,-0.28981253504753113,-0.023402567952871323,0.018492383882403374,-0.011607343330979347,-0.007726308424025774,0.01811795122921467,0.27592340111732483,-0.0022887978702783585,0.015696173533797264,0.0047818077728152275,-0.008907873183488846,-0.1262418031692505,-0.009253318421542645,-0.010809232480823994,-0.18930694460868835,0.01204783283174038,0.13110962510108948,-0.015980994328856468,0.01035355031490326,-0.010033409111201763,-0.0073318700306117535,0.015529491007328033,-0.15028013288974762,-0.02847440540790558,0.011838159523904324,-0.008673734031617641,0.4748498797416687,0.2202882468700409,-0.0006214289460331202,-0.18456247448921204,-0.07071973383426666,0.0009548786911182106,-0.14729581773281097,-0.002602645196020603,0.0012874064268544316,-0.00576169416308403,-0.0005047337617725134,-0.0014019639929756522,0.2920737564563751,0.005493937525898218,0.020001405850052834,0.004675881937146187,-0.006557392422109842,-0.010195130482316017,-0.015634838491678238,-0.010390885174274445,-0.03098754957318306,0.17350365221500397,0.01487055141478777,-0.01615995168685913,-0.014719340950250626,-0.009787444025278091,0.01909818686544895,-0.02638566493988037,0.009723538532853127,-0.022868739441037178,0.30784496665000916,-0.1425432711839676,0.023658137768507004,-0.14768290519714355,-0.22596046328544617,-0.08156196027994156,-0.13817763328552246,0.026360666379332542,0.1033438965678215,-0.07028672844171524,-0.765992283821106,-0.2949841618537903,-0.6301709413528442,-0.3633075952529907,0.2417088747024536,-0.2343667447566986,-0.9728442430496216,0.6197795867919922,-0.15707193315029144,-0.11001526564359665,0.18025456368923187,0.5448009967803955,-0.5948449969291687,-0.7061378955841064,0.16361241042613983,0.581352949142456,0.47140517830848694,-0.2303895205259323,-0.1599860042333603,-0.013988558202981949,-0.9675528407096863,-0.09993293881416321,0.39923495054244995,-0.08718770742416382,-0.11997809261083603,0.26515984535217285,-0.46605223417282104,0.6474677920341492,-0.16330082714557648,-0.17301790416240692,-0.2397565096616745,-0.371968150138855,0.06850044429302216,0.00712785916402936,0.08074043691158295,-0.2642883062362671,-0.5681027770042419,-0.34015199542045593,-0.6155815124511719,-0.4864742159843445,0.8912314772605896,0.24052658677101135,-0.08186539262533188,-0.0852460190653801,-0.12731525301933289,0.19218404591083527,0.3170623183250427,0.06761189550161362,-0.5215826630592346,-0.1462843418121338,0.009573491290211678,0.2539534866809845,0.004137369804084301,-0.9889613389968872,0.5612872242927551,-0.2140202671289444,0.10254175215959549,-0.14952592551708221,0.01586795598268509,-0.19935080409049988,-0.6427747011184692,-0.00494880136102438,0.11201006919145584,0.5395588278770447,-0.06704875081777573,-0.07514550536870956,0.17195284366607666,0.0895724669098854,0.10875111073255539,0.7154877185821533,-0.37032628059387207,-0.10689804702997208,0.21412618458271027,0.06336160749197006,-0.197294682264328,-0.3843364715576172,-0.18487799167633057,-0.14429029822349548,-0.10284455865621567,0.2150857299566269,0.02476586028933525,-0.08608686923980713,-0.018248487263917923,-0.11939862370491028,-0.6386910080909729,0.1306571513414383,-0.6906586289405823,-0.1831955462694168,-0.1429699957370758,0.1523706018924713,-0.044740837067365646,-0.29522380232810974,0.13449141383171082,0.012006428092718124,0.13153015077114105,0.1610468626022339,-0.6162014603614807,1.020828127861023,0.4037511944770813,0.17645511031150818,-0.5573329329490662,0.3628610670566559,0.2535545825958252,-0.4464867413043976,0.03836987540125847,0.16809074580669403,0.04949631541967392,-0.24410484731197357,0.8356636762619019,0.16900599002838135,0.16498301923274994,0.13818731904029846,0.1406223028898239,-0.07021845132112503,0.41976818442344666,-0.1129269152879715,0.2037215679883957,-0.2332364022731781,-0.3359006345272064,0.01850833371281624,0.16487060487270355,-0.045989397913217545,-0.3029022812843323,-1.4286245107650757,0.39120376110076904,-0.3336440324783325,0.17299243807792664,0.1660926789045334,0.3185511827468872,-0.052896466106176376,-0.346004456281662,-0.16504618525505066,0.013062501326203346,-0.018150776624679565,-0.1923334300518036,-0.25938472151756287,-0.9210903644561768,-0.03309676796197891,-0.05976876989006996,-0.2291249781847,0.2371075451374054,0.07507942616939545,0.14868611097335815,-0.6647934913635254,-0.39050811529159546,-0.21607930958271027,0.518096923828125,-0.3213523030281067,0.17715241014957428,0.5795548558235168,-0.03830252215266228,-0.2187640219926834,-0.14174427092075348,-0.12476502358913422,0.45309287309646606,-0.26275038719177246,0.7721670269966125,0.5303215980529785,0.4092481732368469,0.44210222363471985,0.22946879267692566,-0.061915330588817596,-0.11627315729856491,0.5044088959693909,0.6274703741073608,-0.47460436820983887,-0.08951916545629501,0.10759291052818298,-0.04014398902654648,-0.06658949702978134,0.5920590758323669,0.4860743582248688,-0.11403985321521759,-0.06348592042922974,-0.2935701906681061,-0.1336413025856018,0.08100654184818268,0.06437836587429047,-0.17879053950309753,-0.26378387212753296,-0.4791985750198364,-0.2464464008808136,0.156687393784523,-0.12143610417842865,0.29395484924316406,-0.12528645992279053,-0.0886736735701561,0.16510049998760223,-0.11884665489196777,0.07325013726949692,-0.2632918655872345,0.11458567529916763,-0.08506040275096893,0.2388533651828766,-0.33722150325775146,0.1840885579586029,-0.08509396016597748,-0.8066533803939819,0.44963598251342773,0.28068041801452637,-0.055670611560344696,0.05203710123896599,-0.1966591775417328,0.3054603636264801,0.24838706851005554,-0.38732144236564636,0.015177550725638866,0.10340891033411026,-0.1855771541595459,0.003103583352640271,-0.03871959447860718,0.019789889454841614,-0.37066081166267395,0.24345579743385315,0.2328970581293106,0.0955929234623909,0.013297950848937035,0.17594942450523376,-1.2893985509872437,-0.9985997676849365,0.5211907625198364,0.07833590358495712,-0.021599680185317993,0.16804467141628265,-0.26627132296562195,-0.03792811185121536,0.1351417750120163,-0.024987945333123207,-0.004719111602753401,0.5329969525337219,-0.07507549971342087,-0.28041011095046997,0.03629568591713905,0.02128056436777115,-0.018441688269376755,0.2432785928249359,-0.08146500587463379,0.1041838601231575,0.09324115514755249,-0.5551626682281494,0.5699620246887207,0.13506878912448883,0.2068634182214737,-0.0997060015797615,-0.1701456904411316,-0.37972837686538696,-0.21090330183506012,-0.2547670900821686,-0.024538133293390274,-0.25237467885017395,-0.11621946841478348,-0.04741710051894188,-0.4390687346458435,0.2843253016471863,0.00526412483304739,0.09115927666425705,0.33807793259620667,-0.2420271635055542,0.003326146863400936,0.45481783151626587,-0.07729446887969971,-0.12499873340129852,-0.13288435339927673,-0.09616123884916306,-0.026716457679867744,0.3592240512371063,0.18971091508865356,0.3812144100666046,-0.6280888915061951,-0.08972402662038803,-0.022236835211515427,0.2870226502418518,-0.07353594899177551,-0.06767348945140839,0.45651331543922424,-0.3246849477291107,-0.25252339243888855,-0.24960383772850037,0.661346971988678,-0.2281363606452942,0.25482138991355896,-0.3194352686405182,-0.27966979146003723,-0.7249952554702759,-0.10165202617645264,0.2422642856836319,0.21324199438095093,-1.6402785778045654,0.26264631748199463,0.9342455863952637,-0.3978586792945862,0.4184315800666809,0.937142014503479,-0.02977224625647068,0.28053778409957886,0.40579432249069214,0.2951798737049103,-0.021537315100431442,0.31446748971939087,0.1213301494717598,0.09078731387853622,-0.10750746726989746,-0.684365451335907,0.2570023536682129,-0.14406074583530426,0.18185487389564514,0.3179328739643097,0.10871551185846329,-0.05204343795776367,-0.02084985375404358,0.2793349027633667,0.2245696634054184,0.12197886407375336,-0.39852362871170044,-0.017812984064221382,-0.4423726201057434,0.29071953892707825,0.3620714843273163,-0.1655241996049881,-0.2299489825963974,-0.3219289183616638,0.23586004972457886,1.009568214416504,0.6717531085014343,-0.4828891456127167,-0.9953625798225403,-0.28038540482521057,0.42741313576698303,-0.4353867173194885,0.046953652054071426,-0.1709648221731186,1.0627799034118652,-0.15413731336593628,0.3935275673866272,0.7373346090316772,0.30845895409584045,-0.12382878363132477,1.075299620628357,-0.3531031012535095,0.12751978635787964,-0.25691843032836914,-0.08912653475999832,0.07884493470191956,0.5121944546699524,0.01490920502692461,-0.33216288685798645,0.4976504445075989,0.07478629052639008,-0.04814935103058815,-0.0666399598121643,-0.18859964609146118,0.10227528214454651,-0.6699396967887878,-0.4901481568813324,-0.15749165415763855,-0.030600273981690407,-0.24341712892055511,-0.01847434602677822,0.21044853329658508,-0.48872336745262146,0.06192523613572121,0.8445615172386169,-0.1355213224887848,-0.09885349124670029,0.0003751923213712871,-0.2969333529472351,0.1989331990480423,-0.38334307074546814,0.06903795152902603,-0.16585838794708252,0.37607887387275696,-0.10047400742769241,-0.5221590995788574,-0.15041109919548035,0.000953094509895891,-0.46694400906562805,-0.05639232322573662,-0.15095552802085876,0.021043283864855766,0.15201115608215332,0.07780586183071136,0.03641708940267563,-0.22219014167785645,-0.30757468938827515,-0.035213783383369446,0.5847246050834656,-0.011898122727870941,0.1720248907804489,0.356325626373291,0.000009300633792008739,0.040465034544467926,0.34122902154922485,-0.11148829013109207,-0.024566439911723137,-0.06177983805537224,-0.13134200870990753,-0.6152155995368958,-0.12595219910144806,0.11184553056955338,-0.040330104529857635,-0.3139103949069977,-0.08667907118797302,0.18768678605556488,-0.04739249870181084,-0.11683594435453415,0.0999327227473259,-0.2595170736312866,-0.060431789606809616,0.1717280000448227,0.019942104816436768,0.3642512261867523,0.21229490637779236,-0.013558715581893921,0.23110494017601013,0.18949905037879944,0.12047500163316727,-0.013883603736758232,0.04843362793326378,0.3063740134239197,-0.2931915819644928,0.019976522773504257,0.4369226396083832,0.21637451648712158,-0.29044896364212036,-0.17924295365810394,-0.03925936669111252,-0.00047227327013388276,-0.015854541212320328,0.04724499210715294,0.08889584243297577,0.21961571276187897,0.6005765199661255,0.517395555973053,-0.12789271771907806,0.22284828126430511,0.07658945024013519,-0.027874302119016647,0.02173621952533722,0.6221603751182556,-0.6945787072181702,0.18161629140377045,0.4464768171310425,0.34123584628105164,-0.9006128907203674,0.13685958087444305,0.6234186887741089,-0.26084619760513306,-0.5660231709480286,-0.15245768427848816,0.2619292438030243,0.7269690632820129,0.8430943489074707,0.27422353625297546,-0.17811502516269684,-0.4680383503437042,0.1328054964542389,0.32377082109451294,0.5656147599220276,0.30088821053504944,-0.17910487949848175,-0.5487138628959656,0.09076277911663055,0.48403632640838623,0.2117176353931427,-0.05990151688456535,-0.07906652987003326,-0.17059707641601562,0.04836789146065712,0.5594571828842163,-0.008331491611897945,0.8781149983406067,-0.8555684685707092,0.1698436290025711,0.014782186597585678,-0.2615916430950165,0.2225155085325241,0.03320097550749779,-0.10993463546037674,0.15033017098903656,0.43205979466438293,0.5636107325553894,-1.0829248428344727,-0.03818506374955177,0.04609348624944687,0.14954432845115662,-0.26218828558921814,-0.12531507015228271,0.40524664521217346,-0.015620841644704342,0.14959299564361572,-0.09829816967248917,0.7306506633758545,0.8700783252716064,0.6627317070960999,-0.3777082860469818,0.1930861473083496,0.21608874201774597,-0.3991382420063019,0.826140820980072,-0.4293159246444702,-0.10563347488641739,-0.19344617426395416,0.05574778839945793,-0.06080271303653717,0.49449580907821655,-0.5337427258491516,0.3224981725215912,0.3297339081764221,0.24481604993343353,0.2089553326368332,0.12971900403499603,-0.37932589650154114,-0.2659086287021637,0.35989728569984436,-0.15248368680477142,0.3787629306316376,-0.12687884271144867,-0.3796244263648987,0.4072936177253723,-0.4341132938861847,0.2706863284111023,-0.1975346803665161,-0.13331858813762665,0.42730796337127686,-0.08598426729440689,-0.10364193469285965,0.2143530398607254,0.49872705340385437,-0.05519003048539162,-0.4533572494983673,-0.42632585763931274,-0.035500429570674896,-0.44969427585601807,-0.47502636909484863,-0.23418626189231873,0.5898199081420898,-0.22887243330478668,0.12170350551605225,0.5543019771575928,0.1839035600423813,-0.2288922220468521,0.02279968559741974,0.09695763140916824,0.17537684738636017,-0.3617921471595764,0.05911887809634209,0.06323602050542831,-0.5968605279922485,-0.49884939193725586,-0.061396367847919464,0.03636723384261131,-0.10263151675462723,0.12993977963924408,0.195493683218956,-0.24611911177635193,0.673764705657959,-0.4583105444908142,0.041032858192920685,0.010995136573910713,0.3700840473175049,-0.16081663966178894,-0.05222069099545479,-0.0805043950676918,-0.11480391770601273,0.08663800358772278,0.6782998442649841,-0.005717054475098848,0.405487984418869,0.4087468981742859,0.05560668557882309,-0.0010895633604377508,0.09823238849639893,-0.003236207878217101,-0.06240444630384445,-0.052318915724754333,0.16549913585186005,0.14199528098106384,-0.26246991753578186,0.17538860440254211,0.03674125298857689,-0.056927938014268875,-0.23445822298526764,0.3750244677066803,0.1218135803937912,0.0446309968829155,0.04076226055622101,-0.018329596146941185,-0.5482796430587769,-0.42628732323646545,0.1883453130722046,-0.06184455379843712,-0.042455948889255524,-0.006921605672687292,0.06997072696685791,-0.13176481425762177,-0.04888417199254036,0.2926526665687561,0.11215666681528091,-0.4365614950656891,0.04301479086279869,-0.12951600551605225,-0.18886522948741913,-0.1772850900888443,-0.4503907561302185,0.1440935879945755,-0.06920310109853745,-0.057141076773405075,-0.11117372661828995,0.017588237300515175,-0.0712612196803093,-0.07137373834848404,0.16054919362068176,0.16721804440021515,0.36034920811653137,0.41115593910217285,-0.10738013684749603,-0.626060426235199,0.012981776148080826,-0.002735750051215291,-0.37746718525886536,0.027377910912036896,0.17023342847824097,-0.00922653079032898,-0.536493718624115,0.41337093710899353,0.10518188029527664,0.36138010025024414,-0.1342688649892807,-0.07027420401573181,0.695393979549408,-0.8385264277458191,0.5655053853988647,0.052946023643016815,0.2926831543445587,-0.14261303842067719,0.6011356115341187,0.08908974379301071,-0.503933310508728,-0.2874336838722229,-0.3299715518951416,-0.13506701588630676,0.045784998685121536,0.3239591121673584,0.7324910163879395,-0.16586293280124664,-0.572615921497345,0.6255562901496887,0.07113964110612869,0.23267260193824768,0.14417806267738342,-0.3301432430744171,0.5421971678733826,-0.21255630254745483,-0.012931112200021744,0.20665469765663147,0.4824870228767395,0.014790443703532219,0.1372586041688919,-0.48078930377960205,0.1866278201341629,0.23044288158416748,-0.2053014487028122,0.22062526643276215,0.6509478688240051,-0.06122547388076782,-0.2488151341676712,-0.05988314375281334,-0.6664997935295105,0.22411994636058807,0.08697456121444702,-0.008854393847286701,0.20307324826717377,0.4241686761379242,0.31005337834358215,-0.22257576882839203,0.08748547732830048,0.12888285517692566,-0.0204776544123888,-0.43364444375038147,-0.7913875579833984,0.10329616069793701,-0.3104340732097626,0.553167998790741,-0.06888261437416077,-0.07128148525953293,0.12116092443466187,-0.04653216153383255,0.1739819347858429,-0.9303555488586426,0.2128770649433136,-0.07024673372507095,-0.028689773753285408,0.17426739633083344,0.006917724851518869,0.031213868409395218,-0.05044163390994072,0.030549142509698868,0.5260295867919922,0.15184827148914337,0.30618733167648315,-0.02842404693365097,0.49658602476119995,0.10568010807037354,0.29285091161727905,0.14701560139656067,-0.08664616197347641,-0.6228325963020325,0.38488075137138367,-0.2375325858592987,-0.0567823126912117,-0.1989864557981491,-0.18930408358573914,-0.6580736637115479,0.07980125397443771,0.2617972791194916,-0.05980973690748215,0.05389321967959404,-0.010248644277453423,0.6006981134414673,-1.2357509136199951,0.026383019983768463,0.0977720320224762,0.4241894483566284,-0.1262560337781906,-0.5217932462692261,0.2575411796569824,0.15260693430900574,-0.4448777139186859,-0.09316877275705338,-0.2564047574996948,-0.5514897704124451,0.14212638139724731,-0.1823519915342331,-0.040211036801338196,0.09844737499952316,0.05821160599589348,0.11807803809642792,0.07176118344068527,0.04339674860239029,1.3653510808944702,0.08752419799566269,-0.14765655994415283,-0.2908719778060913,0.1602535992860794,-0.5037781000137329,-1.3001028299331665,-0.41499578952789307,0.7319765686988831,-0.39102432131767273,0.1305759996175766,-0.16655828058719635,-0.39586788415908813,0.04718117415904999,-0.10480386763811111,0.08438537269830704,-0.26153627038002014,-0.3075399696826935,-0.13478867709636688,0.19556429982185364,0.18087425827980042,-0.06956794857978821,-0.2372599095106125,-0.3589911460876465,0.030874870717525482,0.008242462761700153,-0.010033158585429192,0.2811378836631775,0.1006876677274704,2.1177947521209717,-0.09853465110063553,0.20539973676204681,-0.024964474141597748,-0.026103194802999496,0.013674307614564896,-0.5482408404350281,0.49699509143829346,0.7172953486442566,-0.42936140298843384,0.8306070566177368,-0.5155954360961914,-0.03613677993416786,-0.027322422713041306,0.6176756620407104,-0.6943040490150452,-0.29385992884635925,-0.9061979651451111,0.2576455771923065,-0.9199164509773254,0.3105961084365845,-0.2422703504562378,-0.3592299818992615,-0.3907286524772644,-0.08017349988222122,0.5830464363098145,0.31300023198127747,-0.05300366133451462,-0.06290065497159958,0.046436384320259094,-0.0462874136865139,-0.000004356160388852004,0.03737626224756241,-0.051967553794384,-0.5393939018249512,-0.22946585714817047,0.056407380849123,0.001280208583921194,0.19451892375946045,0.16560015082359314,0.06603612750768661,-0.17306144535541534,-0.19626574218273163,-0.16870754957199097,0.17556169629096985,-0.24644753336906433,-0.1576893925666809,-0.20420978963375092,0.16559180617332458,0.046676069498062134,-0.32180115580558777,-0.01291295513510704,0.26943835616111755,-0.11168499290943146,0.26031070947647095,-0.18563783168792725,-0.05976295471191406,-0.10978013277053833,0.49124693870544434,-0.04511212930083275,-0.09274516254663467,-0.005894172936677933,0.32117244601249695,0.028921905905008316,-0.3578941822052002,-0.26486173272132874,0.042304713279008865,-0.012572545558214188,-0.05966462567448616,-0.0033125344198197126,0.07027357071638107,0.040101557970047,-0.7483447790145874,0.3185155689716339,-0.3864079415798187,-0.14002984762191772,-0.09405890852212906,-0.0763733759522438,0.13705676794052124,-0.02411673404276371,0.4299883246421814,0.16299553215503693,-0.0947917103767395,0.21707476675510406,0.029487939551472664,-0.008245334029197693,0.17838476598262787,-0.25190600752830505,0.1861475110054016,-0.259175568819046,-0.035375021398067474,0.12477757781744003,0.07385389506816864,0.009562368504703045,-0.39699649810791016,-0.17120859026908875,-0.6262912750244141,0.5615200400352478,-0.40755942463874817,0.2874457836151123,-0.12969882786273956,0.08219820261001587,-0.040462180972099304,0.06493725627660751,0.23692327737808228,-0.10451706498861313,-0.20233124494552612,0.06455960869789124,0.15145805478096008,-0.012652131728827953,-0.03400591388344765,0.05315263569355011,-0.059706080704927444,0.18181882798671722,-0.06756386905908585,-0.25765228271484375,0.032235026359558105,0.055950284004211426,0.12795424461364746,-0.04576978459954262,0.06516791135072708,-0.5005859136581421,0.47417882084846497,0.07000692933797836,-0.0969122126698494,-0.004467409569770098,0.17097344994544983,-0.26320481300354004,0.20911715924739838,-0.412672221660614,-0.22679893672466278,0.35373491048812866,-0.056231386959552765,0.05481700599193573,-0.08456883579492569,0.09179607033729553,-0.26108938455581665,-0.01978607475757599,0.2607870399951935,-0.006466633640229702,0.1801902800798416,-0.005287247709929943,-0.021695056930184364,0.056218475103378296,0.054097142070531845,0.10904659330844879,-0.2611592411994934,-0.13705962896347046,-0.21145755052566528,0.007301527541130781,-0.2773074805736542,-0.004393000155687332,-0.132054403424263,-0.027638670057058334,0.019500216469168663,-0.3113746643066406,0.15329544246196747,0.3045993745326996,0.005204611457884312,0.08604328334331512,0.06588315218687057,0.19160571694374084,0.08772476017475128,0.08238792419433594,0.18249326944351196,0.18564243614673615,0.00514854583889246,-0.05958937853574753,0.11805590242147446,-0.13525496423244476,-0.04849746823310852,-0.5612371563911438,-0.020700376480817795,0.03654777631163597,0.13149148225784302,-0.15296171605587006,-0.4369208514690399,-0.14864125847816467,-0.03773168846964836,0.02109246887266636,-0.046829987317323685,-0.1345115602016449,0.21077418327331543,-0.10004238039255142,-0.022758184000849724,-0.029192155227065086,-0.0864834263920784,0.15622922778129578,0.07873573899269104,0.014766879379749298,0.3999389111995697,0.1256035715341568,-0.6224098801612854,0.04572201147675514,0.3662490248680115,-0.03348788991570473,-0.16186751425266266,0.0022549054119735956,-0.2193937450647354,0.2352922558784485,0.04371916875243187,-0.13101492822170258,-0.058820690959692,-0.2878941297531128,0.11538924276828766,-0.0758698433637619,-0.035449638962745667,-0.2664693295955658,0.8945531249046326,0.2473030984401703,0.11921511590480804,0.03013175167143345,-0.038491230458021164,0.31102484464645386,0.1609654426574707,0.19634543359279633,-0.07432114332914352,-0.11830383539199829,0.3402746915817261,-0.6825598478317261,-0.07069071382284164,-0.04814524203538895,0.12471255660057068,0.32013139128685,-0.2477685809135437,-0.34977859258651733,-0.45385926961898804,-0.30982768535614014,-0.08379867672920227,0.07842667400836945,0.31506040692329407,-0.07440906763076782,0.0759187564253807,0.11859466880559921,-0.0010944142704829574,-0.49884477257728577,0.07078482210636139,0.1441998928785324,0.09486334025859833,0.21769453585147858,0.4707317054271698,-0.287728488445282,0.20416687428951263,-0.21067865192890167,-0.2678022086620331,-0.07947338372468948,-0.02881583943963051,0.14400099217891693,0.0772988423705101,0.14816278219223022,-0.21186120808124542,-0.31176820397377014,-0.3438822627067566,0.007614654954522848,-0.08880231529474258,-0.0007880781195126474,0.0340622216463089,-0.17631720006465912,0.0777246281504631,0.2323412448167801,0.1785525381565094,0.00017363234655931592,0.10116677731275558,-0.19640013575553894,-0.08487366884946823,-0.13352912664413452,-0.36070936918258667,0.1415458619594574,-0.028802135959267616,0.10070016980171204,-0.20585250854492188,-0.03506803140044212,0.3873136639595032,-0.20570047199726105,-0.4768984019756317,0.19215811789035797,-0.09896447509527206,-0.024237338453531265,0.26509034633636475,-0.19767996668815613,0.37806832790374756,-0.57020103931427,0.7289608716964722,0.028123265132308006,-0.14937002956867218,-0.007104362361133099,-0.009817712008953094,0.38211044669151306,0.4228331744670868,-0.8423463106155396,0.2650740146636963,-0.5352582335472107,-0.08495508134365082,-0.4035257399082184,-0.2729024589061737,0.1460471749305725,-0.012825234793126583,0.30874302983283997,0.4531414210796356,-0.30374613404273987,-0.021530378609895706,0.17420417070388794,0.1148720309138298,0.11075375229120255,-0.1133965477347374,-0.2536340057849884,-0.2519267201423645,0.15577934682369232,-0.13881731033325195,-0.2877040505409241,0.24268320202827454,0.36459794640541077,-0.25471851229667664,0.15220186114311218,-0.46211549639701843,-0.23783092200756073,0.3429388105869293,-0.10931891202926636,0.5725863575935364,-0.44321131706237793,0.9556617140769958,-0.5688115954399109,0.41096386313438416,0.3430804908275604,0.21934442222118378,-0.15110597014427185,0.02225460670888424,0.3541472554206848,0.40501001477241516,-0.24240143597126007,0.3487146198749542,-0.4602859914302826,-0.10019297897815704,-0.08053592592477798,0.1516413688659668,-0.4160052239894867,-0.017261089757084846,0.3393884003162384,0.2707717716693878,-0.3767063617706299,0.48559874296188354,0.09368395060300827,-0.03784279525279999,-0.7356718182563782,0.29959848523139954,-0.01739824377000332,0.20690229535102844,0.13398607075214386,0.14557990431785583,0.21478095650672913,0.22321735322475433,-0.4812321662902832,-0.11291657388210297,-0.24732068181037903,0.33607059717178345,-0.1649286448955536,0.02505292184650898,-0.5025601983070374,0.3010833263397217,0.22175893187522888,0.06568270176649094,0.12271784245967865,-0.04027974233031273,-0.09305319935083389,-0.41992953419685364,0.2866780459880829,0.31679579615592957,-0.07489816844463348,-0.6450362801551819,0.48501986265182495,0.29040947556495667,-0.16962169110774994,-0.002598902676254511,0.3770312964916229,0.0630594938993454,-0.11691075563430786,-0.6028489470481873,-0.2819054126739502,-0.004790277685970068,0.03184976428747177,0.02171517349779606,0.11758753657341003,0.05491436645388603,-0.37251436710357666,0.259284108877182,-0.02538447268307209,-0.7761440277099609,-0.07400518655776978,-0.04806603491306305,0.35086992383003235,-0.22472484409809113,0.35253626108169556,-0.5378076434135437,0.3413251042366028,-0.6297001242637634,-0.8794874548912048,0.023279083892703056,-0.07685818523168564,-0.5451934933662415,-0.1402425318956375,-0.5131575465202332,0.5175926089286804,-0.49786001443862915,0.21234098076820374,0.2530834972858429,0.23411138355731964,-0.3940635919570923,-0.28078415989875793,0.7787228226661682,0.2033866047859192,-0.611860990524292,0.06713175773620605,0.5577806234359741,-0.1393168866634369,-0.4304581582546234,0.1799827367067337,-0.6134288907051086,-0.25141793489456177,0.24107813835144043,-0.09495070576667786,-0.007138525601476431,-0.24639210104942322,0.624943733215332,0.3762969970703125,0.09665578603744507,-0.2572433352470398,-0.2514835000038147,-0.7062501311302185,0.8811213374137878,-0.6788426041603088,0.18129464983940125,0.1907997876405716,-0.45150893926620483,0.5084165334701538,0.24587678909301758,0.4556475579738617,0.03021620400249958,-0.4615221619606018,-0.1906074732542038,-0.8640524744987488,0.758357048034668,0.3433905243873596,-0.6685835123062134,0.046641431748867035,0.5765883326530457,0.1029743030667305,-0.3945297300815582,0.1296958178281784,0.8391707539558411,-0.39496225118637085,-0.08452315628528595,-1.1592893600463867,0.6828728914260864,0.27101626992225647,-0.05735696107149124,0.3681752681732178,0.3324418365955353,-0.1804414838552475,-0.5414947867393494,-0.2567353844642639,-0.13230863213539124,0.3826340138912201,-0.209321066737175,0.496343731880188,-0.2582508623600006,-0.11397922784090042,-0.2144804447889328,-0.3101238012313843,0.044274747371673584,0.16498231887817383,-0.3232441544532776,-0.11227308958768845,0.5953116416931152,0.7072644829750061,-0.2836151123046875,0.39724788069725037,-0.2461685985326767,0.2427183836698532,0.2500142753124237,0.03942945972084999,0.08160849660634995,-0.46989813446998596,-0.06157733127474785,-0.11484809964895248,-0.35338494181632996,0.605036735534668,0.4640798568725586,-0.07504375278949738,-0.48917925357818604,-0.023987267166376114,0.18399778008460999,0.30447664856910706,-0.15802712738513947,0.41319042444229126,-0.23917551338672638,-0.14505505561828613,0.01580778881907463,0.5439338684082031,0.20295628905296326,-0.008857343345880508,-0.6977663040161133,0.033220287412405014,0.15332671999931335,0.31019875407218933,-0.32009828090667725,0.41218408942222595,0.2256494015455246,0.2616046369075775,0.13312558829784393,-0.26777783036231995,-0.10019662976264954,-0.019459472969174385,-0.1337406486272812,0.18115007877349854,-0.039898816496133804,-0.03296676650643349,-0.6071203947067261,-0.4011014997959137,-0.06209348514676094,0.22308090329170227,-0.2588610351085663,0.30858707427978516,0.05985239893198013,0.130009725689888,-0.08446180075407028,-0.2102319300174713,0.04077955707907677,0.33242154121398926,-0.17284992337226868,0.09304986894130707,0.31775468587875366,0.4375200569629669,0.3554063141345978,0.23605239391326904,0.06990808248519897,-0.5732521414756775,0.24349254369735718,0.1787794679403305,-0.5397288203239441,-0.16502919793128967,-0.0793357789516449,0.3447396159172058,-0.23239701986312866,0.006872700527310371,-0.3451581597328186,-0.6277737021446228,-0.002995949238538742,-0.25147050619125366,0.3104837238788605,0.519797146320343,-0.09481430053710938,0.31331202387809753,-0.07449749857187271,0.3268990218639374,0.0445004403591156,-0.00508297560736537,-0.42727765440940857,0.12884534895420074,-0.1387229859828949,0.24865344166755676,0.01434391364455223,-0.6409697532653809,0.2120557278394699,-0.6383656859397888,0.016167795285582542,0.3825099468231201,0.010099989362061024,0.5787749290466309,-0.5804353356361389,0.20918016135692596,0.08183977752923965,0.29737555980682373,0.42056843638420105,0.09410278499126434,-0.10866183787584305,-0.3388011157512665,-0.03325716406106949,0.21754352748394012,-0.28442904353141785,0.15138117969036102,-0.3881226181983948,-0.3221644461154938,0.09034095704555511,0.39520740509033203,-0.24358563125133514,0.18781688809394836,-0.34793370962142944,0.10448561608791351,0.25720587372779846,0.3512168824672699,0.009379450231790543,-0.3652767539024353,-0.06740768998861313,0.7917568683624268,0.18594565987586975,0.012152014300227165,-0.2638990581035614,-0.10114472359418869,-0.5187629461288452,-0.3079884946346283,0.2426663190126419,0.07663882523775101,-0.15250393748283386,0.2596471309661865,0.46946603059768677,-0.26189708709716797,-0.027756156399846077,0.16482210159301758,0.23941053450107574,-0.4165497422218323,0.08573219925165176,0.29878127574920654,-0.19028016924858093,-0.1645861566066742,0.3337181806564331,0.4287686347961426,-0.3445200026035309,-0.2798468768596649,-0.40224316716194153,0.6300544142723083,0.14513343572616577,-0.15777523815631866,0.4473847448825836,0.30629101395606995,-0.08173244446516037,0.07990050315856934,0.2101498246192932,-0.15384818613529205,-0.39026474952697754,-0.024119053035974503,-0.6442966461181641,0.6667571663856506,0.03654653578996658,0.38717472553253174,-0.20081059634685516,-0.33557459712028503,0.1271734982728958,-0.04067450016736984,-0.18287715315818787,0.10810458660125732,-0.8084602355957031,-0.04236827418208122,-0.963249146938324,0.6035255193710327,0.42262133955955505,0.12849053740501404,-0.47600409388542175,-0.07332758605480194,0.17903058230876923,-0.3814510107040405,-0.2973213493824005,-0.39285948872566223,-0.10566382855176926,-0.19231633841991425,-0.2700729966163635,-0.0008220973541028798,0.20710389316082,0.09458054602146149,0.41965556144714355,0.12390002608299255,0.48132404685020447,-0.36214473843574524,0.12340066581964493,-0.04622717574238777,-0.24222013354301453,0.22080662846565247,0.22744040191173553,-0.3401578962802887,0.1526721715927124,0.046011753380298615,0.44588080048561096,-0.3147974908351898,-0.7115908861160278,0.18348154425621033,-0.42208564281463623,-0.34272849559783936,0.5240657329559326,-0.045842722058296204,0.37313103675842285,-0.9626080989837646,0.29309889674186707,-0.5861246585845947,0.3791496455669403,-0.6262585520744324,-0.060754649341106415,0.7948389053344727,-0.4560222029685974,-0.49951866269111633,0.5189163684844971,0.02705538272857666,0.3425863981246948,-0.8199015855789185,0.2439841628074646,0.7784391045570374,0.4062871038913727,-0.7499020099639893,-0.19558732211589813,0.7139548063278198,-0.7770044803619385,0.16584241390228271,0.08213536441326141,0.3233354389667511,0.09241477400064468,-1.087182879447937,0.2705572247505188,0.07574807107448578,0.23297521471977234,-0.23482409119606018,-0.11425826698541641,0.2832314372062683,-0.22465156018733978,-0.19424210488796234,0.3428044617176056,-0.636249303817749,0.17659319937229156,-0.15541759133338928,-0.275899738073349,0.39803871512413025,0.5215113162994385,-0.2935868501663208,-0.00939592532813549,-0.1590127795934677,-0.2244136482477188,0.07654759287834167,-0.45269253849983215,0.20592167973518372,0.2964485287666321,-0.5268232822418213,0.19891586899757385,-0.39755287766456604,0.19646640121936798,0.25534772872924805,-0.30748528242111206,-0.25645604729652405,-0.21678045392036438,0.17863446474075317,0.6916495561599731,0.00634966092184186,0.14661724865436554,0.03750468045473099,0.3750757575035095,-0.5118030905723572,0.06851355731487274,0.5439384579658508,-0.36330634355545044,-0.1803155243396759,-0.12871786952018738,0.2385634332895279,-0.4523114860057831,0.13474181294441223,-0.17065982520580292,-0.13540083169937134,0.5040205121040344,-0.17413470149040222,-0.5092180967330933,0.4704597592353821,-0.3774518370628357,0.24211987853050232,-0.306248277425766,0.0626809298992157,0.3653796911239624,0.14362157881259918,0.13060927391052246,0.05074898153543472,-0.6651262044906616,-0.2630172371864319,-0.2197071760892868,-0.49487003684043884,-0.5478437542915344,-0.11635217070579529,0.18464702367782593,-0.07527101784944534,0.11477196961641312,-0.022928528487682343,-0.36164888739585876,0.3039589524269104,-0.15330146253108978,0.46199989318847656,-0.3891729414463043,-0.31351107358932495,0.04152388498187065,-0.5441598892211914,0.12521420419216156,-0.1363745480775833,0.038490526378154755,0.27507492899894714,0.022821350023150444,0.08606047183275223,0.5124226808547974,0.00645653298124671,0.7911742925643921,-0.28980064392089844,0.37970906496047974,-0.9232433438301086,-0.3353644907474518,0.08679530024528503,0.008790322579443455,-0.024711500853300095,0.2553429901599884,0.31064778566360474,-0.30834129452705383,-0.07712993025779724,0.7535449266433716,-0.6839929819107056,0.05787752568721771,-0.07268460839986801,0.21839256584644318,-0.055907584726810455,0.09891977906227112,0.060191359370946884,-0.6570658087730408,0.05389023944735527,0.2874160408973694,0.33695876598358154,0.4406777322292328,0.31967031955718994,-0.20214875042438507,-0.1804855614900589,-0.0468083880841732,0.17936375737190247,-0.5077804327011108,-0.165297731757164,0.7911261320114136,-0.8645442724227905,-0.08950990438461304,-0.20722155272960663,0.3375110328197479,0.09858575463294983,-0.47299620509147644,0.43236494064331055,0.0337173156440258,-0.8228026628494263,0.31256359815597534,-0.061866551637649536,0.9717318415641785,-0.03203989565372467,-0.33038055896759033,0.42590001225471497,-0.4441671073436737,-0.33335936069488525,-0.7099025845527649,0.9816820621490479,0.5239264369010925,0.48402637243270874,-0.4598020315170288,-0.4810968339443207,0.6242519021034241,-0.6147076487541199,0.1695852428674698,0.6011787056922913,-0.14668382704257965,-0.2637684941291809,-0.567655622959137,0.47617825865745544,0.1779966950416565,-0.3493403494358063,0.30596184730529785,0.25058114528656006,-0.23136796057224274,0.23695653676986694,0.22590471804141998,-0.3602434992790222,0.07905812561511993,0.5234176516532898,-0.01739724539220333,-0.10178982466459274,-0.20337963104248047,0.8181352615356445,-0.47966375946998596,-0.22629761695861816,0.036888089030981064,-0.24808849394321442,0.28129881620407104,0.5214582681655884,-0.257703572511673,0.2513164281845093,0.1139940544962883,-0.05766550824046135,0.17609168589115143,-0.03023531846702099,0.26881375908851624,-0.09171225875616074,-0.30952033400535583,-0.16115175187587738,0.05575930327177048,-0.07497363537549973,-0.541179895401001,0.21524211764335632,0.8198859691619873,-0.020682787522673607,-0.24698497354984283,-0.09951239824295044,-0.23072968423366547,0.4441908299922943,-0.1229989156126976,0.4096613824367523,-0.4735763669013977,-0.15120936930179596,-0.15513035655021667,0.9602046012878418,-0.02597309835255146,0.3012962341308594,-0.04209721460938454,0.22933830320835114,0.20424653589725494,-0.0734880268573761,-0.3811643123626709,-0.19030143320560455,-0.05198679491877556,-0.8872842788696289,0.2807254195213318,-0.3201577961444855,0.3913070857524872,0.0018968969816341996,0.38114771246910095,0.40428200364112854,0.0027157075237482786,-0.1632167547941208,-0.7208805084228516,0.47650179266929626,-0.2777271866798401,-0.1366032212972641,0.030642453581094742,0.3039795160293579,0.4363585114479065,-0.3217761814594269,-0.24455858767032623,0.1944153606891632,-0.24616721272468567,0.32093989849090576,-0.8519818186759949,-0.0854642391204834,0.3360443711280823,0.007863477803766727,0.9435398578643799,-0.267143189907074,0.5680724382400513,-0.6007992625236511,0.13835132122039795,-0.2521218955516815,0.7011063098907471,-0.0771893709897995,0.12857091426849365,-0.5090904235839844,-0.2500297427177429,-0.5672747492790222,-0.20262283086776733,-0.024639923125505447,0.3244180977344513,-0.5875024199485779,-0.16199491918087006,-0.08684680610895157,0.7167296409606934,0.15898586809635162,-0.7430158853530884,0.2815951704978943,0.000048573238018434495,0.8018266558647156,0.36371439695358276,-0.1455816775560379,0.24488547444343567,-0.23523391783237457,0.3087296783924103,0.05832977965474129,-0.030506037175655365,0.6952271461486816,0.25089889764785767,0.31675785779953003,-0.11037272214889526,-0.0927477777004242,-0.17414966225624084,0.054325707256793976,0.41736263036727905,-0.51289302110672,-0.17934086918830872,-0.31447330117225647,-0.21029594540596008,0.39291271567344666,0.022094203159213066,-0.2925039827823639,-0.8811417818069458,0.35536015033721924,-0.20757530629634857,0.0607663169503212,0.289486289024353,-0.057159457355737686,0.08184939622879028,0.6725533604621887,0.06493629515171051,-0.2760624885559082,-0.16997361183166504,0.09457456320524216,0.31577762961387634,-0.15818610787391663,-0.3055829107761383,-0.18990680575370789,-0.22445148229599,-0.5507262945175171,-0.11228160560131073,-0.706619918346405,0.28175583481788635,0.5915781259536743,-0.17227107286453247,-0.17159977555274963,0.7013124823570251,-0.3698504865169525,0.09229286015033722,0.200870543718338,0.3530322015285492,-0.537003219127655,0.14834648370742798,0.09264207631349564,0.02225988544523716,0.2520143389701843,-0.14604555070400238,0.8140692710876465,-0.23512017726898193,0.29690268635749817,-0.3135282099246979,-0.10171820968389511,0.2093506008386612,-0.34768545627593994,1.1740556955337524,0.023968245834112167,-0.16650359332561493,0.5447483658790588,-0.4349744915962219,1.2871452569961548,-0.22710458934307098,0.3088517189025879,-0.60544353723526,0.17455916106700897,-0.2640581727027893,-0.8027863502502441,1.2947489023208618,0.2603358328342438,-0.04155566915869713,-0.5563052892684937,-0.5521594285964966,0.40075308084487915,-0.42439213395118713,-0.008818868547677994,-0.048142775893211365,0.06053981930017471,-0.2873571217060089,-0.315949946641922,0.3738384246826172,-0.975671112537384,0.21088770031929016,0.7836834192276001,0.5390666723251343,0.6420917510986328,-0.5873838067054749,-0.5722362399101257,-0.13291357457637787,0.25843483209609985,-0.38543224334716797,0.09277340769767761,0.2503952085971832,-0.17989663779735565,0.7019324898719788,-0.4888341426849365,0.04213406890630722,0.39282575249671936,-0.024320442229509354,-0.09998751431703568,0.3759147822856903,0.6897314190864563,-0.8642295598983765,0.21288615465164185,-0.08353172242641449,0.14242395758628845,0.03628784045577049,-0.35842156410217285,0.0023103621788322926,0.22041858732700348,-0.14322136342525482,0.15149524807929993,0.037790168076753616,-0.25733473896980286,0.6067004203796387,0.9229081869125366,-0.5443229675292969,0.26329922676086426,-0.1261306256055832,0.5117825865745544,-0.24336110055446625,-0.4681769907474518,1.3553438186645508,0.14440803229808807,-0.0013918793993070722,0.911619246006012,0.09329097718000412,-1.2718563079833984,-0.016025444492697716,-0.27487605810165405,0.19730731844902039,-0.02590097114443779,0.3341596722602844,-0.12571324408054352,0.25747352838516235,-0.1851811558008194,0.02233119308948517,0.11518525332212448,0.19743995368480682,0.007180097047239542,0.11380783468484879,-0.010318199172616005,-0.1843269318342209,-0.05337202921509743,0.22085727751255035,-0.09907909482717514,0.3357343375682831,-0.09207704663276672,-0.14623287320137024,0.11971839517354965,0.16168512403964996,0.22014930844306946,0.27598443627357483,0.17250008881092072,-0.00815868191421032,-0.2501128315925598,-0.14575324952602386,0.038929522037506104,0.04160671308636665,-0.08697492629289627,-0.17772416770458221,0.04000547155737877,0.181706041097641,-0.38313615322113037,0.2461678683757782,-0.058759354054927826,0.12628790736198425,0.010276013053953648,-0.23032787442207336,0.20932959020137787,0.1746015101671219,0.06741844862699509,-0.020420288667082787,-0.03415843844413757,-0.006719613913446665,-0.06049051880836487,-0.0017424799734726548,0.053517621010541916,0.05306273326277733,0.008289131335914135,0.049622371792793274,0.09687569737434387,-0.22006367146968842,-0.09007550776004791,-0.07772109657526016,-0.08135150372982025,0.08427287638187408,0.09257639199495316,0.010802892968058586,0.1085541695356369,-0.09405166655778885,0.13294115662574768,0.03758625686168671,-0.024681583046913147,-0.03729120269417763,-0.2469167411327362,0.16555748879909515,-0.03237515687942505,0.012553934007883072,0.3432992994785309,-0.08053628355264664,-0.15199998021125793,0.033462271094322205,-0.4393909275531769,0.00942804105579853,0.21272027492523193,0.5782390236854553,0.17064712941646576,-0.16444562375545502,-0.1885734647512436,0.12364248186349869,0.22795511782169342,-0.3787926435470581,-0.2980330288410187,0.255461186170578,-0.052066076546907425,-0.15253177285194397,-0.008829351514577866,0.037700459361076355,0.15219241380691528,0.22266627848148346,-0.15174289047718048,0.14723911881446838,-0.04243505001068115,0.14067694544792175,-0.2844642996788025,-0.029918447136878967,-0.2919030487537384,-0.15634451806545258,0.06274797767400742,0.055365413427352905,0.7403354644775391,-0.31643053889274597,-0.028765060007572174,0.06686904281377792,-0.8166234493255615,-0.08891191333532333,0.41761237382888794,-0.1580847203731537,0.3129999041557312,-0.025857290253043175,0.09409666806459427,-0.07880707085132599,0.04199377819895744,0.1643345057964325,-0.011316176503896713,-0.06788817048072815,-0.11233441531658173,-0.019876470789313316,0.15101701021194458,-0.16606885194778442,-0.09913667291402817,-0.330535888671875,-0.019369272515177727,-0.2394973337650299,-0.0018320006784051657,-0.3284759521484375,0.07177728414535522,0.11257011443376541,-0.1385357826948166,0.2543928623199463,0.2503364682197571,-0.15286578238010406,0.17079471051692963,-0.1018209233880043,-0.03437134250998497,0.3158590793609619,-0.34970149397850037,0.46881377696990967,0.1498248130083084,-0.025591479614377022,0.15983319282531738,-0.0958547294139862,-0.022809946909546852,-0.12121289223432541,0.13636983931064606,-0.1054636761546135,0.32688698172569275,-0.06782221049070358,-0.2503921687602997,0.03185892105102539,0.13413900136947632,0.03284579887986183,-0.010640875436365604,0.021323062479496002,0.09875436127185822,0.1335018128156662,0.05742475390434265,-0.100365050137043,-0.24473223090171814,-0.05040024593472481,-0.15649902820587158,0.43466195464134216,-0.14143000543117523,0.08267076313495636,-0.05336349830031395,-0.14232094585895538,0.17556039988994598,0.09218898415565491,-0.1722690463066101,-0.24229440093040466,0.007922984659671783,0.2994459569454193,0.16077759861946106,0.04380529373884201,0.34473922848701477,0.022893385961651802,-0.12056685984134674,0.1514562964439392,-0.07288879156112671,0.1840602308511734,-0.13430094718933105,0.0017249933443963528,-0.1085146963596344,-0.051045529544353485,0.2042858600616455,-0.27701041102409363,-0.0729147270321846,-0.044360365718603134,0.16344527900218964,-0.08182160556316376,-0.13297882676124573,-0.17411310970783234,0.05096239224076271,-0.08459965139627457,-0.2076149880886078,-0.14033782482147217,-0.04235689342021942,0.17684553563594818,0.09684092551469803,0.10449192672967911,-0.3167929947376251,0.210385262966156,0.06114637106657028,-0.1532140076160431,-0.19023936986923218,0.10434608161449432,0.12585049867630005,0.2980458438396454,-0.027690289542078972,-0.0003696750500239432,0.3676948547363281,-0.07784691452980042,-0.07038003206253052,-0.013028954155743122,0.32438379526138306,0.09788835048675537,-0.1436200886964798,0.2532711923122406,-0.17169593274593353,0.05281449854373932,-0.055061791092157364,-0.058926794677972794,0.34275850653648376,-0.17921780049800873,0.17139993607997894,-0.4433768391609192,0.16598331928253174,0.16723892092704773,0.19402706623077393,0.06679321080446243,0.30432263016700745,-0.2852649688720703,0.15105769038200378,-0.1997777670621872,-0.03319871053099632,0.2674250602722168,-0.1734573394060135,-0.05329641327261925,0.010896150954067707,-0.23841862380504608,-0.25321656465530396,-0.0917796790599823,0.016697688028216362,0.039013661444187164,0.09816577285528183,0.008539416827261448,0.2685253620147705,0.008686942048370838,-0.32721245288848877,0.0437060222029686,-0.005697828251868486,-0.302989661693573,0.10298425704240799,0.32867008447647095,-0.020344030112028122,0.034699421375989914,-0.1962670385837555,-0.2821287512779236,0.7282174825668335,-0.48612526059150696,-0.1468134969472885,-0.5993093848228455,-0.15977181494235992,0.040506135672330856,0.07599242031574249,0.0059516048058867455,-0.3431357741355896,0.0935220792889595,-0.16406594216823578,0.8529580235481262,-0.14381752908229828,-0.4529859721660614,0.09646092355251312,-0.018553614616394043,-0.49278852343559265,0.6876640915870667,-0.5028200745582581,-0.46611225605010986,-0.668881356716156,0.0396842323243618,0.33747348189353943,0.6777922511100769,-0.185035839676857,-0.5294161438941956,0.23927786946296692,0.19810056686401367,-1.0315237045288086,-0.25598299503326416,-0.5713796019554138,0.38759636878967285,0.3825207054615021,-0.2169826775789261,-0.6793221831321716,0.6049624681472778,-0.07043536007404327,0.29901596903800964,-0.13497519493103027,-0.04933340102434158,-0.4677647650241852,-0.020878925919532776,-0.1037263572216034,0.16087497770786285,0.46392130851745605,-0.5298464298248291,0.20482197403907776,-0.724122166633606,0.25890904664993286,0.20057593286037445,-0.38048163056373596,0.1988714039325714,0.4005782902240753,-0.6141147017478943,0.13232652842998505,0.14304295182228088,0.14154161512851715,-0.30274301767349243,-0.43719157576560974,0.3749525845050812,0.26282212138175964,0.08531822264194489,0.0846400335431099,-0.207274928689003,-0.024644427001476288,-0.0916653424501419,0.17516447603702545,-0.24616247415542603,-0.4748019874095917,-0.04484359920024872,0.507824182510376,0.33627036213874817,-0.15636523067951202,-0.3468908965587616,0.07881797105073929,0.0363922044634819,0.035628821700811386,0.12225258350372314,-0.002646565204486251,0.01863241381943226,0.5117356181144714,0.20810995995998383,0.08412767201662064,-0.19367222487926483,0.023754211142659187,0.0011829057475551963,0.36175626516342163,-0.075130395591259,-0.4700137674808502,-0.49692821502685547,0.061408787965774536,-0.2838115692138672,0.3056449592113495,-0.26455754041671753,-0.06872296333312988,0.13503757119178772,0.18772490322589874,-0.022923707962036133,-0.6206179857254028,0.16267140209674835,0.0491245873272419,0.33928075432777405,-0.13344687223434448,-0.6000540256500244,-0.47841182351112366,0.09248050302267075,0.590465247631073,0.005709743592888117,-0.12599743902683258,-0.3598082363605499,-0.32119420170783997,0.6540929675102234,0.10087805241346359,0.025808705016970634,1.2421194314956665,-0.4813888370990753,-0.3301789462566376,0.43652600049972534,0.3914284408092499,0.10979503393173218,0.348687082529068,-0.256188303232193,0.14936110377311707,0.3826293349266052,0.18102478981018066,-0.6648414731025696,0.49529093503952026,-0.5547428727149963,0.3383422791957855,0.24691982567310333,-0.007222057320177555,0.07680563628673553,0.34961578249931335,0.2527155876159668,-0.08642387390136719,-0.42472606897354126,0.19968535006046295,-0.47807997465133667,0.9191046357154846,-0.5926220417022705,-0.05006561428308487,1.2935453653335571,-0.26290643215179443,0.15827448666095734,-0.6561444401741028,0.13997049629688263,-0.12889739871025085,-0.23635642230510712,0.10490202158689499,0.2728267312049866,-0.6399673223495483,0.32868310809135437,-0.24761255085468292,0.6581799387931824,-0.5691439509391785,-0.24750608205795288,-0.30840733647346497,0.4239484369754791,0.11793170869350433,-0.2817156910896301,0.17776663601398468,-0.37607714533805847,-0.3524613082408905,1.0042623281478882,0.21723219752311707,0.2356322854757309,-0.4716050326824188,-0.15070727467536926,-0.15116329491138458,0.16090793907642365,-0.69415283203125,-0.027541201561689377,0.3907816410064697,-0.0006500151939690113,0.07878120988607407,-0.40129610896110535,0.04418129473924637,-0.2571491301059723,0.29990315437316895,-0.3499821722507477,0.26543888449668884,0.25626346468925476,0.23682796955108643,-0.16148574650287628,-0.16946659982204437,-0.10362027585506439,0.33913761377334595,-0.2658643126487732,-0.02765161730349064,0.0779828354716301,-0.057862237095832825,-0.010986857116222382,0.33830973505973816,-0.6471006870269775,0.11222662031650543,0.41257616877555847,-0.8329878449440002,-0.1932910978794098,0.24928712844848633,-0.3558083176612854,0.1677282601594925,-0.43325433135032654,0.15625403821468353,0.6679647564888,-0.09085841476917267,-0.5873218774795532,0.027227243408560753,0.301456093788147,-0.3345639109611511,0.3248673975467682,0.054323043674230576,-0.03158250078558922,-0.6672782301902771,0.05281691253185272,0.3740074336528778,0.7821345925331116,0.09489860385656357,-0.846282422542572,-0.03502728044986725,0.2720223367214203,-0.04058767110109329,-0.31419092416763306,0.14663274586200714,0.3673630654811859,0.5183398723602295,-0.08928755670785904,-0.9028703570365906,-0.2543063461780548,-0.039639126509428024,0.12234847992658615,-0.2414671778678894,-0.07389107346534729,0.21733976900577545,-0.3401215374469757,-0.35765397548675537,0.39152583479881287,-0.2569372355937958,0.039863135665655136,0.47783589363098145,-0.361773818731308,0.2426752895116806,0.7287421822547913,-0.6653270721435547,-0.07144320011138916,0.4132594168186188,0.022557159885764122,0.16624285280704498,0.34065482020378113,0.06871256977319717,-0.14187483489513397,0.19872809946537018,0.33527177572250366,-0.2703038454055786,-0.41201168298721313,-0.5993909239768982,0.2709513008594513,-0.14101101458072662,-0.3533410131931305,0.04450840502977371,-0.4260111451148987,0.07547657191753387,0.6224987506866455,0.12931406497955322,0.1569156050682068,0.1264585554599762,0.1352292001247406,-0.09054239094257355,-0.3432442545890808,-0.8139699697494507,0.10254161804914474,0.06281459331512451,-0.24066154658794403,-0.012410948053002357,-0.30987516045570374,0.06471899896860123,0.1635311096906662,0.45984670519828796,-0.07778869569301605,0.7610913515090942,0.4399837553501129,-0.3780304491519928,0.22236217558383942,0.5831090211868286,0.3821726441383362,0.3937896192073822,-0.4552224576473236,0.6002302169799805,0.1562923789024353,-0.2368198037147522,-0.2617495357990265,-0.061168327927589417,0.17826297879219055,1.1998162269592285,-0.3762389123439789,-0.03324996307492256,0.10687748342752457,0.33976930379867554,0.21836628019809723,0.20443588495254517,0.34888309240341187,-0.17187465727329254,-0.1765047013759613,0.3950340747833252,-0.6686311960220337,0.6921061873435974,2.3177149295806885,-0.4541053771972656,-0.5357005000114441,-0.046399086713790894,0.4288249909877777,-0.07572248578071594,0.31988945603370667,-0.4142378568649292,-0.17006124556064606,0.6977694034576416,0.08294408023357391,0.16752955317497253,-0.3070772588253021,-2.8656020164489746,1.9237163066864014,0.5661482810974121,-0.1505100578069687,-0.04043840989470482,0.15485449135303497,0.12967027723789215,0.15152432024478912,-0.37660670280456543,0.7596208453178406,-0.5649388432502747,1.4896368980407715,0.037657663226127625,-0.5636975169181824,1.6602997779846191,0.21455243229866028,-0.9964793920516968,-0.9388415217399597,0.24767513573169708,0.2381685972213745,-0.5358928442001343,0.6382969617843628,0.4794873297214508,-1.0569593906402588,0.8926291465759277,-0.3368869423866272,-0.5245179533958435,-0.7597772479057312,0.5981576442718506,-0.34769755601882935,-0.3618108630180359,0.27489665150642395,-0.16067756712436676,0.05291689559817314,0.0005799848586320877,-0.23217281699180603,-0.18533746898174286,-0.32455307245254517,0.47110000252723694,0.4384428858757019,-0.17975042760372162,-0.21786896884441376,-0.10613702982664108,0.28865846991539,-0.261652410030365,-0.198237806558609,0.47332414984703064,0.3239293098449707,0.17241135239601135,-0.16177812218666077,-0.37887874245643616,0.04609476029872894,0.10479865223169327,-0.0020279844757169485,-0.17597374320030212,0.2504962384700775,-0.2595195472240448,0.11344148218631744,0.10730557888746262,-0.1678498089313507,0.1652178317308426,0.3017842471599579,-0.0016657781088724732,-0.13629423081874847,-0.17895172536373138,0.041600551456213,0.34740880131721497,-0.006146577186882496,0.17331907153129578,0.3910047113895416,-0.6465378999710083,-0.03998885676264763,0.05811021849513054,0.5072081685066223,-0.003735688515007496,0.09611637145280838,-0.25961199402809143,0.3590738773345947,0.3243198096752167,-0.26091518998146057,-0.07918130606412888,0.6335518956184387,-0.21450912952423096,-0.3329240381717682,-0.4137837588787079,0.011727090924978256,-0.22184163331985474,-0.22391019761562347,0.8466716408729553,0.23489481210708618,0.16286836564540863,-0.4317167401313782,-0.8114877939224243,0.3127610683441162,0.5491347312927246,0.16829325258731842,-0.2660212814807892,0.4501810073852539,0.3477471172809601,0.13532106578350067,-0.19872361421585083,0.19671638309955597,-0.07935210317373276,-0.21819081902503967,-0.05263972282409668,-0.14727076888084412,0.2910307049751282,-0.6391300559043884,-0.3557926416397095,0.020117755979299545,-0.1795300841331482,0.0025566930416971445,0.2243533730506897,0.168426975607872,-0.14691045880317688,-0.17237374186515808,-0.426867812871933,0.08638107776641846,0.572011411190033,0.7326371073722839,0.008536787703633308,0.043097782880067825,-0.17848344147205353,-0.004436740651726723,0.7895132899284363,-0.9222195744514465,0.0033937280531972647,0.7822374701499939,0.5475907921791077,-0.4880135655403137,-0.15902133285999298,0.15493658185005188,-0.21298810839653015,0.07066626846790314,0.7636452317237854,-0.10456953942775726,-0.6493421196937561,-0.5779052376747131,-0.2713863253593445,0.800285279750824,-0.44765523076057434,-0.002224763622507453,0.8329442143440247,0.10564510524272919,-0.023989511653780937,0.35989880561828613,-0.7054936289787292,0.003948434256017208,0.6564689874649048,-0.01113796979188919,0.10063789039850235,-0.04651756212115288,-0.24345193803310394,-0.04270327463746071,0.2652955651283264,-0.12447847425937653,-0.01969042234122753,-0.1289079636335373,0.07228023558855057,-0.10625751316547394,-0.28378790616989136,0.39450424909591675,-0.15878315269947052,0.10424578189849854,0.07576366513967514,0.4388488531112671,-0.6793059706687927,0.280586302280426,0.4906834363937378,-0.603123664855957,-0.0899541899561882,0.6369833946228027,-0.15492555499076843,0.1670684665441513,-0.047740448266267776,0.5405194759368896,-0.12084698677062988,0.48349082469940186,-0.8241236805915833,-0.25893768668174744,0.19444957375526428,0.3311120867729187,1.1113816499710083,0.6555769443511963,-0.8439987897872925,-0.18543381989002228,-0.1795252114534378,-0.04286781698465347,1.0138614177703857,-0.7196681499481201,-0.0930091142654419,-0.41101935505867004,-0.30497172474861145,0.21611329913139343,-0.06833883374929428,0.2379031777381897,0.5001085996627808,-0.2748029828071594,0.16454768180847168,-0.10654100030660629,-0.5218145251274109,0.022960949689149857,0.6877117156982422,1.3298019170761108,1.727513313293457,-0.04077260568737984,-0.21754293143749237,-0.3229440450668335,0.34377747774124146,0.7108849287033081,0.17424221336841583,-0.4786378741264343,0.15405091643333435,0.30998873710632324,0.05460549145936966,-0.5519862174987793,-0.022365495562553406,-0.46156489849090576,1.2709920406341553,0.5801807641983032,-0.02517915889620781,-0.9449166655540466,0.15241871774196625,0.6517518758773804,-0.4896773397922516,0.8753675222396851,0.2202872633934021,-0.7360974550247192,-0.4435023367404938,0.3395651578903198,0.5580034255981445,-0.015268594957888126,-0.5758624076843262,-0.9119554162025452,-0.2479468435049057,0.7278361916542053,-0.3454190492630005,-0.27689170837402344,-0.04315529018640518,0.594977617263794,0.04500124603509903,-0.29270491003990173,-0.5516172051429749,0.3436153829097748,0.8228265047073364,0.18689171969890594,0.25722768902778625,-0.48839378356933594,-0.2410804033279419,0.6573859453201294,-0.0032361249905079603,0.023531204089522362,-0.8934760093688965,-0.2993367612361908,-0.06434159725904465,-0.46619489789009094,0.6269128918647766,0.12873849272727966,0.12582622468471527,-0.39974236488342285,0.28873980045318604,-0.10231108963489532,-0.1190592348575592,0.4760620892047882,0.36489158868789673,-0.02867240644991398,-0.07353543490171432,-0.5294955968856812,0.3640905022621155,0.49712368845939636,0.45393332839012146,-0.6699910759925842,0.1491106152534485,-0.3224441111087799,-0.17104880511760712,0.4610275328159332,0.17514632642269135,-0.2108176201581955,-0.5645623207092285,-0.18712946772575378,0.8329734802246094,0.05768747627735138,0.33578452467918396,-0.571286141872406,-0.25046250224113464,0.015090006403625011,-0.5467988848686218,-0.11534364521503448,0.18920211493968964,0.6462437510490417,0.36815428733825684,0.12405483424663544,-0.46269690990448,-0.06704509258270264,-0.0321572981774807,0.4425659477710724,-0.11261370778083801,-0.31572094559669495,-0.3148030638694763,0.07864368706941605,-0.32811012864112854,0.08048100024461746,-0.20254307985305786,-0.29894983768463135,0.5127044320106506,0.16501151025295258,0.25796106457710266,0.40939775109291077,0.006790569052100182,-0.3562852740287781,0.6911435723304749,-0.17735391855239868,-0.5986471176147461,0.30442389845848083,-0.14966891705989838,-0.3114109933376312,0.29012760519981384,0.6735202670097351,0.02804652974009514,-0.5723861455917358,0.2941530644893646,-0.18458625674247742,0.08416873961687088,0.22165298461914062,-0.3587050139904022,-0.2376924455165863,-0.5120227932929993,-0.07576561719179153,0.8702884912490845,0.649860680103302,0.157975435256958,-0.29187101125717163,0.03840287774801254,-0.024838564917445183,0.3385901153087616,-0.3760277032852173,0.07486500591039658,0.4812202751636505,0.6682153940200806,0.094981849193573,-0.8000131249427795,0.16107483208179474,-0.2268545925617218,0.030300026759505272,0.3567972779273987,0.14033685624599457,0.08628969639539719,-0.4974370002746582,-0.30661043524742126,1.3431757688522339,-0.12205592542886734,-0.17368756234645844,-0.14946487545967102,-0.3915785253047943,-0.18927715718746185,0.224952831864357,-0.39142894744873047,0.09071587026119232,0.5284307599067688,-0.08343580365180969,-0.25309157371520996,0.5433482527732849,0.12769539654254913,0.6967286467552185,0.19876176118850708,0.22325266897678375,-0.12387201189994812,-0.09908919036388397,-0.05660805106163025,-0.5168430209159851,-0.10861125588417053,-0.2360037863254547,-0.07109817862510681,0.6474811434745789,0.0726689025759697,0.22812721133232117,-0.1403830498456955,0.19250188767910004,-0.3647629916667938,0.14135311543941498,0.7398397326469421,-0.25432875752449036,0.20988211035728455,0.5105922818183899,-0.5838682651519775,0.067763552069664,0.3948063850402832,0.044810306280851364,0.0471189022064209,-0.41781941056251526,0.4716488718986511,-0.5040398240089417,-0.6956492066383362,0.6749451160430908,0.17712537944316864,0.165663480758667,0.385483056306839,-0.3966387212276459,0.34612342715263367,0.2890620231628418,-0.531161367893219,-0.4527505040168762,0.362534761428833,0.6514887809753418,0.1928369700908661,0.2736952304840088,0.20209768414497375,-0.3477408289909363,0.3527558743953705,0.32014918327331543,0.022626690566539764,0.002963840961456299,0.2516827881336212,0.12562072277069092,0.019828082993626595,-0.2810550034046173,-0.08859476447105408,-0.07161279767751694,0.020520400255918503,0.04146156087517738,-0.051067449152469635,-0.1469905823469162,-0.3844761848449707,-0.12221825867891312,0.5619720220565796,-0.0178813599050045,0.3203279674053192,-0.18544194102287292,0.22397813200950623,0.46890050172805786,-0.35263514518737793,-0.20392030477523804,0.047685135155916214,0.12079482525587082,0.2067796140909195,0.045075174421072006,-0.201092928647995,-0.397146075963974,0.09621375054121017,-0.3476010859012604,0.2579909563064575,0.4404855966567993,-0.6883689165115356,0.3427489399909973,-0.7229126691818237,-0.1746504008769989,0.4034765362739563,-0.5333293080329895,0.20875048637390137,-0.2370423674583435,0.30342918634414673,0.6578467488288879,-0.15589389204978943,-0.10178534686565399,0.5692141056060791,0.28574034571647644,-0.023504458367824554,-0.40582650899887085,0.26702195405960083,-0.03802590072154999,-0.1300559639930725,-0.09282415360212326,-0.5540956258773804,-0.0593700110912323,0.049987345933914185,0.32054296135902405,-0.06093718484044075,0.29396331310272217,-0.48573145270347595,0.033068958669900894,0.32132649421691895,0.6096368432044983,0.29298317432403564,-0.028782980516552925,-0.2408892661333084,-0.05956627428531647,0.03013528697192669,-0.01570669561624527,0.1475512534379959,0.595084547996521,-0.24820567667484283,-0.15373162925243378,0.5225650668144226,0.3188285827636719,-0.2555557191371918,-0.08463934808969498,0.12757253646850586,-0.36789172887802124,0.3136081099510193,0.3852193355560303,-0.8047267198562622,0.5914733409881592,0.3561759889125824,-0.251010000705719,-0.9453484416007996,0.20420633256435394,-0.01344860065728426,-0.40058672428131104,0.0895935595035553,-0.20715220272541046,0.03981762006878853,-0.15096165239810944,0.27343836426734924,-0.017525119706988335,-0.026573622599244118,0.0031223855912685394,-0.36115819215774536,0.10302718728780746,-0.09682818502187729,0.15669919550418854,0.09629682451486588,0.1600634604692459,-0.3644911050796509,0.26997390389442444,0.015288620255887508,-0.06566575169563293,0.01450764574110508,-0.348193496465683,0.16688552498817444,-0.0059927296824753284,-0.027812350541353226,0.028034836053848267,-0.052211351692676544,0.16277764737606049,-0.05628535524010658,-0.07123405486345291,-0.12099773436784744,-0.23756766319274902,-0.47018930315971375,-0.4229493737220764,0.1886863112449646,-0.004858245141804218,0.37742331624031067,0.1197773888707161,-0.2573356628417969,-0.33608123660087585,-0.1559106856584549,0.002775102388113737,0.04195091873407364,-0.16554586589336395,-0.15781578421592712,0.10620079934597015,-0.6147835850715637,-0.1472398191690445,-0.11536762863397598,0.3103570342063904,0.04704319313168526,0.23065818846225739,-0.10112175345420837,-0.17530110478401184,-0.1076650470495224,-0.0384758897125721,-0.057805631309747696,-0.17110887169837952,0.08439864963293076,0.03939925134181976,-0.2575300633907318,-0.05680767446756363,-0.06462215632200241,-0.26411741971969604,0.017345696687698364,-0.04809898883104324,0.09126061201095581,0.2334081083536148,0.11052288860082626,0.05988321080803871,1.0371944904327393,0.25442469120025635,0.5286026000976562,0.03931492194533348,-0.6340828537940979,-0.0902291089296341,-0.15796859562397003,-0.10987770557403564,0.06757783144712448,0.1063496321439743,0.13096530735492706,-0.14627982676029205,0.23459410667419434,-0.018064720556139946,-0.16050119698047638,-0.14891137182712555,0.27913719415664673,-0.10347460955381393,-0.01932077296078205,0.3275531828403473,0.0644463375210762,-0.2640143930912018,0.20011979341506958,0.16346396505832672,0.00043643228127621114,0.07326977699995041,0.423289954662323,-0.07370660454034805,0.13690708577632904,0.2612219452857971,0.11837760359048843,-0.13625463843345642,0.5194995999336243,-0.09640315175056458,-0.03877538442611694,-0.1841093897819519,0.17959347367286682,0.01214201282709837,0.22930341958999634,0.06378201395273209,-0.44278499484062195,0.05749908462166786,-0.014498933218419552,0.5473087430000305,0.2657538056373596,0.05584615096449852,0.11360372602939606,0.1093105673789978,-0.012425950728356838,0.005686633288860321,0.1358470767736435,0.046966273337602615,0.04878050833940506,-0.20087888836860657,0.13114255666732788,-0.2901969850063324,0.06241777911782265,-0.1329401433467865,0.719301700592041,0.1701783984899521,0.09938766062259674,0.052360650151968,-0.17399883270263672,0.250445157289505,-0.3114539384841919,-0.02308865636587143,-0.14409957826137543,-0.2717783451080322,-0.09450805932283401,-0.2448427826166153,0.14359748363494873,-0.12851771712303162,-0.059161409735679626,0.0066869850270450115,0.6247773766517639,0.03645633906126022,-0.05067403241991997,0.022248730063438416,0.0054570697247982025,0.06381402164697647,-0.028516631573438644,-0.008725101128220558,-0.20062784850597382,0.008768189698457718,-0.21808236837387085,0.004987991414964199,-0.16947010159492493,0.03389047086238861,0.09151517599821091,0.02725987695157528,0.14536888897418976,-0.05193373188376427,-0.19102728366851807,0.03283628821372986,0.004539743531495333,-0.052010394632816315,0.08227245509624481,-0.16400346159934998,0.21226239204406738,0.2771557569503784,0.2521588206291199,-0.01230173371732235,0.2953168749809265,-0.006319589447230101,-0.029189743101596832,-0.07101906836032867,-0.7095155715942383,-0.05286776274442673,-0.3541232943534851,-0.01562713272869587,0.2739092707633972,0.04898368567228317,-0.030415093526244164,0.20965547859668732,0.15594197809696198,0.011664045043289661,0.08049511909484863,-0.12574878334999084,-0.3124387562274933,0.0865391418337822,0.19397836923599243,0.13883191347122192,0.3864803910255432,-0.09709447622299194,0.04739890247583389,-0.048404064029455185,0.1969398856163025,0.43604329228401184,-0.29890039563179016,-0.030097253620624542,-0.3951621353626251,-0.5633209347724915,-0.166665717959404,0.03366940841078758,-0.5103197693824768,-0.2347242534160614,0.0535888634622097,0.36864158511161804,0.3341768980026245,-0.027999771758913994,0.032221708446741104,-0.48571574687957764,0.3229207992553711,-0.15488149225711823,0.2527705729007721,0.19420497119426727,-0.08286600559949875,-0.2590577006340027,-0.411920428276062,-0.15295325219631195,-0.11059541255235672,0.09030144661664963,0.2562890648841858,-0.07875559478998184,0.11408905684947968,-0.32737070322036743,0.05670583248138428,0.1342516392469406,-0.22502872347831726,-0.5359816551208496,-0.09207241237163544,0.0235151220113039,-0.027216337621212006,-0.14805518090724945,0.13788029551506042,-0.21692226827144623,0.5328875780105591,0.17335659265518188,0.01997048407793045,-0.32678598165512085,0.3564988076686859,-0.36569663882255554,-0.15393590927124023,0.31798774003982544,0.3055088222026825,-0.07164323329925537,0.10726333409547806,-0.028933636844158173,0.2129627764225006,-0.20095570385456085,-0.23824116587638855,0.07446994632482529,0.27133339643478394,-0.44000497460365295,0.0052841296419501305,0.557599663734436,-0.41630393266677856,-0.7736852765083313,-0.002282670233398676,-0.058202553540468216,-0.40453794598579407,-0.07758782058954239,-0.07763534039258957,0.09499487280845642,0.021054737269878387,0.3940349817276001,-0.024208160117268562,0.14295361936092377,-0.026783796027302742,0.3632934093475342,-0.018978238105773926,-0.10196762531995773,0.2709152102470398,0.297751784324646,-0.08202698081731796,0.15921024978160858,0.06143868342041969,-0.455506294965744,-0.5845249891281128,-0.17188794910907745,0.8545999526977539,-0.16916139423847198,0.17062628269195557,-0.10498104989528656,0.35510969161987305,0.40714889764785767,-0.05141359940171242,0.2665180265903473,0.2657783031463623,-0.3611418306827545,0.12594223022460938,0.047445204108953476,0.255417138338089,-0.534570574760437,-0.3667117953300476,0.2015741765499115,0.3213684856891632,-0.3785407245159149,0.15777075290679932,0.08052931725978851,-0.6546263098716736,0.021195655688643456,0.13823004066944122,-0.23989714682102203,-0.3690309524536133,0.39096546173095703,-0.03855326026678085,-0.3475780785083771,-0.5448949337005615,-0.32136163115501404,0.37053582072257996,0.3229297995567322,-0.0595933198928833,-0.1878192275762558,-0.04986461251974106,-0.43375515937805176,0.15975534915924072,-0.2538146674633026,-0.45507609844207764,-0.1274694800376892,-0.14582304656505585,0.3161426782608032,0.27269622683525085,-0.2005421221256256,0.2011752724647522,0.011122100055217743,-0.3689062297344208,0.7493419647216797,-0.22188791632652283,0.11035377532243729,-0.3408156931400299,0.1400371938943863,-0.2530772387981415,0.34784239530563354,0.12260571867227554,0.026143506169319153,-0.06756332516670227,-0.22128137946128845,0.2094613015651703,-0.16752588748931885,-0.04984726384282112,-0.14340533316135406,-0.5647909045219421,0.08637071400880814,0.02819758839905262,0.6436380743980408,0.24394166469573975,-0.5147121548652649,-0.39371827244758606,0.254392147064209,-0.049352169036865234,-0.6746638417243958,-0.051858048886060715,0.025110915303230286,0.16608551144599915,0.5175050497055054,-0.4284633696079254,-0.06999468058347702,-0.12423132359981537,0.41820070147514343,0.24911050498485565,-0.2600979804992676,-0.6021102070808411,-0.30505865812301636,0.18457694351673126,0.011740019544959068,-0.043389856815338135,-0.14052124321460724,0.007499176077544689,0.049368783831596375,-0.15715357661247253,-0.07006463408470154,-0.09798230230808258,-0.03316536545753479,-0.18000081181526184,-0.05030333995819092,-0.05513635650277138,0.2079060971736908,-0.024364780634641647,-0.17818249762058258,-0.14844587445259094,0.42709043622016907,0.1964256912469864,-0.08046630024909973,0.1315074861049652,0.0747876912355423,0.03727658838033676,-0.4100474417209625,-0.11947222054004669,0.07257592678070068,0.25931355357170105,0.21874059736728668,-0.003983391914516687,-0.37166130542755127,-0.09628033638000488,-0.12250984460115433,-0.4092158079147339,0.08119576424360275,-0.16462397575378418,-0.08874455094337463,0.3660631477832794,-0.19274847209453583,-0.1859063059091568,0.06920106709003448,-0.22657528519630432,-0.1132337674498558,0.38306188583374023,-0.06587198376655579,-0.07723800837993622,-0.11229334026575089,-0.35918593406677246,-0.12157934159040451,0.47651317715644836,0.25549501180648804,0.17350009083747864,0.30209025740623474,-0.15840347111225128,0.08839765936136246,-0.09005303680896759,0.33922329545021057,-0.1771748811006546,0.1584244817495346,0.08072461932897568,-0.6140879392623901,0.3247545063495636,-0.003761754371225834,0.6954634785652161,-0.06418692320585251,-0.3633973300457001,0.1259847730398178,0.12259085476398468,0.21672235429286957,-0.056592877954244614,0.18620146811008453,-0.025884950533509254,0.11789900809526443,0.2657553255558014,0.409532755613327,0.16002117097377777,-0.08310404419898987,0.006173401605337858,-0.14694930613040924,0.11398445814847946,-0.18370789289474487,0.19927218556404114,-0.06531168520450592,-0.19354410469532013,0.015577724203467369,-0.21920736134052277,-0.2009742707014084,0.042198099195957184,0.056182775646448135,-0.024745121598243713,-0.180435448884964,0.09625227749347687,-0.013147901743650436,0.007547846995294094,-0.1707153171300888,-0.03971483185887337,0.12127946317195892,0.042736951261758804,0.8793250322341919,-0.2137884646654129,-0.4649708867073059,-0.19540970027446747,0.390603244304657,0.311010479927063,-0.7771352529525757,0.7879688739776611,0.01705934852361679,-0.8587984442710876,0.3831436336040497,0.3713701665401459,0.47195789217948914,-0.9764061570167542,-0.2735075354576111,0.054398637264966965,-0.5656679272651672,0.002535860752686858,-0.2210378646850586,-0.3371534049510956,-0.08525513112545013,1.050775170326233,-0.5822986364364624,-0.5792001485824585,0.12512755393981934,0.6982098817825317,-0.20818190276622772,0.1265067458152771,-0.6662443280220032,-0.10041554272174835,-1.0930888652801514,0.12239445745944977,0.7278262376785278,0.7903408408164978,-0.6828675270080566,0.08715508878231049,-0.35379135608673096,0.7964110374450684,-0.3300355076789856,-0.330233633518219,-0.4866398572921753,0.38158270716667175,-0.9218146800994873,-0.12551282346248627,1.2031034231185913,0.6171756386756897,-0.8632885217666626,0.323097825050354,-0.6856332421302795,-0.9744151830673218,0.924942672252655,-0.6248613595962524,0.253070205450058,0.49333456158638,0.03480998054146767,0.12056276202201843,-0.7881869077682495,0.2728654444217682,0.4256541132926941,-0.8326393365859985,-0.18837067484855652,-1.0778861045837402,0.7680022120475769,-0.0021506338380277157,-0.49917736649513245,1.0658286809921265,0.06582511961460114,-0.09630682319402695,0.191677063703537,-0.5721554160118103,-0.20896629989147186,0.4006946086883545,0.24805667996406555,0.48441848158836365,-1.1192864179611206,0.23524773120880127,0.5183406472206116,-0.41926538944244385,0.1868402361869812,-0.5606933832168579,-0.4297759532928467,0.11204652488231659,-0.7124048471450806,0.5674054026603699,-0.3268595039844513,0.9789806008338928,-1.3121495246887207,0.22488179802894592,-0.2169807106256485,0.0492725595831871,-0.045270539820194244,0.47837358713150024,-0.24115543067455292,-0.42926308512687683,-0.5425258874893188,0.10653450340032578,-0.36650341749191284,-0.44532743096351624,0.1364624798297882,-0.06387721002101898,0.21132035553455353,0.688533365726471,-0.08016859740018845,-0.4426477253437042,-0.09744995832443237,0.40102824568748474,0.4311383366584778,-0.8073548674583435,-0.212478369474411,-0.21962444484233856,0.16492612659931183,-0.045263174921274185,-0.19355033338069916,0.30999839305877686,0.34991851449012756,-0.04168934002518654,-0.28924843668937683,-0.026184041053056717,0.09577569365501404,-0.5175715684890747,-0.2002881020307541,0.22101151943206787,-0.315517783164978,0.11363423615694046,-0.23326019942760468,-0.3682622015476227,-0.31695690751075745,-0.3815616965293884,-0.08569221943616867,0.2530311942100525,0.16387641429901123,-0.302170991897583,-0.3852211534976959,0.004301642533391714,-0.23129582405090332,0.49149090051651,0.3425966501235962,-1.0909055471420288,-0.10837168246507645,-0.3210136890411377,0.17105767130851746,0.08601072430610657,0.15856288373470306,-0.5539413690567017,0.24386632442474365,-0.23174497485160828,0.00543471472337842,0.09729591012001038,0.009960167109966278,0.1322193741798401,-0.24122250080108643,-0.10710599273443222,0.20138882100582123,-0.46493804454803467,0.2861629128456116,0.17032720148563385,0.22381745278835297,-0.5003623366355896,-0.0009355670772492886,-0.3922724425792694,-0.15594787895679474,-0.008542283438146114,-0.1082431897521019,-0.2578184902667999,0.13758911192417145,0.11285925656557083,0.5459952354431152,0.10239435732364655,0.16702866554260254,-0.14317470788955688,-0.0439470037817955,-0.3836394250392914,0.4872240424156189,0.13493645191192627,-0.16323736310005188,0.6260936856269836,0.006564500741660595,-0.2711009979248047,0.5866857767105103,0.4051171839237213,-0.1856827288866043,0.24582435190677643,0.0009632274159230292,-0.5144689679145813,-0.03325176239013672,0.3081234097480774,0.0197477787733078,0.24081982672214508,-0.14781731367111206,-0.4518466591835022,0.48348963260650635,0.12651780247688293,0.18820630013942719,-0.570115327835083,-0.3996484875679016,0.13886979222297668,0.21883408725261688,0.1180810034275055,0.45401039719581604,-0.324687659740448,-0.2572631239891052,-0.3303031921386719,0.08579309284687042,-0.013906176201999187,0.16888245940208435,-0.5804561376571655,0.08819765597581863,0.22283320128917694,0.11317285150289536,-0.4677571654319763,-0.23281341791152954,-0.6994927525520325,-0.04023929685354233,0.18207846581935883,-0.30329009890556335,0.57538241147995,-0.02892179973423481,0.3654770851135254,-0.23214195668697357,-0.5227550268173218,0.17114785313606262,0.11877178400754929,-0.041493970900774,-0.15977339446544647,0.11512478440999985,-0.3732337951660156,0.5621654391288757,-0.3052317202091217,-0.2930941581726074,0.0362485833466053,0.047402046620845795,-0.7546942234039307,0.3273802399635315,0.2469521462917328,-0.5946534872055054,-0.0554245300590992,-0.3686600625514984,-0.5470255613327026,0.41511037945747375,0.1231561079621315,-1.3278001546859741,-0.20499102771282196,-0.26007845997810364,0.05282193422317505,0.6198908686637878,-0.9157541394233704,0.6596002578735352,-1.073702096939087,0.17678499221801758,0.47499436140060425,-0.0018999133026227355,0.10049907863140106,-1.0516669750213623,1.3832530975341797,0.7040848135948181,-0.018966058269143105,0.5556420087814331,-0.5142634510993958,-1.2128463983535767,1.368150234222412,-0.4751870930194855,-0.1327420175075531,0.048200394958257675,-0.49439162015914917,-0.09023085981607437,-1.4578561782836914,0.5321335196495056,0.17998746037483215,-0.23958010971546173,0.3071416914463043,0.7284187078475952,-0.30534523725509644,-0.7900372743606567,0.05917047709226608,-0.0999031513929367,1.1912952661514282,0.5931516289710999,-1.4138411283493042,0.06350450217723846,-1.0215307474136353,-0.8527610898017883,0.3394013047218323,0.42158129811286926,0.23831334710121155,-0.9078601002693176,-1.0981494188308716,1.345933198928833,-0.30822378396987915,-0.3347378969192505,-0.6839131116867065,-0.05884787067770958,-0.7123526334762573,0.6706129312515259,0.3266479969024658,0.40434080362319946,-0.5944316983222961,0.2625322639942169,-0.0848923847079277,0.144628643989563,-0.10239919275045395,-0.9310867786407471,0.21681630611419678,0.10690046101808548,0.17706558108329773,-0.41778895258903503,0.13370099663734436,0.07620102912187576,-0.0048878430388867855,-0.026656407862901688,0.06492887437343597,0.2455543875694275,0.21519604325294495,-0.14032799005508423,-0.003526084590703249,-0.16614516079425812,0.006646919529885054,-0.15262854099273682,0.0476091131567955,0.7243148684501648,-0.2917560935020447,-0.06054123863577843,0.24204589426517487,-0.5780619382858276,-0.3157847821712494,-0.41937753558158875,0.34960854053497314,-0.39973926544189453,-0.5712022185325623,-0.1574215143918991,-0.1099676638841629,-0.15333950519561768,-0.1868976652622223,0.14127454161643982,-0.39104828238487244,-0.0010809183586388826,-0.24070699512958527,0.304586797952652,-0.31038543581962585,-0.8117623925209045,0.3367910087108612,-0.03452553227543831,0.220376655459404,-0.4382286071777344,0.04591401666402817,-0.23110048472881317,-0.6892316341400146,0.36628296971321106,0.34900328516960144,0.2810981273651123,-0.3101308047771454,-0.2737124562263489,0.2864779233932495,0.30792826414108276,-0.24659807980060577,-0.2667776942253113,0.3291591703891754,0.4862009882926941,-0.18221499025821686,-0.23291727900505066,0.1572861671447754,0.3124009966850281,0.4280484616756439,-0.6459699869155884,-0.11533401161432266,0.24131710827350616,-0.15785884857177734,-0.062255967408418655,0.8312129974365234,-0.24092240631580353,-0.0462886281311512,