{"version":"0.5.4","metadata":{"date":{"year":2025,"month":6,"day":7,"hour":21,"minute":11,"second":50},"loudness":-21.43337059020996,"gain":0.8268974742944817,"name":"[PRE] Lynx50 Ch2-Lo Noon #03 - STD","modeled_by":"2dor","gear_type":"amp","gear_make":"tz-make","gear_model":"tz-model","tone_type":"overdrive","input_level_dbu":18.995,"output_level_dbu":13.195,"training":{"settings":{"ignore_checks":false},"data":{"latency":{"manual":null,"calibration":{"algorithm_version":1,"delays":[-2],"safety_factor":1,"recommended":-3,"warnings":{"matches_lookahead":false,"disagreement_too_high":false}}},"checks":{"version":3,"passed":true}},"validation_esr":0.005105867493430354}},"architecture":"WaveNet","config":{"layers":[{"input_size":1,"condition_size":1,"head_size":8,"channels":16,"kernel_size":3,"dilations":[1,2,4,8,16,32,64,128,256,512],"activation":"Tanh","gated":false,"head_bias":false},{"input_size":16,"condition_size":1,"head_size":1,"channels":8,"kernel_size":3,"dilations":[1,2,4,8,16,32,64,128,256,512],"activation":"Tanh","gated":false,"head_bias":true}],"head":null,"head_scale":0.02},"weights":[0.03243924304842949,0.47182798385620117,-0.7809618711471558,-0.6315285563468933,-0.3056638836860657,0.037092216312885284,0.01372118666768074,0.8227340579032898,0.009191924706101418,0.26273030042648315,-0.21441519260406494,-0.1309390813112259,-1.0512282848358154,-0.5524824261665344,-0.5954928398132324,-0.017072530463337898,-0.03251546621322632,0.30985507369041443,-0.32573649287223816,0.04798785597085953,-0.17941677570343018,0.3553468585014343,-0.15007850527763367,0.3288458287715912,-0.26460692286491394,-0.1014593169093132,0.35081660747528076,-0.3753553032875061,-0.184225931763649,0.2108347862958908,-0.2688227891921997,0.21375799179077148,-0.33690977096557617,0.14956791698932648,-0.13340997695922852,0.17669199407100677,-0.2847186326980591,0.24308697879314423,-0.15694652497768402,0.3138445019721985,-0.019437996670603752,0.2556511163711548,-0.14342176914215088,-0.032868970185518265,-0.3414975106716156,0.16238579154014587,-0.007607636041939259,0.3199096918106079,-0.2855764925479889,-0.09765259921550751,0.34031352400779724,-0.09224050492048264,-0.06547541916370392,0.2383599877357483,-0.15343371033668518,-0.19833603501319885,0.24779081344604492,-0.3476208746433258,-0.2133202701807022,0.16347260773181915,-0.1832704395055771,0.10911136865615845,-0.37668102979660034,0.26694226264953613,-0.08078435808420181,-0.06586171686649323,-0.2216191291809082,-0.001626132521778345,-0.10295864194631577,0.12918786704540253,-0.06668975949287415,0.14823375642299652,0.07626937329769135,0.1628456562757492,0.3259943425655365,0.1455087512731552,0.0524313822388649,0.05646669864654541,0.01191363763064146,-0.09542695432901382,-0.2922121584415436,0.15476864576339722,0.04240136966109276,-0.08698023855686188,-0.10947481542825699,-0.0702524334192276,-0.2273402214050293,-0.08741916716098785,0.017936205491423607,0.022649601101875305,-0.0325898714363575,0.05434587225317955,-0.07425110042095184,0.06687040627002716,-0.12743763625621796,0.07644682377576828,0.05866463854908943,0.039366450160741806,0.05818123742938042,-0.1073542907834053,0.1846885234117508,0.3044613301753998,-0.0389397069811821,0.0038484542164951563,0.05903984606266022,0.011887065134942532,-0.0743887647986412,0.08413929492235184,-0.00023564820003230125,0.06491196155548096,-0.18669527769088745,0.18394339084625244,-0.023101752623915672,0.05775147303938866,0.19251200556755066,-0.14195187389850616,0.18195216357707977,-0.0740409567952156,0.030049949884414673,-0.19040754437446594,0.12865372002124786,0.020785324275493622,-0.2971074879169464,0.14210809767246246,-0.10326080769300461,-0.2894150912761688,0.057037681341171265,-0.11763148009777069,0.13517098128795624,-0.23643238842487335,-0.03998500853776932,-0.1263524442911148,-0.04066445678472519,-0.016912801191210747,0.3310055434703827,-0.08687040209770203,0.07788323611021042,-0.11856302618980408,0.1775810569524765,0.05269172787666321,0.3467620313167572,-0.015044246800243855,0.17400723695755005,-0.20798294246196747,-0.023538872599601746,-0.018860556185245514,-0.11263900995254517,0.1135636568069458,-0.06480418890714645,-0.3424563407897949,-0.06593144685029984,-0.10669417679309845,-0.2522040605545044,0.157401904463768,0.1002340316772461,-0.3617231845855713,0.17440128326416016,-0.2293691635131836,0.15128494799137115,-0.24144402146339417,0.07534722238779068,0.13579346239566803,-0.08368833363056183,-0.1982239931821823,-0.1249268427491188,0.10667091608047485,0.014975217171013355,0.15908434987068176,-0.22835275530815125,0.0693759024143219,0.23642487823963165,-0.15653985738754272,0.18509377539157867,0.13843956589698792,-0.25061285495758057,0.04507601261138916,-0.09161646664142609,0.07287955284118652,0.08153387904167175,-0.1397547572851181,-0.20652441680431366,-0.11090198904275894,-0.004555879160761833,0.1378852128982544,0.15681377053260803,0.17785775661468506,-0.1212163195014,-0.09171770513057709,-0.21654163300991058,0.20219069719314575,0.1695539355278015,0.1806044578552246,-0.22841282188892365,0.06360404193401337,0.001723601366393268,-0.20657633244991302,0.00008815634646452963,0.161415696144104,-0.1807766854763031,0.0722419023513794,0.11227009445428848,-0.008204113692045212,-0.03499004989862442,0.0033503735903650522,-0.19339770078659058,0.08797165006399155,-0.14578746259212494,0.3121989667415619,0.06051292642951012,-0.25866129994392395,0.18493019044399261,-0.057409338653087616,0.1749730110168457,-0.3673127293586731,0.035905227065086365,-0.13036438822746277,0.22526511549949646,-0.041542794555425644,-0.033123597502708435,0.21679969131946564,0.00553960120305419,-0.02787352353334427,0.37083277106285095,-0.004314544145017862,0.050647784024477005,-0.2294149249792099,-0.10026026517152786,-0.3187113404273987,0.1953987330198288,-0.056486282497644424,0.15226423740386963,-0.21737273037433624,-0.017311695963144302,-0.16199645400047302,0.31073951721191406,-0.10993491858243942,0.23179781436920166,-0.42779773473739624,-0.04327046126127243,-0.12329407781362534,0.3589054346084595,0.12065807729959488,-0.22280144691467285,0.32521146535873413,0.112493596971035,-0.28741195797920227,0.4471496641635895,-0.08785856515169144,-0.14906248450279236,0.303455650806427,-0.04688871279358864,-0.14313064515590668,0.4641161561012268,-0.024110892787575722,0.15720365941524506,-0.35715579986572266,-0.139876127243042,-0.06205279380083084,-0.02265220507979393,-0.1329684555530548,0.11371953040361404,0.07374092191457748,0.10253380984067917,-0.09269502758979797,0.05296044796705246,-0.019909856840968132,-0.24598811566829681,0.04457258805632591,0.16920697689056396,-0.1444324404001236,-0.04746749997138977,-0.13008731603622437,0.02963578887283802,-0.01822262443602085,-0.016210664063692093,-0.19426606595516205,0.27422192692756653,-0.11966921389102936,0.19050654768943787,0.04145459458231926,0.062184154987335205,-0.21387381851673126,-0.010658061131834984,0.06080693006515503,0.2126898467540741,0.08534617722034454,0.00490553630515933,-0.1343480795621872,0.0020159974228590727,0.057910412549972534,-0.2769749164581299,0.09236826002597809,0.06906112283468246,-0.21392083168029785,-0.03538929671049118,-0.05779966339468956,-0.10210195183753967,-0.10134794563055038,0.09796564280986786,-0.2500563859939575,-0.05709274485707283,-0.09199530631303787,0.09137240052223206,-0.09518315643072128,0.030194943770766258,-0.2921452522277832,0.014829264022409916,-0.027378283441066742,0.2448442131280899,-0.11200978606939316,-0.04121469333767891,-0.21491076052188873,0.13643214106559753,0.027081698179244995,-0.14104953408241272,0.18366321921348572,0.02905084751546383,-0.17192776501178741,0.16605180501937866,-0.10254444926977158,0.16634416580200195,-0.11570008844137192,-0.1196323111653328,-0.186184823513031,0.13667036592960358,0.052499864250421524,0.28071436285972595,-0.0670246109366417,0.17927725613117218,-0.19063058495521545,0.03467625007033348,-0.23113375902175903,0.323230504989624,-0.02835697866976261,0.0030522458255290985,-0.10998815298080444,0.22859221696853638,0.26199692487716675,-0.05552422255277634,0.2386457771062851,0.042290639132261276,-0.25085073709487915,0.2020639330148697,0.16330939531326294,-0.2787376046180725,0.22179843485355377,0.16153539717197418,-0.11229368299245834,0.00791709590703249,-0.13248953223228455,0.11923990398645401,-0.0797916054725647,0.1686549335718155,-0.12406662851572037,0.03631007671356201,-0.17247095704078674,0.27188950777053833,0.10815931856632233,0.12821455299854279,-0.2914330065250397,-0.13930551707744598,0.08650994300842285,-0.4395235478878021,0.07149603962898254,0.31971150636672974,-0.17634940147399902,0.08532676100730896,-0.362713098526001,0.20650988817214966,-0.0014990842901170254,0.06497011333703995,-0.21336865425109863,-0.16142354905605316,-0.29894357919692993,0.1882404237985611,-0.03756481409072876,0.2326306849718094,-0.30181562900543213,0.002182037103921175,-0.12816601991653442,0.4522005617618561,-0.003505805041640997,0.29620876908302307,-0.18630704283714294,0.01447703130543232,0.3924374580383301,-0.24946507811546326,0.06213642656803131,0.17658869922161102,-0.26189520955085754,-0.030308717861771584,0.19338572025299072,-0.4037505090236664,-0.1230606809258461,0.1300106644630432,-0.23327402770519257,0.06517007946968079,-0.2761005461215973,0.2796421945095062,0.12496518343687057,0.14875528216362,-0.041333407163619995,0.011150402948260307,0.010531636886298656,0.1891874372959137,-0.18759465217590332,0.25230225920677185,-0.026915160939097404,0.019533367827534676,0.19719712436199188,-0.2194019854068756,0.05138907954096794,0.25128039717674255,-0.1190616711974144,-0.020029347389936447,-0.16558575630187988,0.08765453100204468,-0.10744929313659668,0.15817491710186005,0.13233990967273712,0.09258560091257095,-0.20367605984210968,0.14645987749099731,-0.002648245310410857,0.15385954082012177,-0.24668465554714203,0.005568626802414656,-0.23877492547035217,0.06772161275148392,-0.03849982097744942,0.016707301139831543,-0.07748568058013916,0.20278234779834747,0.1513335108757019,-0.22211407124996185,0.04627282917499542,0.14509128034114838,-0.2512105703353882,0.14216002821922302,-0.014939014799892902,-0.2757730782032013,-0.06467829644680023,0.09873250126838684,-0.03468157351016998,-0.055847831070423126,-0.07961161434650421,0.05114312842488289,-0.10180038958787918,0.10815989226102829,-0.1782139390707016,0.2969527244567871,0.11824415624141693,0.37401098012924194,-0.021242989227175713,-0.1457131803035736,-0.11760688573122025,0.09427187591791153,0.019042959436774254,-0.35617658495903015,0.04510119929909706,-0.17158742249011993,-0.27667587995529175,0.13203230500221252,-0.10875534266233444,0.23893210291862488,-0.05836411565542221,0.18219953775405884,-0.08260738849639893,0.17894139885902405,0.007528272457420826,0.3064087927341461,0.057392194867134094,0.13203302025794983,-0.14405016601085663,0.21484601497650146,-0.12149466574192047,0.09677078574895859,-0.05500341206789017,-0.10104075074195862,-0.13952264189720154,0.01982346922159195,-0.08184241503477097,-0.33793455362319946,0.20578551292419434,-0.06925906985998154,-0.13526545464992523,0.17230451107025146,0.034161780029535294,-0.23134849965572357,0.04654773697257042,-0.07115903496742249,-0.2180984914302826,0.17027205228805542,-0.16077102720737457,0.3102174401283264,-0.22070364654064178,-0.3291099965572357,-0.06538344919681549,0.12496024370193481,0.499674916267395,-0.11934695392847061,0.15401194989681244,-0.3009442389011383,0.06933765113353729,0.064987912774086,-0.44434037804603577,0.02833905629813671,0.0065699187107384205,-0.3956311047077179,0.04492521286010742,-0.08380068838596344,0.4160558581352234,-0.057069215923547745,-0.04691041633486748,-0.20324163138866425,0.14132052659988403,0.06524021178483963,0.3856302797794342,0.09942302107810974,0.03991883248090744,-0.2579561173915863,0.010999145917594433,0.08377477526664734,0.24589744210243225,-0.08465079218149185,-0.049004700034856796,-0.20362555980682373,-0.024832412600517273,-0.01823890581727028,-0.4201282262802124,0.14153113961219788,0.12264544516801834,-0.4861353933811188,-0.13636934757232666,-0.16624796390533447,-0.36138683557510376,-0.05095723271369934,-0.14356932044029236,-0.43282514810562134,0.015924718230962753,-0.12234541773796082,0.34811240434646606,-0.06717433780431747,-0.12613999843597412,0.14136631786823273,0.10791651904582977,-0.09136819839477539,-0.17750538885593414,0.10518951714038849,0.15867197513580322,0.056280191987752914,-0.2919447124004364,0.13442136347293854,0.09612631797790527,-0.12319888174533844,-0.026236772537231445,0.13531705737113953,-0.20622649788856506,0.057747796177864075,-0.1611037254333496,0.015722285956144333,-0.04783788323402405,-0.07122097909450531,-0.15971189737319946,-0.3300044536590576,-0.0538126602768898,0.1228364035487175,-0.013949773274362087,0.14732159674167633,-0.14077922701835632,-0.03158319741487503,-0.0952143445611,0.11198648065328598,-0.06251504272222519,0.17062316834926605,-0.03519045561552048,-0.07083248347043991,0.04190584644675255,-0.09277071058750153,0.09940590709447861,0.1503857672214508,-0.27297472953796387,-0.14194321632385254,0.22092437744140625,-0.16196079552173615,-0.08928187191486359,0.21768595278263092,-0.10877532511949539,0.09455931186676025,-0.024424925446510315,0.1436668187379837,-0.010201465338468552,-0.014708376489579678,-0.0682159885764122,0.19752097129821777,0.02921551838517189,0.251373291015625,0.041998304426670074,0.15697625279426575,-0.2515864372253418,-0.03836952522397041,-0.03272407874464989,-0.48460546135902405,0.2195214182138443,-0.014310009777545929,-0.4290463924407959,0.17740489542484283,-0.129612535238266,0.26346322894096375,-0.1446375697851181,0.09396901726722717,-0.344355046749115,0.26871684193611145,-0.08254659175872803,0.43807706236839294,0.0437823049724102,0.15436457097530365,-0.2820979058742523,0.24754486978054047,-0.03266667202115059,0.29825541377067566,0.01925828866660595,0.08336960524320602,-0.4901290535926819,0.07854151725769043,-0.03497930243611336,-0.24108870327472687,0.09867070615291595,-0.11511960625648499,-0.4009222984313965,0.16933076083660126,0.06265910714864731,-0.33391061425209045,0.1014525294303894,0.08792714029550552,-0.41837260127067566,0.037122905254364014,-0.2663595676422119,0.24174386262893677,-0.1029496043920517,-0.08213257789611816,0.1889561116695404,0.10957062244415283,0.20635484158992767,-0.19493424892425537,0.04600045830011368,-0.2684546113014221,0.22649182379245758,-0.014338609762489796,-0.22082892060279846,0.18655163049697876,0.040527716279029846,-0.08757168054580688,-0.0082566412165761,-0.04016720503568649,0.14301897585391998,-0.052039820700883865,0.07403712719678879,-0.14509040117263794,0.14751018583774567,0.026152247563004494,0.15269756317138672,-0.003529030829668045,-0.2139292061328888,-0.1618657410144806,0.20600365102291107,-0.014881070703268051,0.31773582100868225,-0.13994452357292175,0.035750020295381546,-0.3364228904247284,0.07008635997772217,0.054636914283037186,-0.17356586456298828,0.14538677036762238,0.1799527108669281,-0.20392268896102905,0.10775622725486755,0.20465852320194244,-0.2261309176683426,0.23216332495212555,0.0004012083518318832,-0.21569199860095978,0.09507836401462555,0.15811987221240997,0.37297284603118896,-0.09992226213216782,-0.11415695399045944,0.07667677849531174,-0.14434725046157837,-0.1429818719625473,-0.3087504506111145,0.1585461050271988,0.32053694128990173,0.22191640734672546,-0.20512793958187103,-0.08815175294876099,0.10344330221414566,-0.03910476714372635,-0.17094065248966217,0.16613468527793884,-0.0016401447355747223,-0.2999225854873657,-0.19890902936458588,-0.046206094324588776,0.13760937750339508,0.15892630815505981,0.06440123170614243,-0.17840605974197388,-0.11688283085823059,0.054234374314546585,0.12365461140871048,0.08427003771066666,-0.174124076962471,0.05666445195674896,-0.2634836435317993,0.07179665565490723,0.22023648023605347,0.3179863393306732,0.06547322869300842,-0.05616162717342377,0.13246384263038635,-0.085294209420681,-0.2620432674884796,0.12587802112102509,-0.04186112433671951,-0.06061456352472305,0.09605691581964493,0.01782253384590149,-0.26349371671676636,0.19621504843235016,0.04628279432654381,-0.22017087042331696,-0.2554711103439331,-0.03530236706137657,0.263493150472641,0.1342853456735611,-0.19709931313991547,0.203415647149086,-0.23449161648750305,0.23347419500350952,0.02391071990132332,0.23519667983055115,-0.39363619685173035,0.0456017330288887,0.24495114386081696,-0.25786784291267395,-0.0989467054605484,0.1290627121925354,-0.3821096420288086,-0.12014251947402954,-0.15451976656913757,0.4114936888217926,0.0943402647972107,0.20397047698497772,-0.061090707778930664,0.12140543758869171,-0.010101236402988434,0.29568129777908325,-0.07542207837104797,0.16289694607257843,-0.1458241194486618,-0.045940276235342026,-0.016083519905805588,0.3832486569881439,-0.10867120325565338,0.11350641399621964,-0.19446279108524323,-0.09957924485206604,0.11558747291564941,-0.28009721636772156,-0.11036784201860428,0.19567382335662842,-0.2857508361339569,0.060953665524721146,0.0315002016723156,-0.20475372672080994,-0.1041305884718895,0.2788298726081848,-0.48920738697052,-0.14109496772289276,-0.11674322932958603,0.2954215407371521,-0.07431834936141968,-0.15468865633010864,0.10538060963153839,-0.12906189262866974,-0.013575702905654907,0.21335142850875854,-0.06501899659633636,-0.04428980499505997,-0.011394165456295013,0.008705656975507736,-0.09377141296863556,-0.0030276577454060316,0.007214216515421867,-0.2511186897754669,0.14312846958637238,-0.12973512709140778,-0.21704702079296112,0.6987377405166626,-0.46858590841293335,0.7459858059883118,-0.6218732595443726,-0.3445200026035309,0.9193673729896545,0.9283385276794434,-0.5270243883132935,0.11774183064699173,0.0530671700835228,-0.3968023359775543,-0.3475499451160431,0.20991100370883942,-0.8124732375144958,0.36685726046562195,0.47699519991874695,0.06572718918323517,0.02094530127942562,-0.10694264620542526,-0.031790874898433685,-0.1430521160364151,-0.07245801389217377,0.09287833422422409,-0.045604802668094635,-0.34947699308395386,0.14603252708911896,0.07450969517230988,-0.32953503727912903,0.009517579339444637,-0.18063229322433472,0.23265904188156128,-0.027298128232359886,0.10288258641958237,0.14032723009586334,-0.3167746365070343,0.3188995122909546,-0.34177476167678833,-0.1021801307797432,-0.1926925927400589,0.2473374456167221,0.2652284502983093,-0.11175846308469772,-0.8292134404182434,0.18474994599819183,0.05360664799809456,-0.6424748301506042,0.5048046708106995,0.28232502937316895,-0.143877774477005,0.15215329825878143,-0.26747754216194153,0.19657191634178162,0.07374460250139236,-0.3313875198364258,-0.1429784893989563,-0.533537745475769,-0.2796238958835602,-0.24357877671718597,0.09156224876642227,-0.3147704303264618,-0.15315881371498108,0.45745888352394104,-0.119419164955616,-0.35299238562583923,0.23536249995231628,-0.21998359262943268,0.14865955710411072,-0.19821569323539734,-0.1302512288093567,0.1939578801393509,0.1433422565460205,0.08928532898426056,-0.3462245464324951,0.06065757945179939,0.4123724102973938,-0.32115262746810913,0.2988344430923462,0.24967160820960999,-0.0925632044672966,0.07226437330245972,0.057374078780412674,0.06909723579883575,-0.1608085036277771,0.3340030014514923,0.14797775447368622,0.06306778639554977,0.0716712474822998,-0.4779844284057617,0.11103539913892746,-0.08188855648040771,-0.3221975564956665,0.08021402359008789,0.061353784054517746,0.16879720985889435,-0.18244104087352753,0.008799598552286625,-0.46465247869491577,-0.011311083100736141,0.14366035163402557,0.0338449589908123,0.47731778025627136,0.2152818739414215,0.3712816536426544,0.2794966995716095,0.1022258922457695,0.13897204399108887,-0.34794384241104126,-0.006336618680506945,0.16598477959632874,-0.4167771339416504,0.2582404613494873,0.34199246764183044,0.040209025144577026,0.0431564524769783,0.17129093408584595,0.06346364319324493,-0.23084229230880737,-0.15640698373317719,0.12140437960624695,0.10886672884225845,0.025872156023979187,-0.13810500502586365,-0.4394489526748657,0.24715527892112732,0.14176610112190247,-0.3466222584247589,0.17618568241596222,-0.12370012700557709,0.48101136088371277,0.14538255333900452,0.1749674677848816,-0.05810181051492691,-0.4425157606601715,0.09473101794719696,0.1146758645772934,0.00690004788339138,0.30167752504348755,-0.30545511841773987,0.06949277967214584,0.20613159239292145,-0.05835849791765213,-0.06918434798717499,-0.18978066742420197,-0.060287028551101685,-0.329576313495636,-0.1739407479763031,-0.21221071481704712,-0.2428738921880722,0.2005748301744461,-0.030657343566417694,-0.08992783725261688,0.36793002486228943,0.18607966601848602,-0.043681468814611435,0.16955286264419556,0.320458322763443,0.11158934235572815,-0.24000097811222076,0.1950410008430481,0.17583408951759338,-0.09137743711471558,-0.03534616529941559,0.446410596370697,-0.2953922748565674,-0.2241964191198349,0.1304299235343933,0.3774729073047638,-0.18184497952461243,-0.15599937736988068,0.2847267687320709,0.3576768934726715,-0.09334304928779602,0.46696221828460693,0.27352914214134216,-0.21356625854969025,0.22706428170204163,0.14008118212223053,0.2785511612892151,-0.4018593430519104,0.17560550570487976,-0.19521918892860413,-0.2971838116645813,-0.0860041081905365,-0.28379881381988525,-0.07589206844568253,-0.2606925070285797,-0.38769423961639404,-0.1283777356147766,-0.27430054545402527,0.09972095489501953,0.06959317624568939,0.09734495729207993,0.22240540385246277,-0.0074842250905931,-0.04050997272133827,-0.035290952771902084,-0.2326030731201172,-0.16030815243721008,-0.1484580636024475,0.11967761069536209,0.005728065501898527,-0.38082757592201233,-0.1367112249135971,-0.10216353088617325,-0.26176735758781433,0.07985539734363556,-0.1840973198413849,-0.45090946555137634,-0.23647135496139526,0.003028324106708169,-0.027772914618253708,-0.021881621330976486,0.20665396749973297,-0.25406765937805176,-0.019616393372416496,0.4914099872112274,0.39568281173706055,0.007591285277158022,-0.25472763180732727,0.1953122317790985,0.16400115191936493,-0.23739057779312134,-0.036341343075037,0.11632896959781647,0.08089300990104675,-0.2340291440486908,-0.10847991704940796,0.18755638599395752,-0.2968422472476959,0.30000054836273193,0.1508345603942871,-0.04734685644507408,-0.10440881550312042,-0.15636850893497467,0.1401166468858719,-0.15199196338653564,-0.14357756078243256,-0.02664109691977501,-0.10666189342737198,0.1807815283536911,-0.5960440039634705,0.3627287447452545,-0.3210010826587677,-0.07664752751588821,0.6479528546333313,-0.2150372564792633,-0.03377914056181908,0.07734190672636032,-0.011293632909655571,0.0114845996722579,-0.08206205070018768,0.02690446935594082,-0.11881572753190994,0.2926080822944641,-0.3514057397842407,-0.3358452320098877,0.31348320841789246,-0.05207301676273346,0.4257518947124481,-0.02833740785717964,-0.253271222114563,0.45786046981811523,0.3545394837856293,0.18659403920173645,0.023916983976960182,0.02024901658296585,0.011088719591498375,-0.23289979994297028,0.22976063191890717,-0.0764239951968193,0.3281794488430023,0.26918554306030273,0.03321925178170204,0.04354988783597946,0.22300104796886444,-0.44183018803596497,-0.18317240476608276,0.06903592497110367,0.1413670927286148,0.20520707964897156,-0.025639783591032028,-0.14188174903392792,0.018326984718441963,-0.09965137392282486,-0.04400935769081116,-0.015114404261112213,0.2840690314769745,0.09542723000049591,0.07423045486211777,-0.06310171633958817,0.06131608784198761,0.2534888982772827,-0.5737382769584656,0.37714138627052307,-0.20436176657676697,0.04495405778288841,0.03508206084370613,-0.27867835760116577,-0.042583972215652466,-0.11792276799678802,-0.29901832342147827,-0.12102141231298447,0.006765297614037991,0.10339189320802689,0.5581706166267395,0.676733672618866,-0.12029510736465454,-0.2941364347934723,0.1173071637749672,0.5988106727600098,-0.13805586099624634,-0.22293663024902344,-0.40676090121269226,0.4720442593097687,-0.12678882479667664,0.05245169252157211,0.09201637655496597,-0.10595551133155823,-0.3888207674026489,-0.26203930377960205,0.0279373899102211,-0.5969973206520081,-0.18993957340717316,0.046477288007736206,-0.5932433009147644,0.11043073982000351,-0.017010511830449104,-0.08611352741718292,0.062992624938488,-0.08959829807281494,-0.3047349750995636,0.2942730784416199,0.0761873722076416,0.5020799040794373,0.010791955515742302,-0.1341312676668167,-0.06234246492385864,0.14480198919773102,0.24251726269721985,-0.010476808995008469,0.4273965656757355,0.04983535408973694,-0.2242785096168518,-0.04771532118320465,0.3941054344177246,-0.21664884686470032,-0.05806703492999077,-0.09388051927089691,0.0740940198302269,-0.13933433592319489,0.13186590373516083,0.4819379150867462,0.7437811493873596,-0.2928691804409027,0.10795266181230545,0.16961844265460968,0.11315709352493286,0.2450268566608429,-0.11445329338312149,-0.36216625571250916,-0.20072691142559052,-0.07773605734109879,0.17746195197105408,0.2546008825302124,0.013163096271455288,-0.4069553017616272,-0.1580544263124466,0.062197133898735046,0.3628215491771698,-0.4997081756591797,-0.12185152620077133,0.6685521006584167,-0.07525265961885452,0.07531788945198059,0.25729525089263916,-0.11118250340223312,-0.01695379801094532,-0.0009813429787755013,-0.09474502503871918,0.06323038786649704,0.27985769510269165,0.23964248597621918,0.21481458842754364,-0.5735307335853577,-0.2680057883262634,-0.17845472693443298,-0.06910067051649094,-0.06439875811338425,0.2530950903892517,0.2440338134765625,-0.14528577029705048,-0.20222115516662598,-0.04953958839178085,0.31267011165618896,0.13256773352622986,-0.006224749144166708,0.22207629680633545,0.03737184777855873,0.16426074504852295,-0.0907406210899353,0.0613982193171978,0.11436989158391953,0.1477735936641693,-0.0874854326248169,0.2877800166606903,-0.11198071390390396,-0.08649741858243942,0.10165111720561981,0.024721018970012665,-0.3170284628868103,0.05040809512138367,-0.05603490024805069,0.24107348918914795,-0.24777193367481232,-0.1785811185836792,-0.2752360999584198,0.22067254781723022,0.23736383020877838,-0.17301210761070251,0.208804652094841,0.20118390023708344,0.13939809799194336,0.10874621570110321,-0.047890547662973404,0.020112955942749977,0.07267491519451141,-0.14988745748996735,-0.1751725971698761,-0.10205939412117004,-0.15828222036361694,0.2873537838459015,0.06992509216070175,-0.179526686668396,-0.05677437782287598,0.004551158286631107,-0.5077396035194397,0.2226310819387436,0.1639859974384308,0.32332614064216614,-0.04462511092424393,-0.09222099930047989,0.07966754585504532,-0.14455461502075195,-0.3275499939918518,-0.13507403433322906,-0.20232902467250824,-0.15335853397846222,-0.011233417317271233,-0.07646071165800095,0.10810314118862152,0.0799565464258194,0.4350108206272125,0.03492553159594536,-0.32400941848754883,0.18843939900398254,0.1272776573896408,0.1327284574508667,-0.5255692005157471,-0.05107183754444122,0.04949270933866501,-0.23291528224945068,-0.055911824107170105,0.22833843529224396,0.05146387219429016,0.02587483637034893,0.27138474583625793,0.0820407122373581,0.035073891282081604,0.22986328601837158,0.0357137992978096,-0.1867268830537796,0.22372251749038696,-0.19079411029815674,-0.23128506541252136,0.33001646399497986,-0.03852692246437073,0.196330264210701,0.02076232247054577,0.09443387389183044,0.11978624016046524,-0.11121495813131332,0.060052528977394104,0.07680975645780563,0.3973129689693451,0.15362539887428284,-0.13034984469413757,-0.41319385170936584,-0.020705295726656914,-0.08629711717367172,-0.12638533115386963,0.14040476083755493,0.24941599369049072,-0.07305502891540527,-0.043144725263118744,-0.1090392917394638,0.049221526831388474,0.14504146575927734,-0.029255380854010582,0.1813325136899948,-0.1837388128042221,0.007827123627066612,0.16812889277935028,0.12622565031051636,0.06906838715076447,0.050957027822732925,0.28010010719299316,0.2179015427827835,0.03962504118680954,-0.06321687251329422,0.10153066366910934,-0.006473929155617952,-0.08346833288669586,-0.044925507158041,-0.2605140805244446,0.03922706097364426,0.13696201145648956,-0.3296997845172882,-0.2319573014974594,0.22623991966247559,-0.030322585254907608,0.011281095445156097,0.18616947531700134,-0.41464221477508545,-0.25530484318733215,-0.2103440910577774,0.243139386177063,0.03857763484120369,-0.02123614400625229,-0.09291955083608627,-0.13528414070606232,-0.08702612668275833,-0.2989906668663025,0.27268218994140625,0.07486855983734131,0.15467563271522522,0.15600624680519104,0.0645059198141098,-0.1270807683467865,-0.16546544432640076,-0.10626445710659027,-0.09455797076225281,0.00744996452704072,-0.08581091463565826,0.6802895069122314,-0.42351052165031433,0.14935949444770813,0.3179556131362915,0.09909917414188385,-0.08041884005069733,-0.11926962435245514,-0.0007392717525362968,0.33858951926231384,0.38767457008361816,-0.26287680864334106,-0.25925564765930176,-0.014317402616143227,-0.23938582837581635,-0.04735131189227104,0.13345886766910553,0.25409406423568726,-0.05534244701266289,0.21170800924301147,-0.03480071574449539,-0.1853150576353073,0.42096221446990967,0.01883907988667488,-0.11074049770832062,0.02657349780201912,-0.1709909290075302,0.08284460008144379,0.38587290048599243,0.18344445526599884,-0.07466990500688553,-0.11217790096998215,-0.10768725723028183,0.20051054656505585,-0.19662123918533325,0.06375386565923691,-0.10315246134996414,0.8967800140380859,0.6422501802444458,0.04660363122820854,-0.5070636868476868,-0.4637061357498169,-0.004618642386049032,0.3625800311565399,0.17220056056976318,0.39585086703300476,0.0593721866607666,0.23769304156303406,0.1479146033525467,0.6770886182785034,0.4078594148159027,-0.3565822243690491,0.7676858901977539,0.5944172143936157,0.12037678807973862,0.05432180315256119,0.11061778664588928,-0.07558623701334,0.06324515491724014,-0.06009659543633461,-0.24616551399230957,0.2509233355522156,0.1632552444934845,0.1479978859424591,-0.007846550084650517,-0.12763406336307526,0.13378654420375824,-0.2855786085128784,0.023170355707406998,0.17661698162555695,0.14866957068443298,0.12693877518177032,0.119139663875103,0.02980053424835205,0.20196673274040222,-0.02707541175186634,-0.5901277661323547,-0.41951414942741394,-0.3175576329231262,0.04521553963422775,0.05895853042602539,-0.12308882176876068,-0.019298827275633812,0.05466683954000473,0.1746198534965515,0.3567577600479126,-0.6303757429122925,-0.24456748366355896,-0.3831274211406708,0.05721651762723923,0.14802387356758118,-0.13506367802619934,-0.055384933948516846,-0.10020565986633301,-0.5641698241233826,-0.5013953447341919,-0.3246636688709259,0.6160659790039062,-0.20065245032310486,0.1183251217007637,0.17754651606082916,-0.3440234363079071,-0.07912692427635193,0.9466056227684021,0.18348543345928192,-0.10132874548435211,0.14625611901283264,0.2797948122024536,0.679734468460083,0.41056734323501587,0.2631548047065735,0.00423278147354722,-0.305575430393219,-0.43967241048812866,-0.07801656424999237,-0.6350796222686768,-0.18045181035995483,0.09620234370231628,-0.7143094539642334,-0.3116459548473358,0.10861152410507202,-0.06352528184652328,0.0362076610326767,-0.016902823001146317,-0.2521727681159973,0.2149001657962799,0.12670278549194336,0.5638004541397095,0.20316769182682037,0.02526726946234703,0.14072521030902863,0.11955087631940842,-0.08684352040290833,-0.14815932512283325,-0.2089766412973404,-0.10887785255908966,0.08184884488582611,-0.08112788200378418,0.061843205243349075,0.07634613662958145,0.059521328657865524,-0.14279863238334656,0.04618464782834053,0.025305811315774918,0.06591948121786118,-0.2967146039009094,0.02005961909890175,0.49669650197029114,-0.09876096248626709,0.10678117722272873,0.05458619073033333,0.023535721004009247,0.18314151465892792,0.15071186423301697,0.031930673867464066,-0.308707058429718,0.11423909664154053,-0.023546762764453888,0.31346988677978516,-0.04854647442698479,-0.0017628815257921815,-0.31469017267227173,-0.25414538383483887,0.1207004189491272,-0.1727921962738037,-0.03269599750638008,-0.34877705574035645,-0.01912982203066349,0.0476498156785965,-0.13228248059749603,-0.06316721439361572,-0.29656392335891724,-0.12423422932624817,-0.19271521270275116,0.015205776318907738,-0.08865842968225479,0.18564927577972412,-0.029871772974729538,0.24778427183628082,0.24490948021411896,-0.08133479952812195,-0.20355382561683655,0.18081580102443695,-0.0287786852568388,-0.12495716661214828,0.08566804975271225,0.01319254282861948,-0.02662401832640171,0.055051468312740326,-0.04770708084106445,0.08297652751207352,0.0030433780048042536,-0.016050288453698158,0.0002097144752042368,-0.5830715298652649,0.31053557991981506,0.0012410642812028527,-0.08427811414003372,-0.10552042722702026,-0.14347414672374725,0.15692013502120972,0.18152382969856262,0.12828709185123444,-0.17965242266654968,0.05054819956421852,-0.04552099481225014,-0.24228844046592712,0.014092002995312214,-0.16855691373348236,0.243263840675354,0.07594789564609528,-0.06812619417905807,0.11739662289619446,-0.03216813877224922,0.008691930212080479,-0.3242964744567871,-0.2591429650783539,-0.14615103602409363,-0.08042693138122559,-0.16792473196983337,0.02534334547817707,-0.18162879347801208,0.08825336396694183,0.015417026355862617,-0.13780447840690613,-0.09572016447782516,-0.026400743052363396,-0.08042358607053757,-0.20829585194587708,0.02754035033285618,-0.19847218692302704,-0.0833137109875679,-0.13636453449726105,0.20188435912132263,0.07369647920131683,-0.04709438979625702,0.11426291614770889,0.10950770974159241,0.05491739511489868,0.2682332992553711,0.028538765385746956,0.12403566390275955,-0.605063259601593,-0.04552518576383591,-0.0389622338116169,-0.24671751260757446,0.22392328083515167,-0.1337762176990509,-0.4195840358734131,-0.06401962786912918,-0.07952574640512466,0.05156737193465233,-0.2069750279188156,0.17172768712043762,-0.4060211777687073,0.002290181117132306,0.06054534390568733,0.3144625723361969,0.016633907333016396,-0.11241291463375092,0.6200355887413025,0.0017593177035450935,0.15512607991695404,0.17824886739253998,0.1326541006565094,0.0601300373673439,-0.1818903088569641,-0.0765918716788292,-0.04875596985220909,0.19013142585754395,0.07474568486213684,0.17902569472789764,-0.7646616697311401,-0.014610099606215954,0.13935209810733795,0.11442438513040543,-0.1319762021303177,-0.17377407848834991,0.08788734674453735,-0.2120751142501831,-0.019646866247057915,0.13004380464553833,0.0058109350502491,-0.0820295512676239,-0.07357646524906158,-0.09014467895030975,-0.10349280387163162,-0.1271807849407196,-0.3443734347820282,-0.2913709282875061,-0.18010097742080688,0.7291532158851624,-0.09466666728258133,-0.017004957422614098,0.17186322808265686,0.32542893290519714,0.4728251099586487,0.35451456904411316,0.1783323734998703,-0.4130527079105377,0.24768663942813873,-0.21971264481544495,0.08810502290725708,0.10118229687213898,-0.06925631314516068,0.04849082604050636,-0.3217245638370514,0.019505787640810013,0.06434421986341476,-0.22162553668022156,-0.324647456407547,-0.43618541955947876,-0.1421079784631729,0.049994539469480515,-0.030911505222320557,-0.17621001601219177,0.12539243698120117,-0.046501196920871735,-0.16725791990756989,-0.1727558672428131,0.05122661963105202,0.2475500851869583,0.0627935603260994,0.0863126665353775,0.03221439570188522,0.5459789633750916,-0.2746403217315674,0.1007513478398323,0.2709968686103821,0.14210766553878784,-0.0500752218067646,-0.3590514659881592,0.012471480295062065,-0.16723287105560303,0.04183441773056984,-0.17925865948200226,-0.257851779460907,0.2523249089717865,0.04911714792251587,-0.021366355940699577,0.4716869294643402,-0.46368032693862915,-0.039375465363264084,-0.08901528269052505,-0.05877426266670227,0.17646031081676483,-0.08626008778810501,0.24097152054309845,-0.011611862108111382,-0.3044528663158417,0.10803662240505219,-0.11775113642215729,0.4502820074558258,-0.004714129492640495,0.03199468180537224,0.30992183089256287,-0.2470574676990509,-0.13250721991062164,-0.04198436066508293,-0.15580417215824127,-0.03079189918935299,-0.19711732864379883,0.03136000037193298,-0.06364118307828903,0.14982642233371735,0.0708327367901802,0.04867373779416084,-0.07826302200555801,0.1610192060470581,0.08639258146286011,-0.08027927577495575,-0.15117084980010986,0.13862834870815277,-0.22865279018878937,-0.02971894107758999,0.3020090162754059,0.1541544795036316,-0.11705556511878967,0.1210109144449234,0.03858768194913864,0.0157938152551651,-0.0768117606639862,-0.09952480345964432,0.029357334598898888,0.16056662797927856,-0.8233512043952942,-0.31942909955978394,-0.2052951157093048,-0.2836591601371765,0.01225015614181757,0.5768455862998962,0.13577900826931,0.09139610081911087,0.1532897800207138,0.11734765022993088,-0.2268400937318802,-0.2912401854991913,0.09982862323522568,-0.08950524777173996,-0.014460821636021137,-0.03709005191922188,-0.015368645079433918,0.09963196516036987,0.11167114228010178,0.04755134880542755,0.026059553027153015,-0.16461172699928284,0.0016134269535541534,-0.08892184495925903,0.2442527860403061,0.20682916045188904,-0.11339829117059708,-0.003965670242905617,-0.10428819060325623,-0.1564783900976181,-0.06009548157453537,-0.0601663812994957,0.013426698744297028,0.39074960350990295,0.6638849377632141,0.4897332489490509,-0.4379662573337555,0.0762457475066185,-0.1699848473072052,0.29903265833854675,0.38493865728378296,0.3563573658466339,-0.40205860137939453,-0.6184579133987427,-0.4658929407596588,-0.5351376533508301,-0.3982785940170288,-0.4492180645465851,-0.13216760754585266,0.017097793519496918,-0.10444651544094086,0.3421745002269745,0.8053746223449707,0.788774847984314,0.27972865104675293,0.2991328537464142,0.1620858609676361,0.3637147545814514,0.12683343887329102,0.30123552680015564,-0.1021130159497261,-0.2782481908798218,-0.08716529607772827,0.10452604293823242,0.27799931168556213,0.33503788709640503,-0.024155721068382263,-0.1450015902519226,-0.1223873496055603,-0.01748763397336006,0.08730603754520416,0.11970243602991104,0.10666652768850327,0.2611485719680786,0.3174870014190674,0.04220397397875786,0.1201709732413292,0.05117913708090782,0.2578654885292053,0.16676369309425354,0.09190069139003754,-0.1940051019191742,-0.011662835255265236,-0.1481519192457199,-0.39845654368400574,0.21731363236904144,0.11097745597362518,0.23564893007278442,0.08767222613096237,0.04986300691962242,0.1278744786977768,0.012955030426383018,-0.11373977363109589,-0.021492693573236465,0.057455774396657944,0.056487102061510086,-0.14785027503967285,0.15321265161037445,0.24895893037319183,-0.3047763407230377,0.2702091634273529,-0.07071161270141602,-0.19994553923606873,-0.19552573561668396,-0.07814833521842957,0.08303096145391464,-0.1214485839009285,-0.17806647717952728,-0.18242821097373962,0.016257744282484055,0.10506182163953781,0.04576641321182251,0.18282568454742432,-0.1589193344116211,0.11575677245855331,-0.024479268118739128,-0.15370586514472961,0.08785789459943771,0.028122853487730026,0.11077647656202316,0.06732901930809021,0.10237160325050354,-0.02730342000722885,0.2915377914905548,-0.04217033460736275,0.11440710723400116,-0.17266327142715454,0.06064070388674736,0.18445265293121338,0.21045269072055817,0.13441815972328186,-0.22700615227222443,0.39496392011642456,-0.19921457767486572,0.34794381260871887,-0.22318176925182343,0.2830021381378174,-0.0581626296043396,-0.03769316524267197,-0.086009681224823,0.2076820731163025,0.2854645550251007,0.06093530356884003,0.6677575707435608,0.037341561168432236,0.0824868455529213,-0.08462020754814148,0.22170515358448029,-0.3446184992790222,0.06783973425626755,-0.7033617496490479,-0.30670610070228577,-0.08766081929206848,1.0693947076797485,-0.7363361716270447,-0.8397344946861267,-0.3995143473148346,0.3383786082267761,-0.6313441395759583,0.19663973152637482,-0.9184592366218567,0.003902339842170477,-0.21708251535892487,0.10695943981409073,0.47689828276634216,0.08704174309968948,0.22325176000595093,-0.30649977922439575,-0.10758540034294128,-0.07930892705917358,-0.0857258215546608,0.0949735939502716,0.0011021761456504464,0.20375032722949982,-0.10727865993976593,-0.22666777670383453,0.02300715632736683,-0.37043964862823486,-0.8183311820030212,0.061217259615659714,-0.021224714815616608,-0.39981502294540405,0.37193527817726135,-0.03153509646654129,-0.48153313994407654,0.27272137999534607,-0.4156125783920288,0.0595611073076725,-0.01916220597922802,0.1976548731327057,-0.3677372932434082,0.23367074131965637,0.15468807518482208,-0.29677510261535645,-0.23942598700523376,0.05450451746582985,0.1788816750049591,0.11747173219919205,0.042339589446783066,0.0036253740545362234,-0.09429357945919037,0.1520932912826538,-0.03215079382061958,-0.18700221180915833,-0.06034902483224869,-0.08923134207725525,0.04324595630168915,0.05802436172962189,-0.028616180643439293,0.25685763359069824,0.34819018840789795,-0.5842403769493103,-0.2322503924369812,-0.1692740023136139,-0.06556819379329681,-0.17811256647109985,-0.28634724020957947,0.2921326458454132,-0.3875976502895355,0.22748540341854095,0.6721010804176331,0.23779495060443878,-0.07673928886651993,-0.28006312251091003,0.02117367647588253,0.248832568526268,-0.12358316034078598,-0.27656716108322144,-0.501918613910675,0.4650897979736328,-0.18094900250434875,-0.05799178406596184,0.16861552000045776,-0.3118950128555298,0.04536698758602142,-0.08430615812540054,0.20287583768367767,-0.10724204778671265,0.2364645153284073,0.1372314989566803,-0.396503210067749,-0.23056137561798096,-0.024916155263781548,0.1247304156422615,-0.21963289380073547,0.00891114678233862,-0.23357778787612915,0.13520878553390503,-0.002754283370450139,-0.05994041636586189,0.13393136858940125,-0.06106920540332794,-0.27292609214782715,-0.2622964084148407,-0.14373226463794708,0.5452454090118408,0.11016810685396194,0.09582245349884033,-0.27404969930648804,-0.04079790413379669,-0.008712549693882465,0.06626293063163757,0.39147329330444336,-0.35285645723342896,-0.202229842543602,-0.06500351428985596,-0.16560564935207367,-0.13428735733032227,-0.09945946931838989,0.28211596608161926,-0.18769341707229614,-0.2626224756240845,0.289390504360199,-0.0020207222551107407,-0.04999522492289543,0.04912155494093895,-0.008103054948151112,0.1995711475610733,-0.35502418875694275,0.07250545918941498,0.13680684566497803,-0.04282371699810028,0.08217380195856094,-0.02683965675532818,-0.16020984947681427,-0.1560642272233963,0.03506127744913101,0.5178101062774658,-0.22633644938468933,0.038244735449552536,0.08195856213569641,-0.2601466476917267,-0.17377355694770813,-0.3155042827129364,-0.03515124320983887,0.15382687747478485,-0.08105910569429398,0.09870725870132446,0.0933740884065628,0.18914195895195007,0.04997601732611656,-0.02662881650030613,0.2136361002922058,-0.2533562183380127,0.3752579092979431,-0.17158925533294678,-0.2909693419933319,0.04817376285791397,0.08977943658828735,-0.05615656450390816,0.0014296422014012933,0.23859211802482605,-0.021399853751063347,-0.09427672624588013,0.24928759038448334,0.26631635427474976,-0.046876389533281326,0.2582196295261383,0.08268103003501892,0.3226335644721985,-0.007008702959865332,-0.1798846274614334,-0.3805122971534729,-0.10120036453008652,0.3077402710914612,0.051821041852235794,-0.007892088033258915,-0.1400192677974701,0.01766682043671608,0.14230187237262726,0.40827617049217224,-0.37542805075645447,0.29886046051979065,-0.020816193893551826,0.3366706967353821,-0.31202009320259094,0.224031463265419,0.10315390676259995,0.37813040614128113,-0.7563036680221558,-0.11546698957681656,-0.08086369186639786,0.032457154244184494,0.03074752911925316,0.2412133812904358,-0.4362638592720032,0.34041860699653625,0.3975200653076172,-0.11050521582365036,-0.024757422506809235,-0.22919397056102753,-0.18320733308792114,-0.21319881081581116,-0.026422137394547462,-0.0471084900200367,-0.2348826825618744,0.13716712594032288,0.012586068361997604,-0.012735238298773766,-0.1390211135149002,0.2220839411020279,-0.1492520123720169,-0.26074913144111633,-0.14247140288352966,-0.09866804629564285,0.24112936854362488,-0.2062889188528061,-0.3406003713607788,-0.0868200957775116,0.2720148265361786,-0.011610201559960842,-0.10542440414428711,0.2580358386039734,-0.1486961841583252,0.15092547237873077,0.035973139107227325,-0.01286390982568264,0.23471353948116302,0.12166353315114975,0.011390771716833115,0.06522461771965027,0.2888033390045166,0.32205480337142944,-0.2326820194721222,-0.057365648448467255,-0.003989260643720627,0.15110795199871063,0.3295484781265259,-0.11288484185934067,-0.17589226365089417,-0.16869351267814636,0.3179609775543213,0.06939280778169632,0.1437092423439026,-0.19939668476581573,-0.35751932859420776,0.09830326586961746,-0.23484252393245697,0.0022332018706947565,0.24050180613994598,0.027090230956673622,0.1764940768480301,-0.0899905189871788,0.18637631833553314,0.11372250318527222,-0.3300037086009979,0.009327342733740807,-0.18471097946166992,0.12386110424995422,0.29493215680122375,-0.16317246854305267,0.1113046258687973,-0.05059751495718956,-0.2636527121067047,0.22716006636619568,-0.11227411776781082,-0.1000494435429573,-0.21685431897640228,0.14832158386707306,-0.021825497969985008,-0.32521647214889526,0.047399330884218216,0.42411285638809204,0.04185948520898819,0.5304399728775024,-0.11595440655946732,0.12442093342542648,-0.19742335379123688,-0.32573267817497253,-0.10818010568618774,-0.5337300896644592,0.0025413036346435547,-0.024951541796326637,-0.17111048102378845,-0.19592633843421936,-0.1840132474899292,0.0538305826485157,-0.1392042636871338,-0.11606313288211823,-0.05699610710144043,-0.03942231088876724,-0.03493131324648857,-0.26536405086517334,0.011000637896358967,0.10912410169839859,0.14703968167304993,0.08967253565788269,0.04857001453638077,0.26690346002578735,-0.004756765905767679,-0.21490070223808289,-0.24817624688148499,-0.10523606836795807,-0.006923429202288389,-0.041508596390485764,-0.038232482969760895,-0.25498947501182556,-0.01931694522500038,0.11347345262765884,0.03100721351802349,-0.0821392834186554,-0.004350170958787203,-0.1253480613231659,-0.17372992634773254,-0.06209808960556984,-0.0404781773686409,-0.2200833261013031,0.019344499334692955,-0.05757545679807663,-0.18628017604351044,-0.05640297383069992,0.24009808897972107,-0.22782070934772491,0.11757118999958038,0.1277923732995987,0.24264498054981232,-0.25395092368125916,-0.4241824150085449,0.236321359872818,-0.18197466433048248,-0.01694594696164131,-0.2695513963699341,-0.2643638253211975,0.1416916847229004,-0.0226674173027277,0.376111775636673,0.17794016003608704,-0.02357036992907524,0.06273426115512848,0.15268495678901672,-0.19272294640541077,-0.42357417941093445,0.11290931701660156,-0.10929445922374725,-0.061494130641222,0.12397031486034393,0.2348281741142273,0.25466421246528625,-0.1672791689634323,-0.043315865099430084,-0.17659829556941986,0.0630263015627861,-0.03480849042534828,-0.03820504620671272,-0.04818728193640709,0.12517796456813812,-0.15609464049339294,-0.1350277066230774,0.22800926864147186,0.32318902015686035,0.20129355788230896,-0.4104060232639313,-0.051572028547525406,0.1371997743844986,-0.2048887014389038,-0.28140342235565186,-0.08956621587276459,-0.2735632359981537,0.24849164485931396,0.16940593719482422,-0.17906078696250916,0.03474435955286026,-0.1395123302936554,0.03113931231200695,0.1815713495016098,-0.12550504505634308,0.34019526839256287,0.23245392739772797,0.14606791734695435,0.24957342445850372,0.09360156953334808,-0.06828571110963821,0.21160438656806946,0.007669204846024513,-0.11981069296598434,0.10775246471166611,0.06966830790042877,0.01321371365338564,0.10484746098518372,-0.37104907631874084,-0.03275926783680916,-0.07320033758878708,-0.10457910597324371,0.1770494431257248,-0.11958461999893188,-0.053260184824466705,0.2750972509384155,0.15910768508911133,0.16783401370048523,-0.033193886280059814,-0.12752869725227356,0.19572089612483978,0.10110792517662048,0.06815315037965775,-0.1719050109386444,-0.06701044738292694,0.01610478200018406,0.2594851553440094,0.04869462177157402,-0.19591008126735687,0.15905329585075378,-0.029156742617487907,0.10910841077566147,-0.16242390871047974,0.050996631383895874,0.18369996547698975,-0.14441166818141937,-0.2138204127550125,0.041105594485998154,-0.04543685540556908,-0.22574488818645477,-0.39427950978279114,-0.12973307073116302,0.2106817662715912,-0.16963951289653778,0.0015057624550536275,0.10167808830738068,0.04877282306551933,0.14262467622756958,-0.0016031236154958606,0.12668906152248383,0.5585020780563354,-0.09718827158212662,0.008829439990222454,0.2502239942550659,-0.2644874155521393,0.3204246163368225,-0.6719202995300293,-0.238370880484581,-0.0786212608218193,-0.13467662036418915,0.07238543778657913,-0.09870397299528122,0.11170265823602676,0.13616697490215302,0.27321362495422363,0.16521093249320984,-0.1389840841293335,-0.1099318414926529,0.130632221698761,0.2420792579650879,0.12479183077812195,-0.09003882110118866,-0.18528036773204803,-0.17176453769207,0.1737065315246582,-0.36711716651916504,0.01177392341196537,0.19169731438159943,0.015236567705869675,0.34699180722236633,-0.4119879901409149,-0.11799882352352142,0.13333933055400848,-0.01605728268623352,0.03342875838279724,0.2146201878786087,-0.06785649806261063,-0.104535773396492,-0.4060995280742645,-0.332094669342041,0.456008642911911,-0.16665077209472656,0.08260393142700195,0.20410874485969543,-0.05704774335026741,-0.16899234056472778,0.01568382792174816,-0.19547641277313232,0.03199995681643486,0.10276559740304947,0.01768992841243744,0.1421584188938141,0.08541596680879593,-0.3879644274711609,0.6233758330345154,-0.5273110270500183,0.023852838203310966,0.11952093243598938,-0.07865528017282486,0.11464567482471466,-0.1464587301015854,0.002714676782488823,-0.2490645945072174,-0.14245416224002838,0.10279153287410736,0.04036686196923256,-0.16735996305942535,0.018891720101237297,-0.0965922474861145,-0.00948635395616293,0.18038922548294067,0.03001757152378559,-0.2963663637638092,0.24981632828712463,-0.14903850853443146,0.08361043781042099,-0.09323889017105103,-0.12031970173120499,0.39782825112342834,-0.13381631672382355,-0.28834325075149536,0.24554024636745453,0.09632445126771927,-0.15485206246376038,-0.06265382468700409,0.1205105260014534,0.060662128031253815,-0.24799394607543945,-0.03418208286166191,0.06735213100910187,-0.28613796830177307,-0.2939460277557373,-0.06094904616475105,0.050455186516046524,-0.10244570672512054,-0.20160257816314697,0.11724814027547836,0.12584152817726135,-0.08394873887300491,0.14966361224651337,0.07236400991678238,0.14742352068424225,-1.011922001838684,-1.2113415002822876,0.1905830353498459,-0.030400343239307404,0.08543825894594193,-0.04291330650448799,-0.13507960736751556,0.3690459430217743,-0.16715417802333832,0.2499190717935562,0.1629718393087387,-0.11815496534109116,-0.49660834670066833,-0.04508928209543228,0.07616682350635529,0.04933590069413185,-0.3462379276752472,-0.4456271231174469,-0.6547653079032898,-0.928719699382782,0.09929652512073517,0.16681741178035736,1.0498563051223755,0.10779504477977753,0.12752357125282288,-0.3336924910545349,0.3388553857803345,-0.05415227636694908,0.636398434638977,0.06495484709739685,-0.2611938416957855,-0.05258772894740105,0.7510362863540649,0.2935071289539337,0.3977384567260742,-0.0013778252759948373,-0.4652863144874573,-0.06775052100419998,-0.25350165367126465,-0.20313815772533417,0.0713692381978035,-0.01350119337439537,-0.18502449989318848,-0.05214173346757889,0.06676401942968369,-0.09069129079580307,-0.05113425850868225,0.19175465404987335,0.6910759210586548,0.38907936215400696,-0.045169103890657425,0.008807842619717121,0.08135540783405304,-0.03805080056190491,-0.18176931142807007,-0.026610326021909714,-0.18370354175567627,-0.10977654159069061,-0.05908067896962166,0.2260950654745102,0.109400175511837,-0.1799488365650177,-0.11036296933889389,-0.03866209089756012,0.031773682683706284,0.2691289782524109,0.33588260412216187,-0.24192671477794647,-0.20924042165279388,0.1501290202140808,0.18482017517089844,-0.19781476259231567,-0.05979063734412193,-0.1736873984336853,-0.5444440245628357,-0.3564756512641907,0.7447527050971985,-0.1076529324054718,-0.15214873850345612,0.16487260162830353,-0.13661405444145203,-0.0982440933585167,0.06886586546897888,0.23398786783218384,-0.09152829647064209,0.09296112507581711,0.1205836683511734,0.31524208188056946,-0.10321265459060669,0.060199838131666183,0.2939514219760895,0.06355489045381546,-0.14171895384788513,0.12137965857982635,0.023749511688947678,0.09293956309556961,0.6357602477073669,0.5125936269760132,-0.04866861552000046,0.009369151666760445,-0.14391319453716278,-0.07465938478708267,-0.05912933498620987,-0.25543099641799927,-0.07192228734493256,0.11469165235757828,-0.1393502652645111,-0.17025689780712128,-0.1338680237531662,-0.05058164522051811,-0.0764017328619957,0.15000151097774506,-0.06919284164905548,-0.024346783757209778,0.05043227598071098,0.2539699375629425,0.16462652385234833,0.288569837808609,-0.49605000019073486,-0.047505199909210205,0.07519153505563736,-0.33828023076057434,0.20173345506191254,0.31314516067504883,-0.626156747341156,0.031949978321790695,-0.056525904685258865,-0.030046941712498665,0.23133783042430878,-0.5632209777832031,0.17209728062152863,-0.06979399919509888,0.13259659707546234,-0.09513679891824722,-0.16172118484973907,-0.02396668866276741,0.027120931074023247,-0.20872220396995544,0.022083822637796402,0.04136279225349426,0.08678441494703293,0.19724035263061523,-0.05159677937626839,-0.27368107438087463,0.2582087814807892,-1.0179896354675293,-0.043686456978321075,-0.047015998512506485,-0.17493987083435059,-0.33834928274154663,-0.14222343266010284,0.5802474617958069,0.007114207372069359,-0.03015606291592121,0.11354617029428482,0.35270193219184875,-0.3556853234767914,-0.05600734427571297,-0.10210858285427094,0.2372298240661621,0.08452705293893814,0.16595973074436188,0.11814894527196884,0.2779533565044403,0.318771630525589,0.17653991281986237,-0.1433241218328476,-0.057362571358680725,0.5634769201278687,0.2643126845359802,-0.6301470994949341,0.18440859019756317,-0.036108240485191345,-0.16718515753746033,-0.13958996534347534,0.08183899521827698,-0.05630682036280632,-0.07901276648044586,-0.2385810911655426,0.316597044467926,-0.12856972217559814,-0.29833829402923584,-0.11617843061685562,-0.3253825008869171,-0.2831984758377075,0.1056162565946579,-0.2532694935798645,-0.020108062773942947,-0.0155107993632555,-0.034835100173950195,-0.08465911448001862,0.0975378006696701,0.15844494104385376,-0.17054679989814758,0.20307298004627228,0.3615190386772156,0.14279510080814362,-0.14038236439228058,-0.09333506971597672,-0.17532862722873688,-0.16204315423965454,-0.24589787423610687,-0.36498600244522095,-0.06073855981230736,-0.30494895577430725,-0.2807176113128662,-0.09698926657438278,-0.15780866146087646,0.2804451882839203,0.11185919493436813,-0.06903257220983505,-0.015482213348150253,0.1667792946100235,0.012930149212479591,-0.20949657261371613,-0.22375090420246124,0.3045298457145691,0.009498164057731628,0.27882957458496094,0.13720466196537018,0.03771120682358742,0.0018609691178426147,-0.14896710216999054,0.11869795620441437,-0.2549266815185547,-0.06700756400823593,-0.6367952823638916,0.0791025310754776,-0.12439040094614029,-0.028814656659960747,-0.3213902711868286,-0.05447060242295265,-0.016840269789099693,-0.26599982380867004,0.2989027500152588,0.334987610578537,-0.2876970171928406,-0.04405633360147476,-0.02289111539721489,0.06358127295970917,-0.23771381378173828,-0.1455991566181183,0.28596827387809753,-0.13326530158519745,-0.01845064014196396,-0.04132157936692238,0.2636279761791229,0.18903617560863495,-0.17214596271514893,0.2885458171367645,0.0684652328491211,0.12909865379333496,0.07904380559921265,-0.23031462728977203,0.12054731696844101,0.29858696460723877,0.13636736571788788,0.23997193574905396,0.17991571128368378,0.04506334289908409,-0.07745138555765152,0.19911879301071167,0.35418936610221863,0.11662869155406952,-0.12307573109865189,0.014896486885845661,-0.3312907814979553,-0.09132985770702362,0.4854361414909363,0.15227027237415314,-0.18474899232387543,-0.03175138309597969,-0.199890598654747,-0.6157931685447693,-0.6451560258865356,0.17010341584682465,-0.18550480902194977,-0.005743312183767557,-0.045994069427251816,-0.18756137788295746,0.15109603106975555,-0.13186682760715485,-0.18575267493724823,0.15988081693649292,-0.00987757183611393,0.047761470079422,0.18823488056659698,-0.16711123287677765,-0.1283671110868454,-0.19037210941314697,0.16730743646621704,0.0544496513903141,-0.027246588841080666,-0.04288094863295555,0.19550040364265442,-0.46570929884910583,-0.10100173950195312,0.18636706471443176,0.34636297821998596,0.20306836068630219,-0.17006702721118927,-0.3559664189815521,-0.18741688132286072,0.03873547911643982,-0.057422783225774765,0.525715708732605,-0.6568562984466553,-0.9079883098602295,0.20189833641052246,-0.24196702241897583,-0.0645483061671257,-0.054885853081941605,-0.14968407154083252,0.27665144205093384,-0.8600788712501526,-0.02516421675682068,0.1263258457183838,-0.17363885045051575,-0.24994559586048126,0.2459152638912201,-0.28800225257873535,0.4853077232837677,-0.31744787096977234,-0.051806505769491196,-0.28070858120918274,-0.4331941604614258,0.15858390927314758,0.0311895664781332,0.08503507822751999,0.20826171338558197,-0.03351007401943207,-0.2450508028268814,0.09673624485731125,-0.3363093137741089,-0.16060246527194977,-0.0560632161796093,-0.044002775102853775,-0.2925996482372284,0.05967926234006882,0.2127954214811325,0.1459970921278,-0.47579503059387207,-0.023008016869425774,0.4102606177330017,-0.06345902383327484,0.16306781768798828,-0.15099425613880157,-0.17688356339931488,-0.12163232266902924,-0.03299609199166298,0.1145574301481247,-0.10953829437494278,-0.05601103976368904,-0.0034057830926030874,0.35083743929862976,0.09139810502529144,0.22946162521839142,0.46363934874534607,-0.05317450314760208,0.41662198305130005,-0.07530912011861801,0.0020160379353910685,0.11091331392526627,0.045868583023548126,0.242144376039505,0.2332969456911087,0.2750949263572693,-0.15818308293819427,-0.24660028517246246,-0.009086298756301403,0.1338038444519043,-0.12354511022567749,0.1741807609796524,0.3067357540130615,-0.002359506906941533,0.013320905156433582,-0.18080924451351166,0.016800228506326675,-0.01104101911187172,-0.14967389404773712,-0.011586460284888744,0.018520798534154892,-0.4590179920196533,0.06330957263708115,-0.07774516940116882,0.23397420346736908,-0.07655084133148193,0.12994010746479034,0.17581571638584137,-0.17999184131622314,-0.1504010409116745,-0.364336758852005,-0.036043621599674225,-0.15459676086902618,-0.10949688404798508,-0.14082150161266327,0.12852011620998383,-0.22116117179393768,0.2397812455892563,-0.007086544297635555,0.18957273662090302,0.3805152177810669,0.2961481511592865,0.062360167503356934,-0.15833041071891785,0.18813392519950867,-0.016736643388867378,0.15207147598266602,-0.07156699895858765,0.26012900471687317,0.07212387025356293,-0.5462595224380493,-0.11430200934410095,0.3530222773551941,-0.015635989606380463,0.10185574740171432,-0.002503515686839819,-0.1979828029870987,0.15078358352184296,-0.11057264357805252,0.13790616393089294,0.2036076784133911,0.035470616072416306,-0.027755483984947205,0.04237714782357216,-0.16434819996356964,-0.31808966398239136,-0.1130232885479927,0.11231502890586853,-0.18608099222183228,0.01640704646706581,-0.20024040341377258,-0.39134302735328674,-0.053839102387428284,-0.0507928766310215,-0.1598251610994339,0.029917996376752853,-0.5467087626457214,0.21123777329921722,-0.1804252713918686,-0.06527592241764069,-0.026354486122727394,-0.04941506311297417,0.11413299292325974,0.07699329406023026,-0.049914829432964325,0.1575625091791153,-0.15095648169517517,0.2089722752571106,-0.1708187460899353,0.5223101377487183,-0.1575566828250885,0.6310217976570129,-1.0245821475982666,0.20228606462478638,0.03179916366934776,-0.6616291999816895,0.1244983896613121,0.2594064474105835,-0.584518313407898,0.2634753882884979,-0.018620608374476433,-0.20490378141403198,0.03853927180171013,-0.17368511855602264,0.2384168952703476,-0.48355594277381897,-0.017064206302165985,0.540117621421814,0.049068644642829895,-0.017168579623103142,0.18741081655025482,0.07617883384227753,0.028115756809711456,0.09404092282056808,-0.004922615364193916,-0.1171160340309143,0.5709900259971619,-0.026581332087516785,-0.281246155500412,-0.2217077910900116,-0.059004127979278564,-0.10255436599254608,0.1982603371143341,0.08154264092445374,0.36068466305732727,-0.29447096586227417,0.08658994734287262,0.23906159400939941,0.030964884907007217,0.11266882717609406,0.04451867938041687,0.1972179263830185,0.330240398645401,0.08711504936218262,-0.1950228363275528,-0.02637612819671631,-0.06239072605967522,-0.4412490725517273,0.02291139028966427,-0.2574221193790436,0.21359123289585114,0.07978998124599457,-0.10881991684436798,0.28298941254615784,0.09759881347417831,0.1528344750404358,0.19765768945217133,0.13093289732933044,-0.08817445486783981,0.052926886826753616,-0.07780199497938156,0.33168578147888184,0.7054478526115417,-0.012787217274308205,-0.12764881551265717,-0.2748359739780426,0.07168923318386078,-0.06095300614833832,0.0259002223610878,0.03943832963705063,-0.09375469386577606,0.07819513231515884,-0.17869123816490173,-0.12944155931472778,-0.1097809448838234,0.12753231823444366,-0.12764085829257965,-0.07205450534820557,-0.05305793508887291,-0.10834654420614243,0.03097454085946083,-0.0016191452741622925,0.32245102524757385,-0.4892290234565735,-0.35111138224601746,1.0024396181106567,0.6013842821121216,-0.7703742980957031,-0.6446385383605957,-0.4093160629272461,0.47289636731147766,0.4220757484436035,-0.9438725709915161,1.0337557792663574,0.061787355691194534,0.15504321455955505,-0.16562816500663757,-0.2539004385471344,-0.7316641807556152,0.21589542925357819,-0.06657114624977112,-0.07941920310258865,-0.39420589804649353,0.2503304183483124,0.17343440651893616,0.30816081166267395,0.19836083054542542,0.3087465465068817,0.3862370550632477,0.08593130111694336,0.14135733246803284,-0.24835021793842316,0.036627188324928284,-0.16500872373580933,0.12356477230787277,0.2244071662425995,-0.24883773922920227,0.1823350191116333,-0.004393387585878372,0.09091797471046448,0.1697191745042801,-0.04422015696763992,-0.18109996616840363,-0.12691834568977356,0.029554257169365883,-0.058323707431554794,-0.1160573959350586,0.1472620964050293,0.17467468976974487,0.20498372614383698,-0.19865602254867554,0.029501844197511673,-0.1990097314119339,0.2840174734592438,-0.1430695652961731,0.03240305930376053,0.21559911966323853,0.17791835963726044,-0.030103232711553574,-0.4450995922088623,-0.20970898866653442,0.2202443778514862,-0.02483205683529377,0.250152587890625,0.21504035592079163,0.15232111513614655,0.06278055161237717,0.23636510968208313,-0.2079050987958908,0.11402144283056259,-0.18867525458335876,-0.11254279315471649,-0.24182084202766418,-0.20232664048671722,0.0047694663517177105,0.305176317691803,-0.01354948803782463,0.0886179730296135,0.21073198318481445,0.012932769022881985,-0.06436672806739807,0.16077782213687897,-0.10398775339126587,-0.13383476436138153,-0.27954551577568054,0.17272372543811798,0.014012908563017845,-0.04828156903386116,-0.03780879080295563,0.015240929089486599,-0.08665012568235397,-0.033589351922273636,-0.3203813433647156,0.11645139008760452,-0.05781085416674614,-0.1397443562746048,-0.36246371269226074,0.0676596462726593,-0.32769015431404114,0.1004825234413147,0.14206287264823914,0.021834056824445724,-0.09241213649511337,-0.24979135394096375,-0.18629498779773712,0.3846188485622406,0.06688518077135086,-0.27431559562683105,-0.18660524487495422,-0.17589233815670013,0.05874716863036156,-0.3869062662124634,0.13697488605976105,0.4101634919643402,0.08462715148925781,0.10554220527410507,0.2668035626411438,-0.15557681024074554,-0.021173371002078056,0.19970528781414032,-0.034236710518598557,0.00443342374637723,-0.10456529259681702,-0.2729771137237549,0.24361561238765717,-0.05222252383828163,-0.055719077587127686,0.1894521862268448,-0.20635223388671875,0.14831936359405518,0.18128785490989685,0.36194393038749695,0.24954137206077576,-0.04367481917142868,0.08842284977436066,0.1595989614725113,-0.07191655784845352,0.058048367500305176,0.04226446524262428,0.07731083035469055,0.07300811260938644,0.21183215081691742,0.23791438341140747,0.3499069809913635,0.2637214958667755,-0.017502527683973312,-0.19451424479484558,-0.2579614520072937,0.184089794754982,0.029722485691308975,0.1102491244673729,0.0190217737108469,-0.20389758050441742,-0.4181286692619324,-0.04275374859571457,-0.131777822971344,0.05689650774002075,-0.26415473222732544,0.04065077006816864,-0.08235619962215424,-0.028783924877643585,-0.17415423691272736,0.0074021643958985806,0.34919676184654236,0.010922584682703018,-0.3221028745174408,-0.14110957086086273,-0.030748238787055016,0.08119779825210571,-0.13542494177818298,-0.3927062749862671,-0.06949640810489655,0.2274462729692459,-0.14303378760814667,-0.2494315207004547,-0.08741255849599838,-0.0544525682926178,0.07183622568845749,0.15142397582530975,0.31918051838874817,-0.1368991732597351,-0.17832042276859283,-0.36482879519462585,0.31706658005714417,-0.25616002082824707,0.2514781951904297,0.055132023990154266,0.3452514708042145,0.20518402755260468,-0.3033405542373657,0.0739661231637001,-0.02352352812886238,-0.25940144062042236,0.040046509355306625,0.4013948440551758,0.19189228117465973,0.17356811463832855,-0.24613934755325317,-0.03954750671982765,-0.13825178146362305,0.2904496192932129,0.3088955879211426,0.45152556896209717,0.0444822758436203,0.07517046481370926,0.17398378252983093,0.3681338429450989,0.005825420375913382,-0.006769523490220308,-0.040828097611665726,0.10177146643400192,-0.2436419129371643,-0.22513583302497864,-0.16432657837867737,-0.11851490288972855,0.08452025055885315,0.05146114155650139,-0.21840807795524597,-0.10590988397598267,0.2112453728914261,-0.03146326169371605,-0.1095491275191307,0.14433325827121735,-0.3218269646167755,0.10839283466339111,0.03691338375210762,-0.2183983325958252,-0.2789511978626251,0.12276337295770645,-0.2392527461051941,-0.11969109624624252,0.3856329023838043,-0.03392205387353897,0.22109471261501312,0.11790749430656433,0.30152904987335205,0.06623044610023499,0.13052240014076233,-0.14709238708019257,-0.2191849946975708,0.1424083411693573,-0.2766518294811249,0.3984161913394928,0.3481369614601135,0.5140852928161621,-0.2664584815502167,-0.05315624177455902,-0.018037622794508934,0.1419253796339035,0.07275986671447754,-0.09036331623792648,0.25405460596084595,0.21924297511577606,-0.11437205225229263,0.18081799149513245,-0.3511731028556824,-0.4656359851360321,0.12538109719753265,-0.011817771010100842,-0.012123871594667435,-0.2995210289955139,0.09908222407102585,-0.15862415730953217,-0.026246462017297745,0.29297059774398804,0.036099255084991455,0.08583127707242966,-0.04369625449180603,0.12947174906730652,0.1273716688156128,0.15497097373008728,-0.2960440516471863,-0.16874057054519653,-0.09107295423746109,0.2247738093137741,0.06523200124502182,0.18122512102127075,0.2785259187221527,-0.20932354032993317,-0.10658078640699387,0.5678132176399231,0.11863107979297638,0.4090319573879242,-0.4940333068370819,0.08334626257419586,-0.02407052181661129,0.06805037707090378,-0.06029576435685158,-0.2994655966758728,0.3432176411151886,0.026567554101347923,-0.25273892283439636,-0.271058589220047,-0.0796198695898056,-0.13027815520763397,0.05083516985177994,-0.22705183923244476,-0.04145484045147896,0.2844325602054596,-0.5161663889884949,-0.22950530052185059,0.024729330092668533,0.520291268825531,0.08609747141599655,-0.1344350278377533,0.010193251073360443,-0.05066279321908951,-0.17429004609584808,0.1741144359111786,-0.19235806167125702,-0.08774605393409729,-0.06317591667175293,-0.16665144264698029,0.20552456378936768,0.27910155057907104,0.07765305787324905,-0.12237977236509323,-0.20346660912036896,-0.06648779660463333,0.07818435877561569,-0.016058307141065598,-0.10088761150836945,0.25924280285835266,-0.0026529431343078613,-0.1508103311061859,-0.18806074559688568,0.2259673774242401,-0.07879559695720673,-0.14940673112869263,-0.14760252833366394,-0.24469873309135437,-0.1430065631866455,-0.039837829768657684,-0.024879859760403633,-0.8275182247161865,-0.10416071861982346,0.4240953028202057,-0.024624640122056007,-0.03096448816359043,0.1626395285129547,0.46610650420188904,-0.07390143722295761,0.1698657125234604,-0.06112276762723923,-0.02872251346707344,-0.026775198057293892,-0.17224441468715668,0.0000702347097103484,0.12761543691158295,0.050571903586387634,-0.2233821004629135,0.003062834497541189,0.0054935272783041,0.17496159672737122,0.05267971754074097,-0.32946255803108215,0.14393238723278046,-0.10101266205310822,0.10215160995721817,0.14992529153823853,-0.1817925125360489,-0.20544540882110596,0.02256120555102825,0.1076236441731453,0.15145817399024963,-0.16935734450817108,-0.01460483018308878,0.12613944709300995,0.19391128420829773,-0.07055148482322693,0.21916568279266357,0.16792818903923035,0.24699009954929352,0.19458965957164764,-0.2761761546134949,-0.09370025992393494,-0.014921309426426888,-0.03948194161057472,-0.1581728607416153,0.2587825655937195,-0.20712873339653015,0.23021551966667175,0.30549606680870056,0.18560951948165894,-0.17136453092098236,0.051032133400440216,0.11759107559919357,-0.05940838158130646,-0.21398726105690002,-0.14705610275268555,0.04715212807059288,-0.0763285905122757,-0.2507810890674591,0.05183578282594681,0.05877247825264931,0.27510038018226624,0.019278012216091156,-0.07710172235965729,-0.05487171933054924,0.09972452372312546,-0.10024766623973846,0.15299001336097717,-0.15989747643470764,-0.17713722586631775,0.08620438724756241,0.21658611297607422,0.26260805130004883,-0.23275604844093323,-0.0995597243309021,-0.051990583539009094,0.20562027394771576,0.05079130455851555,0.11986396461725235,-0.046181850135326385,-0.16106104850769043,-0.40112775564193726,0.1745844930410385,0.08331447094678879,0.13730359077453613,-0.15690357983112335,0.026690756902098656,-0.09557938575744629,-0.17431211471557617,0.01198168471455574,0.17141422629356384,-0.1895860731601715,0.040436938405036926,0.042709317058324814,-0.2742927372455597,-0.1292976289987564,-0.4026402533054352,-0.03376428037881851,-0.13893891870975494,0.15107941627502441,0.12636660039424896,0.11485300213098526,0.312899112701416,-0.17602068185806274,0.13549064099788666,0.02160225622355938,0.07977472245693207,0.20998631417751312,0.06414595991373062,-0.22734661400318146,0.16447651386260986,0.06813126057386398,-0.1858568638563156,0.024658283218741417,0.05580933019518852,-0.003157925559207797,-0.06700929254293442,-0.1954004168510437,0.26029133796691895,0.21853205561637878,-0.09241896867752075,0.1289869099855423,-0.17643655836582184,-0.07232407480478287,0.31945499777793884,0.18337346613407135,-0.07100898027420044,-0.3152722418308258,-0.23246151208877563,-0.09193999320268631,0.10548988729715347,-0.06008103862404823,-0.03444266691803932,0.05145975574851036,0.19068129360675812,0.3066158592700958,0.006605257745832205,0.0055413213558495045,0.13277746737003326,-0.17461749911308289,0.07820071280002594,0.18103106319904327,-0.16355037689208984,-0.05975297465920448,-0.17340801656246185,0.06633496284484863,-0.2278246283531189,-0.1512976437807083,0.08158355951309204,0.136252298951149,0.02289222925901413,-0.040604367852211,0.006612799596041441,0.10744664072990417,0.006385710556060076,0.08191341161727905,0.1947045922279358,-0.1725461781024933,0.1653900146484375,-0.06016920879483223,-0.05732576549053192,-0.04160499572753906,-0.26475074887275696,-0.16297653317451477,-0.22207342088222504,0.1435009092092514,0.3308316469192505,0.09570857882499695,-0.12416066229343414,0.06079047918319702,-0.11706196516752243,-0.12604865431785583,0.16670843958854675,0.06841634213924408,0.2672485411167145,-0.14889544248580933,-0.321336954832077,-0.27289968729019165,0.04565811529755592,0.18357796967029572,-0.0323038324713707,-0.12257049232721329,-0.04488009214401245,-0.07120802253484726,0.0425192229449749,0.041819654405117035,0.24474577605724335,-0.06770414859056473,-0.024891765788197517,0.16195973753929138,-0.11275099962949753,-0.05057021975517273,0.031333260238170624,0.296421080827713,-0.20561863481998444,-0.044855885207653046,0.1577211320400238,-0.11853586882352829,-0.11229382455348969,-0.007428256794810295,0.042885493487119675,-0.18420331180095673,0.02890171855688095,-0.14083139598369598,0.01167424488812685,0.03539027273654938,-0.027842476963996887,0.250583678483963,-0.5676846504211426,0.19325222074985504,0.06885109841823578,-0.11062484234571457,-0.21891744434833527,-0.3928004801273346,0.0595448762178421,-0.16537721455097198,0.07409331202507019,0.20632977783679962,-0.2395700216293335,-0.28955644369125366,-0.06749130040407181,-0.09746010601520538,0.10365030914545059,0.0536571703851223,-0.09321355819702148,0.054718442261219025,-0.10690811276435852,0.1634855568408966,0.03598858043551445,0.20632284879684448,-0.11021183431148529,0.029309438541531563,0.2259596884250641,0.18665102124214172,0.055826347321271896,-0.38021624088287354,-0.029987994581460953,0.23784023523330688,-0.07606349140405655,-0.19083400070667267,0.02156425081193447,0.24497418105602264,0.14209029078483582,0.0632232129573822,0.4118354320526123,-0.12975367903709412,-0.18845313787460327,-0.14090363681316376,-0.05017974600195885,-0.31882861256599426,0.22269275784492493,-0.13674257695674896,-0.28772178292274475,0.2608433663845062,-0.048228919506073,0.27014365792274475,-0.15924674272537231,0.03282841667532921,0.17043429613113403,0.032356612384319305,-0.03265255689620972,-0.17981818318367004,0.05581710860133171,-0.05140652135014534,-0.13903245329856873,-0.15211154520511627,-0.02798386663198471,-0.24152785539627075,-0.06609432399272919,-0.18974217772483826,0.03475457802414894,-0.22077476978302002,-0.0666966363787651,-0.1405182033777237,-0.023157509043812752,0.1238599419593811,0.14858916401863098,0.4275617301464081,-0.028680847957730293,-0.043007370084524155,-0.10488450527191162,0.43493402004241943,0.21643465757369995,0.04014347866177559,0.01630481891334057,0.4706804156303406,-0.12834148108959198,-0.09211261570453644,-0.23023799061775208,0.4662609100341797,-0.40064120292663574,-0.20238400995731354,-0.1414223611354828,0.08904364705085754,-0.1273484081029892,-0.2038048356771469,0.1848135143518448,-0.10970305651426315,0.03566167876124382,-0.042276207357645035,0.0017463214462623,0.028169972822070122,0.11565195024013519,-0.0397525355219841,-0.24907608330249786,-0.16478943824768066,0.14715008437633514,0.0562196709215641,-0.3339604437351227,-0.18787583708763123,0.11732129007577896,0.012790181674063206,-0.2919309735298157,0.1396281123161316,-0.451373815536499,0.04063792899250984,0.22218535840511322,0.2478424310684204,-0.00818516407161951,-0.2179681956768036,-0.17240433394908905,-0.07778497040271759,0.12176518887281418,-0.148023322224617,0.06812946498394012,-0.11035081744194031,0.061955660581588745,-0.2516735792160034,-0.10376600176095963,0.08228286355733871,-0.07680722326040268,-0.08242523670196533,0.19047532975673676,-0.14649096131324768,-0.11229052394628525,-0.3872130513191223,-0.32309073209762573,0.12435661256313324,-0.14298850297927856,0.13324542343616486,0.21488642692565918,-0.011926403269171715,0.5332666039466858,-0.37832769751548767,0.11310648918151855,0.04298577085137367,-0.11511161923408508,0.014414501376450062,-0.18037760257720947,0.03974045068025589,0.2385670393705368,0.13579249382019043,-0.42687010765075684,-0.2084565907716751,-0.08951717615127563,0.11705973744392395,-0.13593566417694092,-0.15457668900489807,0.2591703534126282,0.034376826137304306,-0.08400114625692368,-0.026136700063943863,-0.14843712747097015,-0.15700747072696686,0.149897962808609,0.16981574892997742,0.04532059654593468,-0.2993420362472534,-0.05301828309893608,0.0863216370344162,-0.09735112637281418,0.06989366561174393,-0.09663072973489761,-0.4832283854484558,0.3661947250366211,0.2462039589881897,-0.5041501522064209,0.18615251779556274,0.05283021181821823,-0.21765071153640747,-0.0358823798596859,0.3782895505428314,-0.2619953751564026,0.13476495444774628,0.06135714799165726,-0.10658279806375504,-0.15295635163784027,0.05372898653149605,0.30149292945861816,0.024204367771744728,0.18463435769081116,-0.24041293561458588,0.32717132568359375,-0.1505059003829956,0.004764936864376068,0.2729055881500244,-0.09992219507694244,0.0196668803691864,0.013115582056343555,0.0678730309009552,-0.019770123064517975,0.11095015704631805,0.0645560696721077,0.24645572900772095,-0.24271908402442932,-0.06010138988494873,0.10970152169466019,-0.2665102481842041,-0.3406427204608917,-0.008378894999623299,-0.1605238914489746,0.012996792793273926,0.3415818512439728,0.17902205884456635,-0.0030738862697035074,-0.03596239164471626,-0.022482290863990784,-0.22585149109363556,0.02162175253033638,-0.2504313290119171,0.15454097092151642,-0.26105809211730957,-0.07787430286407471,-0.037412047386169434,-0.09378252923488617,0.08645034581422806,-0.07082848995923996,-0.18558703362941742,-0.03963543474674225,0.22912894189357758,-0.477889746427536,-0.3190295994281769,-0.10421881079673767,0.16999658942222595,-0.00007646931044291705,-0.03131096437573433,0.16841109097003937,0.03408027067780495,-0.22670340538024902,-0.14451666176319122,0.07548962533473969,-0.3185611069202423,0.47265851497650146,0.18995101749897003,0.06370022147893906,0.6688157916069031,0.092732273042202,0.11515573412179947,-0.5289153456687927,-0.18237830698490143,-0.30939680337905884,-0.5213693976402283,0.19440880417823792,0.1862608641386032,0.06631242483854294,0.25397852063179016,0.29777592420578003,0.06915628165006638,-0.05473383143544197,0.22332797944545746,-0.0892825573682785,0.029706567525863647,-0.009548783302307129,0.1476140320301056,-0.05087778717279434,-0.0015889903297647834,-0.6734395027160645,-0.19809655845165253,0.13580180704593658,0.10447067767381668,-0.12207043170928955,0.197564035654068,0.25595560669898987,0.2519730031490326,-0.14114879071712494,0.5583184361457825,0.0509558841586113,0.1917664110660553,0.23109516501426697,0.1217227652668953,-0.14523835480213165,0.7069180011749268,0.04600490257143974,0.19239068031311035,-0.7360272407531738,-0.10020039230585098,0.20369507372379303,0.2210032343864441,0.042873725295066833,0.22558382153511047,-0.049534063786268234,0.007138774264603853,0.2704387307167053,-0.3957678973674774,0.04871286451816559,0.0925065129995346,-0.14478203654289246,0.03157470375299454,0.1376032531261444,0.5910477042198181,0.0005671251565217972,-0.22205902636051178,-0.19730940461158752,-0.17155887186527252,-0.8367335200309753,0.3529081642627716,0.05398670956492424,-0.05694061145186424,-0.009395320899784565,-0.13911280035972595,-0.054363176226615906,-0.10663009434938431,0.04329017922282219,0.3451022803783417,0.6563923954963684,0.19014501571655273,0.06243916228413582,-0.09937269240617752,-0.032203447073698044,0.024625366553664207,0.3956517279148102,-0.043683700263500214,-0.10853318125009537,0.019505927339196205,-0.01623610034584999,0.053540199995040894,-0.30326026678085327,-0.052354682236909866,-0.2531917989253998,0.16727472841739655,0.2982349991798401,0.1113290935754776,-0.1393718719482422,0.09542760252952576,-0.0417618490755558,-0.00549528980627656,0.09879704564809799,-0.11666621267795563,0.03535255789756775,-0.37175241112709045,-0.1789347231388092,0.05186605080962181,-0.11276619136333466,0.028536053374409676,0.12820418179035187,0.10073810070753098,0.10893215984106064,-0.157841295003891,0.09532400220632553,-0.0861678496003151,-0.24465948343276978,-0.3873918354511261,-0.13555634021759033,0.11489839851856232,0.36982426047325134,-0.002554121194407344,-0.05071830749511719,-0.2530328631401062,0.11290066689252853,-0.2828468978404999,-0.009992916136980057,-0.18592160940170288,-0.2718368470668793,-0.08909786492586136,-0.11240056902170181,-0.03345157951116562,-0.10478480905294418,0.020662855356931686,-0.11715465039014816,-0.038930680602788925,0.06931301206350327,0.020955389365553856,-0.0025914963334798813,-0.04139532893896103,0.316205769777298,0.39759886264801025,0.1300850659608841,-0.6843496561050415,-0.0767548680305481,0.15905258059501648,-0.1339709311723709,-0.011483510956168175,-0.13641993701457977,0.3788204789161682,-0.20383000373840332,0.09418623149394989,0.37591660022735596,-0.13001199066638947,-0.22129592299461365,0.04036802798509598,-0.1470520943403244,0.08782196044921875,0.2654784321784973,0.12603150308132172,-0.1245093122124672,-0.00009069663792615756,0.1762627810239792,0.36754104495048523,0.11493406444787979,-0.08701715618371964,-0.07583770900964737,0.16242191195487976,0.0933891087770462,0.014221507124602795,-0.2710259258747101,-0.11209514737129211,0.09135179966688156,0.25660234689712524,0.0035305372439324856,-0.13246209919452667,0.05166279152035713,0.1399083286523819,0.12712462246418,0.5989572405815125,-0.04058085381984711,-0.27709102630615234,-0.10960740596055984,0.1403236836194992,0.017594244331121445,0.1323588341474533,-0.12134893983602524,-0.14369206130504608,0.03380231559276581,-0.27517998218536377,-0.2851272225379944,0.3040454685688019,0.12572979927062988,-0.01935880444943905,-0.017312917858362198,0.06398238986730576,-0.0774676650762558,0.2933602035045624,-0.06887377798557281,0.017637843266129494,0.1996673345565796,0.004841448739171028,-0.018201390281319618,0.4660464823246002,-0.10619416832923889,-0.21007250249385834,-0.05221747234463692,-0.2732311487197876,-0.10844097286462784,-0.3489362299442291,0.19903041422367096,0.0372709259390831,-0.1882169246673584,0.2774718999862671,0.304226815700531,0.2502872943878174,-0.05596533790230751,0.07078340649604797,-0.14357902109622955,0.039385125041007996,0.09904786199331284,0.31957411766052246,-0.1234140396118164,-0.01215735636651516,-0.3493458330631256,-0.31433212757110596,-0.24306592345237732,0.22872164845466614,0.008104000240564346,-0.17605480551719666,-0.10223185271024704,-0.1492021530866623,0.12102872878313065,0.13441655039787292,0.09190317988395691,-0.06060146167874336,0.17869886755943298,-0.005504561122506857,0.1913476139307022,-0.28584006428718567,0.038390468806028366,0.05688365548849106,-0.07846343517303467,-0.0055732340551912785,0.4852100908756256,0.3282630443572998,0.24554403126239777,0.49680936336517334,0.5074219703674316,-0.21172207593917847,0.28962022066116333,-0.4713180363178253,-0.024722805246710777,0.12797650694847107,0.18338079750537872,0.07432135939598083,0.1664082109928131,0.8334108591079712,-0.21580350399017334,-0.3810701072216034,-0.21761731803417206,-0.35381776094436646,-0.9239441752433777,-0.9674786329269409,-0.028153372928500175,0.11691524088382721,-0.09294352680444717,0.18806242942810059,0.07286735624074936,-0.33605825901031494,0.05354853346943855,0.23624275624752045,0.8619145750999451,0.09417659044265747,0.18329176306724548,-0.6851478815078735,-0.019939890131354332,0.26293691992759705,0.173921599984169,-0.1514626443386078,-0.24654309451580048,-0.05669178068637848,-0.07847888767719269,0.19327938556671143,-0.4785698354244232,0.1048940047621727,-0.37947991490364075,0.6924611330032349,-0.12286972254514694,-0.3716692626476288,0.29140838980674744,0.008505539037287235,-0.11354340612888336,0.12796643376350403,-0.14041513204574585,0.34882912039756775,0.10854372382164001,-0.028854351490736008,-0.19442817568778992,0.10601742565631866,0.16164471209049225,0.5247496962547302,-0.6341640949249268,0.051990728825330734,0.20419490337371826,0.11280003190040588,-0.6853371858596802,1.0468271970748901,-0.16383038461208344,0.8146231770515442,-0.9337710738182068,-0.17932787537574768,0.20721662044525146,0.8527030944824219,0.25325265526771545,0.40629372000694275,0.5220590233802795,-1.2234076261520386,0.32599198818206787,-0.04287173971533775,-0.7239300608634949,0.04926542192697525,-0.4857085645198822,-0.10003558546304703,-0.3041979968547821,0.06904616206884384,-0.3421720564365387,0.0246113333851099,0.14491373300552368,-0.03700467571616173,-0.1632874757051468,-0.44551795721054077,-0.025614382699131966,-0.01566249318420887,-0.11659575253725052,-0.2006656378507614,-0.10579978674650192,0.20336559414863586,-0.10743644088506699,-0.1165161207318306,-0.1328752040863037,0.11132317036390305,-0.18892371654510498,-0.023144589737057686,-0.16929326951503754,-0.03906155750155449,-0.4892427921295166,-0.3025393486022949,0.012115740217268467,-0.16568906605243683,0.10951947420835495,-0.04925307631492615,0.1538214534521103,0.14214518666267395,0.18615417182445526,0.039894282817840576,0.3906385898590088,-0.07839804887771606,0.22543485462665558,-0.0366571806371212,-0.39172568917274475,-0.2010876089334488,0.09411594271659851,0.28076741099357605,-0.08396440744400024,-0.0851072296500206,-0.2179257869720459,0.011813748627901077,-0.15240314602851868,-0.057796161621809006,0.13123922049999237,0.009570757858455181,0.07509573549032211,-0.10262784361839294,0.3446909785270691,0.16692093014717102,0.2092147171497345,0.04209331050515175,0.19875100255012512,-0.07331525534391403,-0.1989288479089737,0.08195611834526062,-0.14922471344470978,0.23662148416042328,0.1882617175579071,0.10931968688964844,-0.17663249373435974,0.12324138730764389,-0.1308925896883011,0.04717666655778885,0.08035710453987122,0.00019393261754885316,0.017427965998649597,-0.08700499683618546,-0.2685050070285797,0.2586522698402405,0.2591462731361389,-0.020622190088033676,0.11243198812007904,-0.2228238433599472,0.006061583291739225,-0.3198212683200836,-0.010489261709153652,-0.28726890683174133,0.20759108662605286,0.19720380008220673,0.16632546484470367,-0.09392482787370682,0.339469313621521,-0.020251533016562462,0.04128647595643997,0.11338244378566742,0.13670611381530762,-0.28708919882774353,0.2208777368068695,-0.04289378598332405,0.05489610135555267,-0.16946205496788025,0.04325386881828308,-0.09717726707458496,0.012669580988585949,-0.09033796191215515,-0.28056371212005615,-0.15611404180526733,-0.3488326668739319,0.13107164204120636,0.011716966517269611,-0.2965816259384155,0.05294494703412056,0.17120958864688873,-0.065891794860363,-0.0845910981297493,-0.10920284688472748,0.009927560575306416,-0.13048596680164337,-0.08421365171670914,0.25385144352912903,-0.14704713225364685,0.2752653658390045,0.2289203405380249,-0.36541926860809326,-0.0769701898097992,0.3765840530395508,0.20696532726287842,0.010467448271811008,0.004231576342135668,0.11545905470848083,-0.09719280898571014,-0.09831679612398148,0.2085970938205719,-0.02059382013976574,-0.3489413857460022,-0.001918501453474164,0.057808831334114075,-0.010008184239268303,0.24857565760612488,0.12956996262073517,0.39476779103279114,-0.1893429160118103,0.11482248455286026,0.08682656288146973,-0.07298865914344788,-0.12505796551704407,0.3051440119743347,-0.05247274413704872,0.10175919532775879,-0.009482975117862225,-0.20805931091308594,0.2138553112745285,-0.1454164981842041,-0.07108267396688461,-0.18655261397361755,0.22167889773845673,-0.1294294148683548,0.31611907482147217,-0.3062659502029419,-0.07299896329641342,0.20454208552837372,-0.17796489596366882,0.291507750749588,-0.10538091510534286,0.2282666712999344,0.10535363107919693,-0.11009882390499115,0.09543220698833466,-0.18775540590286255,-0.2400938719511032,-0.41174471378326416,-0.22145481407642365,-0.25046730041503906,-0.016430608928203583,0.37856820225715637,0.032046835869550705,-0.06624303758144379,-0.12710213661193848,0.3100619912147522,-0.1405722200870514,0.11544962972402573,-0.1848721206188202,0.023061808198690414,0.1163155660033226,-0.36082392930984497,0.05985637009143829,-0.16582989692687988,-0.4102838933467865,-0.17161288857460022,-0.04323040321469307,-0.18926790356636047,0.09590507298707962,0.23303891718387604,0.017469899728894234,0.0680079460144043,0.22879287600517273,-0.11676954478025436,-0.2099267691373825,0.12564708292484283,0.13748076558113098,0.13526761531829834,0.2982684075832367,-0.11342775821685791,0.213018000125885,-0.2958078682422638,0.1504618376493454,0.13078778982162476,0.025980347767472267,-0.31878283619880676,-0.14417681097984314,-0.12543921172618866,0.06251579523086548,0.14173400402069092,-0.2683984637260437,0.13737472891807556,0.12551353871822357,-0.12667377293109894,0.23424582183361053,0.16806817054748535,0.08563747256994247,-0.17708447575569153,0.10715994238853455,-0.04198431596159935,0.08014082908630371,0.04147748276591301,-0.34375715255737305,-0.5087877511978149,-0.3284372091293335,-0.0851355791091919,-0.3512188196182251,0.25985249876976013,-0.14786967635154724,-0.02580646052956581,0.13147173821926117,-0.2633362412452698,-0.2148446887731552,-0.2440834790468216,0.0938447117805481,-0.2541343569755554,-0.12307701259851456,-0.33802562952041626,-0.012046394869685173,0.2286500185728073,-0.007726913783699274,0.0717020034790039,0.10167481750249863,-0.06629370152950287,0.16869395971298218,-0.3507618010044098,-0.09147453308105469,-0.3488014340400696,-0.15181435644626617,0.13479289412498474,-0.08502436429262161,-0.2435690313577652,-0.22989830374717712,-0.12746556103229523,-0.2305527776479721,0.1696273386478424,-0.18487679958343506,0.11209937930107117,-0.1477421075105667,-0.14750197529792786,0.12863853573799133,0.3745693564414978,-0.32383716106414795,-0.02529342658817768,0.13075804710388184,0.01155281625688076,0.1754799783229828,-0.36692187190055847,0.3324316143989563,0.03644058108329773,0.10066906362771988,-0.02674456126987934,-0.4676036536693573,-0.028157105669379234,0.043382469564676285,-0.10697349160909653,-0.010791157372295856,-0.1859399676322937,-0.027974944561719894,0.08596771210432053,-0.7799258828163147,0.13926595449447632,0.22754719853401184,0.09630106389522552,-0.03658817708492279,0.2743798494338989,-0.1427474319934845,-0.03919485956430435,-0.06890372186899185,-0.06090334802865982,-0.047124121338129044,-0.21688292920589447,0.14911240339279175,0.06477177143096924,0.008611124008893967,0.1678486466407776,-0.18193019926548004,0.09523069858551025,0.13079440593719482,0.17682361602783203,0.052968185395002365,-0.14776243269443512,0.16621798276901245,-0.2663654088973999,-0.018357103690505028,0.010089045390486717,0.0741320550441742,0.12079475075006485,0.25576791167259216,0.321414053440094,-0.15029779076576233,0.15024593472480774,0.05371379852294922,0.1829271912574768,-0.01225984562188387,0.08382326364517212,0.025608593598008156,-0.08333102613687515,-0.3941524624824524,-0.004080988932400942,-0.0353609174489975,0.467181921005249,-0.10104777663946152,-0.10112107545137405,0.025874294340610504,0.4219496250152588,0.19707384705543518,0.017909150570631027,0.08616643399000168,-0.2103148102760315,-0.1793970763683319,0.08114567399024963,-0.21955624222755432,-0.017842287197709084,0.24736857414245605,0.28084638714790344,0.12171303480863571,-0.12509869039058685,0.21039007604122162,0.030636584386229515,-0.27614837884902954,-0.14070264995098114,0.0482855848968029,-0.01461966522037983,-0.18671824038028717,0.008302812464535236,-0.2639574706554413,-0.17823082208633423,-0.04203196242451668,0.41093429923057556,-0.03323160856962204,-0.03795972466468811,0.149636372923851,0.14378635585308075,0.1332634836435318,0.1927754282951355,-0.1250258982181549,-0.14363420009613037,0.408080518245697,-0.21019521355628967,-0.14344576001167297,0.23028862476348877,-0.2496466040611267,-0.13504862785339355,0.29969480633735657,0.2166266292333603,0.2525084912776947,-0.20031455159187317,0.16532234847545624,-0.13334159553050995,-0.13852520287036896,-0.05554652959108353,-0.03749414533376694,0.3702686131000519,0.007586122024804354,0.10824450105428696,0.5815891027450562,-0.16664886474609375,0.06726652383804321,0.20999515056610107,-0.2003130167722702,-0.0076310946606099606,-0.08812132477760315,-0.025384705513715744,-0.022432073950767517,-0.2543727457523346,0.2380860298871994,0.16089704632759094,0.06978069990873337,-0.03532574325799942,-0.07292082160711288,-0.039915531873703,0.12231509387493134,0.013045042753219604,-0.028986463323235512,-0.17554783821105957,-0.16465207934379578,0.16851314902305603,-0.2832622528076172,-0.36444544792175293,0.7819419503211975,0.18334457278251648,0.3833352029323578,0.37244224548339844,0.005876499228179455,0.22599777579307556,0.2626657783985138,-0.12295015901327133,-0.17017120122909546,0.2677168548107147,0.024803318083286285,-0.012562737800180912,0.2791614532470703,0.11612429469823837,0.022751498967409134,0.02423720993101597,0.35004016757011414,0.2659109830856323,0.08204919099807739,0.0735626220703125,-0.01701229065656662,-0.07939467579126358,0.04994827136397362,-0.004087946377694607,-0.2970571517944336,-0.015796799212694168,-0.15261849761009216,0.16363254189491272,-0.20015649497509003,0.021566642448306084,0.030261918902397156,-0.024317393079400063,0.00031575895263813436,0.04652760177850723,0.03605325520038605,-0.1625467985868454,-0.29621556401252747,0.1150541827082634,-0.03829126060009003,-0.13858254253864288,0.01370413787662983,-0.31266504526138306,-0.39174240827560425,-0.17188167572021484,-0.046435099095106125,0.2897765636444092,-0.09538691490888596,0.11255249381065369,-0.06177857518196106,-0.04910944774746895,-0.28423815965652466,0.35623490810394287,-0.25215867161750793,-0.2444688379764557,0.43372026085853577,-0.13092249631881714,0.17290501296520233,0.1594887375831604,-0.2944418787956238,0.30081310868263245,0.020444685593247414,-0.004407715052366257,-0.29999884963035583,0.04448577016592026,0.22003541886806488,0.2508954405784607,0.3441457748413086,0.03937175124883652,0.27924996614456177,-0.1671011745929718,-0.18609517812728882,-0.04244426265358925,-0.495457261800766,0.012193464674055576,0.49507275223731995,0.38043007254600525,-0.0063359434716403484,0.2433931827545166,-0.08569493889808655,0.015113654546439648,-0.07501271367073059,0.14934247732162476,0.06919288635253906,-0.16271992027759552,0.10460256040096283,0.1876564621925354,-0.059003669768571854,0.011201921850442886,0.023926952853798866,-0.08511814475059509,0.6852960586547852,0.0440526083111763,0.19819386303424835,-0.18370284140110016,0.07691340148448944,-0.3753241300582886,0.7982875108718872,-0.003055057255551219,0.00084810791304335,0.25286149978637695,0.19201456010341644,0.4806261956691742,-0.24261002242565155,-0.1453227698802948,0.21761290729045868,0.04861515387892723,0.06076572835445404,0.23420895636081696,-0.07396149635314941,-0.10449308902025223,-0.23805083334445953,0.14024195075035095,0.005202090833336115,-0.0026632193475961685,-0.02981061488389969,-0.03561912849545479,0.03958641737699509,0.048705440014600754,-0.048197466880083084,-0.07041047513484955,-0.22720760107040405,0.18138641119003296,0.10927150398492813,-0.10201649367809296,0.011073976755142212,-0.15135914087295532,0.08196722716093063,-0.20008161664009094,-0.012383808381855488,-0.16339868307113647,0.016934005543589592,0.038995999842882156,0.028866447508335114,0.0870133712887764,-0.008948146365582943,-0.13979004323482513,0.27363380789756775,0.1326969712972641,-0.12523595988750458,-0.12798403203487396,-0.23167391121387482,0.01621726155281067,-0.01737716607749462,0.03478137403726578,-0.1513916552066803,0.1795251965522766,0.20561909675598145,-0.17227233946323395,0.08422266691923141,-0.039056163281202316,-0.07557495683431625,0.05442795902490616,-0.18199747800827026,0.06519375741481781,-0.32428961992263794,-0.15759402513504028,0.1893244832754135,0.10815182328224182,0.17318134009838104,-0.0763586163520813,0.0685473158955574,0.01720227487385273,0.0686846524477005,-0.08988858759403229,0.004699040204286575,0.20084477961063385,0.14055873453617096,0.04939832538366318,-0.49347466230392456,-0.10132081061601639,-0.2598012089729309,0.016578298062086105,-0.1471746861934662,-0.1578194499015808,0.16941729187965393,0.1116379052400589,0.24362735450267792,-0.1968858391046524,0.13821761310100555,0.2008909285068512,-0.05166177451610565,0.07891573011875153,0.07725099474191666,-0.03028198704123497,-0.11512809991836548,0.019487254321575165,0.04408207908272743,-0.170922189950943,-0.1856970340013504,0.2873712182044983,-0.10780797898769379,-0.027897916734218597,0.01935037598013878,0.08799491077661514,0.2170468121767044,-0.25423574447631836,-0.004742354620248079,-0.14601759612560272,0.08704622089862823,-0.16516979038715363,-0.020336849614977837,0.28126949071884155,-0.11792197823524475,-0.05179145187139511,0.23305195569992065,-0.018258826807141304,0.034202154725790024,-0.01856931671500206,0.26268041133880615,0.05330369994044304,-0.010122046805918217,0.09934526681900024,0.0011171891819685698,0.0899999812245369,-0.18425114452838898,-0.15711180865764618,0.23743921518325806,-0.026031259447336197,0.015516098588705063,0.36146193742752075,0.15613402426242828,0.08338364213705063,-0.31956231594085693,-0.09344476461410522,-0.1487887054681778,0.08354619890451431,-0.14624208211898804,-0.12006436288356781,0.024785371497273445,-0.08272166550159454,0.05457334220409393,-0.07340946793556213,0.20074447989463806,-0.05792858079075813,0.1252022087574005,0.02036135271191597,0.02416147105395794,-0.006126374006271362,0.03366999700665474,0.07654248923063278,-0.058180071413517,-0.09184451401233673,-0.06769133359193802,0.16661465167999268,0.012279079295694828,-0.0590604692697525,0.3164454400539398,0.10227679461240768,-0.016130533069372177,-0.13754871487617493,-0.05104854330420494,-0.057469822466373444,-0.30382609367370605,-0.09685196727514267,-0.1829931139945984,-0.001666377647779882,0.07899113744497299,0.10774575173854828,0.09201572835445404,0.08895666897296906,0.1118772104382515,-0.5149291753768921,0.137325257062912,-0.12844149768352509,-1.237430214881897,-0.01789059117436409,-0.0573393814265728,-0.13346794247627258,0.020603056997060776,0.13169972598552704,-0.18480530381202698,0.034305088222026825,-0.21875226497650146,0.32959747314453125,-0.06351494789123535,-0.191198468208313,0.3928114175796509,-0.08307124674320221,-0.22363920509815216,-0.15380984544754028,0.02712623029947281,-0.3036295771598816,0.6395649909973145,0.2048092633485794,0.20856134593486786,-0.21051323413848877,-0.05156344547867775,-0.37985292077064514,-0.014996691606938839,0.04959861934185028,0.7362176179885864,-0.01285243034362793,-0.026851659640669823,0.35427677631378174,-0.6911413669586182,0.14518532156944275,0.1694970577955246,-0.15232664346694946,0.02935417927801609,0.22197219729423523,-0.0744902715086937,-0.10151512920856476,-0.06956441700458527,-0.002207603771239519,-0.017124105244874954,0.15992705523967743,0.007365610916167498,0.06618282943964005,0.06915364414453506,-0.01948358304798603,0.21468813717365265,0.008282157592475414,-0.11810910701751709,0.03223566338419914,-0.21318581700325012,0.05477825552225113,0.006568802986294031,-0.029143914580345154,-0.21726593375205994,-0.01143884751945734,0.007092757616192102,-0.2006748616695404,-0.184702068567276,-0.27828893065452576,0.20634004473686218,0.24929927289485931,0.2994979918003082,0.138837069272995,-0.1573464274406433,-0.38311126828193665,0.3758501410484314,0.0669865757226944,0.13119307160377502,-0.05956641957163811,-0.3145899474620819,-0.18742501735687256,0.5501427054405212,-0.06369598954916,0.006902165710926056,-0.1416235864162445,-0.02206539921462536,0.0009626928367651999,-0.0958610400557518,0.03231188282370567,0.4235929250717163,-0.16164015233516693,0.15665081143379211,0.2614336311817169,-0.21768654882907867,-0.1553919017314911,-0.3418738543987274,0.007934130728244781,-0.35898518562316895,-0.4821411967277527,0.18168304860591888,-0.22767774760723114,-0.02710331790149212,0.0804605484008789,0.278144896030426,0.3497098386287689,0.6938916444778442,0.0566323921084404,0.06246853992342949,-0.04122922942042351,-0.26200684905052185,-0.1990831345319748,-0.010480745695531368,0.02298714779317379,0.14228054881095886,0.0012461040169000626,0.12762153148651123,0.16386456787586212,-0.3832707107067108,0.17533715069293976,-0.0053269825875759125,-0.05382378399372101,-0.04858284071087837,-0.16446925699710846,-0.46947744488716125,-0.04765980318188667,-0.10175961256027222,0.22058434784412384,0.17609494924545288,-0.12406826764345169,-0.12393064796924591,-0.14367355406284332,0.11088041216135025,-0.005187790375202894,0.10636840760707855,0.18083029985427856,-0.1119437962770462,-0.19942516088485718,0.1051749661564827,0.24536164104938507,-0.2906855642795563,-0.1591958999633789,0.22612614929676056,0.16544897854328156,0.14521153271198273,-0.2984147369861603,0.2054390162229538,-0.04909687489271164,-0.17851972579956055,-0.009333163499832153,-0.03370475023984909,-0.07588762044906616,0.1347145289182663,-0.01806062087416649,0.3821417987346649,0.0038535906933248043,-0.155037522315979,0.18938587605953217,0.028524644672870636,0.05209324508905411,-0.12010841816663742,-0.048195965588092804,0.11806155741214752,0.04429541155695915,-0.06523863971233368,-0.28538626432418823,0.26294004917144775,0.03426811471581459,0.2244960367679596,0.1999192237854004,-0.11156259477138519,-0.33154135942459106,0.1415271759033203,0.029605098068714142,-0.005063500255346298,-0.07606790959835052,-0.07571835815906525,-0.18985776603221893,