{"version":"0.5.4","metadata":{"date":{"year":2025,"month":5,"day":18,"hour":7,"minute":8,"second":32},"loudness":-14.194190979003906,"gain":0.7388325200436232,"name":"APP-6505Plus-Scooped-Gain-10","modeled_by":"ampspedalspickups","gear_type":"amp","gear_make":"tz-make","gear_model":"tz-model","tone_type":"overdrive","input_level_dbu":13,"output_level_dbu":null,"training":{"settings":{"ignore_checks":false},"data":{"latency":{"manual":null,"calibration":{"algorithm_version":1,"delays":[-1],"safety_factor":1,"recommended":-2,"warnings":{"matches_lookahead":false,"disagreement_too_high":false}}},"checks":{"version":3,"passed":true}},"validation_esr":0.022217934963195064}},"architecture":"WaveNet","config":{"layers":[{"input_size":1,"condition_size":1,"head_size":8,"channels":16,"kernel_size":3,"dilations":[1,2,4,8,16,32,64,128,256,512],"activation":"Tanh","gated":false,"head_bias":false},{"input_size":16,"condition_size":1,"head_size":1,"channels":8,"kernel_size":3,"dilations":[1,2,4,8,16,32,64,128,256,512],"activation":"Tanh","gated":false,"head_bias":true}],"head":null,"head_scale":0.02},"weights":[-0.3266957998275757,0.7218350172042847,-0.7402052283287048,-0.8504533767700195,-0.36855700612068176,0.18335744738578796,-0.07558218389749527,0.927760124206543,-0.10830037295818329,0.15190568566322327,-0.3383757472038269,-0.20416034758090973,-0.9820353984832764,-0.6103585362434387,-0.6792559027671814,0.0045397402718663216,0.3028658926486969,0.12380949407815933,-0.07432784140110016,-0.1588422805070877,0.2389649748802185,0.09035706520080566,0.058118246495723724,-0.08068400621414185,0.0012907213531434536,0.10675183683633804,-0.06116747111082077,-0.10808005183935165,0.007254230324178934,-0.21476803719997406,-0.018505532294511795,0.02455185167491436,0.0795365497469902,-0.10922161489725113,0.037940531969070435,-0.2537623643875122,-0.04854380711913109,0.032652273774147034,0.2546791136264801,0.04438155144453049,0.13032637536525726,-0.21511122584342957,0.11134149879217148,-0.22842156887054443,0.060339123010635376,-0.133845254778862,0.18972229957580566,-0.0928112342953682,-0.021463628858327866,0.11235129833221436,-0.07467306405305862,0.1887897551059723,0.14694437384605408,-0.17081373929977417,0.12096342444419861,0.0056565734557807446,-0.15925517678260803,-0.0805089995265007,-0.0023158499971032143,-0.26197871565818787,0.10035116225481033,-0.04844493791460991,-0.19588619470596313,-0.133750319480896,-0.05674201622605324,-0.19244195520877838,-0.007458403240889311,0.006514541804790497,0.0415160171687603,0.10724826157093048,-0.0797945111989975,0.000871288706548512,0.09110430628061295,0.14964504539966583,0.18045230209827423,0.163394957780838,0.05427113547921181,-0.07749686390161514,0.0410916768014431,-0.10630802065134048,-0.1732308268547058,0.10409755259752274,0.06546320766210556,-0.19117115437984467,0.03266526386141777,-0.05592890456318855,-0.07859533280134201,-0.10083349794149399,0.05853045731782913,-0.06832953542470932,0.047659724950790405,0.046655792742967606,0.06182054057717323,0.03954242169857025,-0.1177104189991951,-0.05110561102628708,0.09380660206079483,0.03618677332997322,-0.08159922808408737,-0.061389122158288956,0.16750270128250122,0.15217368304729462,-0.027210811153054237,-0.006082827225327492,-0.08531443029642105,0.029640546068549156,-0.08089691400527954,-0.0588797926902771,0.021415861323475838,0.1884804219007492,0.04513441026210785,0.13947968184947968,0.05605947598814964,0.11136580258607864,0.07054893672466278,-0.2263173758983612,0.15490981936454773,-0.03517627343535423,0.11499050259590149,-0.15890741348266602,0.09311209619045258,0.10836287587881088,-0.2668711841106415,0.10776402801275253,-0.03254197910428047,-0.2688794732093811,0.013487810268998146,-0.1798063963651657,0.12592342495918274,-0.17308716475963593,0.10432659089565277,-0.10116083174943924,-0.0757610946893692,-0.10598718374967575,0.2989608645439148,-0.05360424518585205,0.13898010551929474,-0.15832388401031494,0.12770964205265045,-0.014853284694254398,0.2980740964412689,0.01651812717318535,0.24511770904064178,-0.19123110175132751,-0.0725809708237648,0.06169256567955017,-0.07168557494878769,0.05237089470028877,0.024595608934760094,-0.3060537278652191,-0.0984167829155922,-0.022573458030819893,-0.21863390505313873,0.12362171709537506,0.18449799716472626,-0.3321676254272461,0.13940894603729248,-0.10532896965742111,-0.01722392626106739,-0.11887641996145248,0.0041366443037986755,-0.01819518767297268,-0.12134873121976852,-0.20684897899627686,-0.07002156972885132,0.06607013195753098,0.022992385551333427,0.104917012155056,-0.19189856946468353,0.07783526927232742,0.17972134053707123,-0.12083615362644196,0.2098255455493927,0.09699410200119019,-0.20099522173404694,0.015513704158365726,-0.06561208516359329,0.007583065424114466,0.1265525072813034,-0.12795385718345642,-0.06507952511310577,-0.11789033561944962,0.05280812829732895,0.10223815590143204,0.12751299142837524,0.07378579676151276,-0.14377690851688385,-0.10671351850032806,-0.15340182185173035,0.17224951088428497,0.1937248706817627,0.13729652762413025,-0.1803167462348938,0.0632890835404396,-0.07064644247293472,-0.15313883125782013,0.003984871786087751,0.10140576958656311,-0.14653165638446808,0.08202984929084778,0.0551602877676487,0.025713549926877022,-0.024789879098534584,-0.053374383598566055,-0.1549006700515747,-0.007457914296537638,-0.12057606875896454,0.09770944714546204,-0.14549578726291656,-0.054022304713726044,-0.11601460725069046,0.015020310878753662,-0.19503526389598846,-0.012963054701685905,-0.035235654562711716,0.23481939733028412,-0.1269928216934204,-0.11505606025457382,0.3343639671802521,-0.13314515352249146,-0.055893901735544205,0.34816914796829224,0.024466004222631454,0.05299153923988342,-0.32292234897613525,0.10357116907835007,-0.1664699912071228,0.12611563503742218,-0.046994730830192566,0.017357420176267624,-0.2157241702079773,0.13542936742305756,-0.053817544132471085,0.2970995604991913,0.0176815427839756,-0.044842902570962906,-0.1222204640507698,-0.0519842766225338,-0.10793624073266983,0.2464091032743454,0.01500424649566412,0.04045480489730835,0.14363008737564087,-0.03667016327381134,0.03778029978275299,0.07812816649675369,0.08987342566251755,-0.15788626670837402,0.21467110514640808,-0.0455922968685627,-0.12080022692680359,0.233393594622612,0.09546524286270142,0.015225118026137352,-0.031779296696186066,0.05430156737565994,-0.12934832274913788,0.10722630470991135,-0.01497720554471016,-0.02877074107527733,-0.0011595638934522867,-0.05219386890530586,0.003646352095529437,0.024806657806038857,0.18385642766952515,-0.11984073370695114,-0.1283603012561798,0.17493996024131775,0.052921585738658905,-0.04126778244972229,0.07162563502788544,-0.009614115580916405,-0.06094317138195038,-0.1103561669588089,-0.07880882918834686,-0.12825536727905273,0.2727813124656677,-0.02089516818523407,0.0708223283290863,-0.09127281606197357,-0.03667877987027168,-0.14726035296916962,0.06394821405410767,0.17894749343395233,0.09416322410106659,-0.036848582327365875,-0.11330044269561768,-0.031733155250549316,0.11541645973920822,-0.04840411990880966,-0.1498214155435562,0.19649742543697357,-0.02732069045305252,-0.09083352982997894,0.09812767058610916,-0.1596868336200714,0.015114939771592617,0.027851000428199768,-0.010157952085137367,-0.13241149485111237,0.07269639521837234,-0.007090413011610508,-0.12127374112606049,-0.026341013610363007,0.13270147144794464,-0.13568753004074097,0.1046324074268341,-0.018983585759997368,0.19950257241725922,-0.2389298379421234,-0.04746810346841812,-0.16586647927761078,0.2642446458339691,0.02252531424164772,-0.09162986278533936,0.31465989351272583,0.006082254461944103,-0.1334550827741623,0.28372836112976074,-0.07476978003978729,0.14057904481887817,-0.20715223252773285,-0.006722251884639263,-0.095159612596035,0.2566193640232086,0.05570462718605995,0.2298920601606369,-0.19901752471923828,0.17581193149089813,-0.17057344317436218,0.1368979811668396,-0.2101825326681137,0.25845426321029663,-0.1490444540977478,-0.01578553393483162,-0.0749887153506279,0.3401603698730469,0.24963998794555664,0.0013995551271364093,0.34511613845825195,0.03971179202198982,-0.19610367715358734,0.33406955003738403,0.15625064074993134,-0.2278561145067215,0.34988266229629517,0.1492823213338852,-0.06411994993686676,0.13689438998699188,0.11587875336408615,-0.05711493268609047,-0.004878798499703407,-0.06614916026592255,0.1972832828760147,0.44200628995895386,0.3045490086078644,-0.17499428987503052,-0.1744651049375534,-0.3362707793712616,0.1597159206867218,0.1446993499994278,-0.38333308696746826,0.013779067434370518,0.3604022264480591,-0.16288456320762634,0.2566554844379425,0.35299447178840637,0.1048760935664177,-0.2131282091140747,-0.2602756917476654,-0.30025890469551086,0.19333015382289886,0.19547642767429352,0.17175431549549103,-0.26847633719444275,-0.32595762610435486,-0.12411153316497803,0.21840879321098328,0.32534176111221313,0.3393891751766205,0.021049795672297478,-0.253024697303772,-0.17529770731925964,0.2518320083618164,0.286653995513916,-0.11196655035018921,0.18674546480178833,0.3318275213241577,-0.29032862186431885,0.19675683975219727,0.25957170128822327,-0.272079199552536,0.04199589416384697,0.15732763707637787,-0.3590927720069885,0.22597749531269073,0.3470735251903534,-0.10955692082643509,-0.03369513154029846,0.00946217030286789,0.13494892418384552,0.026699941605329514,-0.11718442291021347,0.1988678127527237,0.1856967657804489,-0.09532315284013748,0.06583651155233383,-0.020484285429120064,-0.0701141357421875,0.011478220112621784,-0.2127598375082016,-0.0395011343061924,0.059622056782245636,-0.11656108498573303,-0.10890894383192062,0.01034606248140335,0.08167127519845963,-0.02252730168402195,-0.023733077570796013,0.03189180791378021,-0.03751382976770401,-0.0190734826028347,0.13657163083553314,0.08438549935817719,0.03038875386118889,-0.2308465540409088,0.0020287944935262203,-0.045257266610860825,0.05232935771346092,0.040999289602041245,-0.1668172925710678,-0.06749477237462997,0.11994465440511703,-0.0318472795188427,-0.20182834565639496,-0.053032081574201584,-0.039614371955394745,-0.24073563516139984,0.05418088659644127,-0.20029056072235107,-0.266868531703949,-0.15272201597690582,-0.09545060992240906,-0.02859637141227722,-0.1441688984632492,0.1255367547273636,-0.04683505743741989,0.08531259745359421,-0.08710062503814697,-0.04143908992409706,0.11913494020700455,0.39779338240623474,-0.06520488113164902,-0.004556245170533657,-0.4113231301307678,0.3248633146286011,0.08517882972955704,-0.2590426802635193,0.08954459428787231,0.03426259383559227,-0.4611967206001282,0.14429420232772827,0.10605958849191666,0.18895111978054047,-0.14018628001213074,0.0037085209041833878,-0.07042942941188812,0.17982199788093567,0.03133177384734154,0.28400278091430664,-0.1443924456834793,0.06715041399002075,-0.21501518785953522,0.1884150207042694,0.1413653939962387,0.16135957837104797,-0.31313103437423706,-0.01554911583662033,-0.39547091722488403,0.28299492597579956,-0.017609398812055588,-0.3765133023262024,0.08969767391681671,0.15577833354473114,-0.33794966340065,0.3152165412902832,0.1638132482767105,-0.23648487031459808,0.20712292194366455,0.03307754546403885,-0.3665218651294708,0.2327733188867569,0.15195192396640778,-0.09471649676561356,0.17129872739315033,-0.017217585816979408,-0.20944605767726898,0.021322116255760193,0.1893366575241089,0.403194785118103,-0.0554196797311306,-0.01831759139895439,-0.20163333415985107,0.0034383346792310476,0.23738788068294525,-0.3528023660182953,-0.03876635804772377,0.17481866478919983,-0.3075598478317261,-0.025356004014611244,0.0839635580778122,0.3430054783821106,0.030953209847211838,-0.1798926293849945,-0.14014966785907745,0.07520093023777008,0.07274384796619415,0.28885796666145325,0.16639168560504913,-0.13111664354801178,-0.19159749150276184,-0.07295656204223633,0.2172354906797409,0.15073414146900177,-0.02505512535572052,-0.2186940461397171,-0.132828027009964,-0.1062525287270546,0.1350305825471878,-0.3146897554397583,0.08500903099775314,0.27149054408073425,-0.38403117656707764,-0.20066310465335846,0.005381161347031593,-0.2715708315372467,-0.11663138121366501,0.026186050847172737,-0.32603007555007935,-0.05189235508441925,0.04991529881954193,0.033725347369909286,0.02893153391778469,0.0199587382376194,0.05348653346300125,0.2537456154823303,-0.08167283982038498,-0.03181353211402893,-0.3222142457962036,0.20142106711864471,-0.09053175896406174,0.13054394721984863,0.08681879192590714,-0.04815742373466492,0.30102989077568054,-0.07007357478141785,0.004845699295401573,0.22752369940280914,0.024396900087594986,-0.028764039278030396,-0.3948374092578888,-0.01599113643169403,-0.0351281501352787,0.28578436374664307,-0.12674574553966522,0.09387429058551788,-0.30357393622398376,0.03246492147445679,0.127589613199234,0.3008749186992645,0.016048835590481758,0.049077294766902924,-0.2845074534416199,-0.009781388565897942,0.024804024025797844,0.37842094898223877,-0.12172380834817886,-0.11369381844997406,0.31264790892601013,0.07226809114217758,0.002866217168048024,0.15164020657539368,-0.18692679703235626,0.0786362886428833,0.2554723918437958,-0.13438691198825836,0.06750880181789398,0.3249146342277527,0.047233130782842636,0.06996176391839981,0.020075766369700432,0.001074546598829329,-0.25367918610572815,0.15813572704792023,0.05693413317203522,0.15379945933818817,-0.10294023156166077,0.12374667823314667,0.03770502284169197,0.10371854901313782,-0.1140415370464325,-0.1490212231874466,-0.12501181662082672,0.1448439359664917,-0.15433146059513092,-0.0872020274400711,0.08808909356594086,0.03412727266550064,-0.04406461864709854,-0.019546523690223694,-0.1430503875017166,-0.15901035070419312,0.08153682947158813,0.029099659994244576,0.07499377429485321,0.11550251394510269,-0.02245052345097065,0.0037400806322693825,0.14213162660598755,0.11148478835821152,-0.05499793216586113,0.11075194925069809,-0.05624140053987503,-0.15794846415519714,-0.02419419214129448,-0.178422212600708,0.10972113162279129,-0.013501261360943317,-0.2266303449869156,-0.0342734195291996,0.0993667021393776,-0.05653327703475952,0.023148423060774803,0.025622570887207985,-0.03797885775566101,-0.05834738165140152,-0.04594779759645462,0.05988011136651039,-0.005301842465996742,0.11264094710350037,-0.19791460037231445,-0.0814749076962471,0.07602659612894058,-0.013682057149708271,-0.1612727791070938,0.11201303452253342,-0.05404672026634216,0.19069956243038177,-0.08627812564373016,-0.007248798385262489,0.1506091207265854,-0.029786022379994392,0.14274413883686066,-0.03511575236916542,-0.10290412604808807,-0.07925432175397873,-0.03753909841179848,0.116697758436203,-0.08738455176353455,0.07530121505260468,0.0013611555332317948,-0.059818219393491745,0.03510983660817146,-0.13939890265464783,0.015403477475047112,0.17449307441711426,-0.0353291779756546,0.0906774178147316,-0.10203389823436737,0.11574659496545792,-0.11813005059957504,0.04058576747775078,-0.011090600863099098,0.045934487134218216,0.10319066047668457,0.12166193872690201,0.0076911007054150105,0.06674664467573166,0.1280115693807602,-0.011880647391080856,0.1965942531824112,-0.07178792357444763,0.009128428064286709,0.05931738391518593,0.0856681615114212,0.09701245278120041,-0.07435914129018784,-0.2521490454673767,0.11849415302276611,0.059800442308187485,-0.1251378357410431,-0.05863362178206444,0.12041660398244858,0.12931500375270844,-0.025252487510442734,-0.16692160069942474,0.10714435577392578,-0.14234592020511627,-0.000771662627812475,0.024828923866152763,-0.0957048237323761,0.025891777127981186,-0.11536963284015656,0.052839092910289764,-0.06791310757398605,-0.029674967750906944,0.058573346585035324,0.16286498308181763,-0.07437032461166382,0.12914076447486877,0.013393707573413849,-0.0742759257555008,-0.12966807186603546,-0.1279602199792862,0.18481969833374023,-0.007350134197622538,0.02287183329463005,0.0064933630637824535,0.06901724636554718,0.10338536649942398,0.13568782806396484,-0.10941852629184723,-0.031800393015146255,-0.06996859610080719,-0.11942034214735031,0.001233883434906602,0.1403050273656845,-0.1491914838552475,0.058296747505664825,-0.0641753152012825,-0.05892667919397354,0.08841505646705627,-0.020322632044553757,-0.04620664194226265,-0.10118457674980164,0.2407771497964859,0.2708124816417694,0.1202322393655777,0.1865176260471344,-0.3922143578529358,-0.2947549819946289,0.09753447026014328,0.4057362973690033,0.138276606798172,-0.01776241324841976,0.41840243339538574,0.27985066175460815,-0.1616085022687912,0.2653222382068634,0.12797696888446808,-0.20811408758163452,-0.2709966003894806,-0.06650496274232864,0.20754392445087433,0.20783840119838715,0.1605963110923767,-0.10659953951835632,-0.18571588397026062,-0.24143725633621216,-0.012078589759767056,0.269195556640625,0.23072654008865356,-0.24733032286167145,-0.13700269162654877,-0.10370603203773499,0.0057035633362829685,0.250368595123291,0.2942466139793396,-0.21153241395950317,0.22253070771694183,0.21764560043811798,-0.21454837918281555,0.3723244071006775,0.2569119930267334,0.003574287984520197,0.19488714635372162,0.32130128145217896,-0.17536033689975739,0.43567365407943726,0.03960129991173744,-0.22385652363300323,0.019304532557725906,-0.11925970762968063,-0.12816913425922394,-0.017720533534884453,-0.11888425797224045,-0.055966779589653015,-0.21373750269412994,-0.054612770676612854,0.13177773356437683,0.005334928631782532,0.32993653416633606,0.2632615864276886,0.0030157342553138733,-0.26754677295684814,-0.0863528773188591,-0.03136935830116272,-0.07745462656021118,0.07571278512477875,0.2049292027950287,0.4329736530780792,-0.47132205963134766,0.7729379534721375,-0.6516398787498474,0.006339391227811575,0.7785820364952087,0.7874823808670044,-0.8260981440544128,0.20414984226226807,0.04818565770983696,-0.5722615122795105,-0.2991976737976074,0.2645665407180786,-0.7331873178482056,0.16880561411380768,0.5114394426345825,-0.09457499533891678,0.24615027010440826,-0.028365537524223328,0.1350976675748825,0.2713289260864258,-0.08012787252664566,0.11415699124336243,-0.23171751201152802,-0.0616728775203228,0.05668004974722862,0.14699654281139374,-0.03089095838367939,0.045559607446193695,0.019473422318696976,0.16333100199699402,-0.16848069429397583,0.05386628210544586,-0.3246868848800659,-0.27227792143821716,-0.0300204586237669,0.12546251714229584,0.10498397797346115,-0.15548039972782135,0.10375362634658813,0.056186117231845856,0.4150335490703583,-0.06679606437683105,0.10312589257955551,0.3675713539123535,-0.19017837941646576,0.2816358804702759,0.35567763447761536,0.22846773266792297,0.015111508779227734,0.2367308884859085,0.22598141431808472,-0.28107839822769165,-0.10972464084625244,0.1412242352962494,-0.29443466663360596,0.04407365992665291,-0.5503031015396118,-0.016356807202100754,-0.3874182403087616,0.13503557443618774,0.1389899104833603,0.01875356025993824,0.1291714310646057,0.08546438813209534,-0.08964638411998749,-0.1107846051454544,-0.11310300976037979,0.09531479328870773,0.00027024265727959573,-0.08016962558031082,0.18769951164722443,-0.23980258405208588,-0.15722674131393433,-0.2198527753353119,0.08203814923763275,0.08346056938171387,0.2228831797838211,-0.2294982671737671,0.08293875306844711,-0.11485534906387329,-0.2465466856956482,-0.22282476723194122,0.20065653324127197,0.16049836575984955,0.16665300726890564,0.028897209092974663,-0.005930472631007433,0.0458860844373703,0.22557078301906586,-0.18446242809295654,0.15040799975395203,0.13212455809116364,0.14361248910427094,-0.07166734337806702,0.17811834812164307,-0.2703857719898224,0.0018183705396950245,0.02653331309556961,0.04712013900279999,0.20313696563243866,0.21744173765182495,0.3846697509288788,0.2613827884197235,0.14472563564777374,0.28237053751945496,-0.03383222222328186,-0.06317277252674103,-0.08834977447986603,-0.07358884811401367,0.07522337883710861,-0.11523746699094772,0.20515874028205872,0.15313057601451874,0.43954598903656006,0.2326192408800125,-0.44556915760040283,-0.24088674783706665,0.17094211280345917,-0.2687768340110779,0.07059410959482193,-0.5667839646339417,-0.23599141836166382,-0.010353492572903633,0.10662233084440231,-0.18340608477592468,-0.012962035834789276,-0.11010779440402985,0.29431504011154175,-0.09590166807174683,0.39324912428855896,-0.36697304248809814,-0.3426758646965027,0.3399865925312042,0.3282669484615326,-0.23719309270381927,0.3168117105960846,-0.023791208863258362,0.3038560748100281,-0.33799615502357483,0.16535958647727966,-0.2887645363807678,0.038804791867733,-0.09121036529541016,-0.14491869509220123,-0.0026832164730876684,-0.312686562538147,-0.14802047610282898,0.26785239577293396,-0.11359114944934845,-0.43622228503227234,-0.10732005536556244,-0.2770313024520874,-0.21993789076805115,0.011009088717401028,0.28364965319633484,-0.021847132593393326,-0.09435047209262848,0.0746711790561676,0.19542226195335388,-0.1652122288942337,-0.03947438672184944,0.27443379163742065,-0.3068893849849701,-0.3108254075050354,0.11326637119054794,0.20624040067195892,-0.21419833600521088,0.1223529726266861,0.21499523520469666,0.07314564287662506,0.027000950649380684,0.0010850966209545732,0.15798012912273407,-0.1527688205242157,-0.022573893889784813,0.030191080644726753,0.24833881855010986,-0.35938236117362976,0.20935645699501038,0.07852375507354736,-0.3052997887134552,-0.19830654561519623,0.05510762706398964,-0.024496033787727356,-0.33210864663124084,-0.39454683661460876,0.08214647322893143,-0.11974088102579117,0.17667128145694733,-0.08215384930372238,0.42850932478904724,0.09930860251188278,-0.07104572653770447,0.2678973376750946,-0.02174631506204605,-0.11967210471630096,-0.07552474737167358,0.06843209266662598,-0.0017655277624726295,0.09154189378023148,-0.2436978816986084,-0.06470280885696411,-0.33380821347236633,-0.13290877640247345,0.1053103432059288,-0.23062939941883087,-0.19417883455753326,0.1314602792263031,-0.15459246933460236,0.20955024659633636,0.005640924908220768,-0.07727014273405075,-0.05482122302055359,0.0010086657712236047,0.12407530844211578,0.3186279833316803,-0.07253636419773102,-0.18381018936634064,-0.11075074970722198,0.18654190003871918,-0.3407013416290283,-0.0019975584000349045,0.12050075829029083,0.019676554948091507,-0.19328869879245758,-0.14303667843341827,0.09917066991329193,-0.1273067444562912,0.13704612851142883,0.19485920667648315,0.16550226509571075,-0.03101041167974472,-0.09340829402208328,0.00987640768289566,-0.009238333441317081,-0.004031967371702194,-0.08680739998817444,-0.1430916041135788,0.15963341295719147,-0.27158355712890625,0.39516353607177734,-0.30735501646995544,-0.033524975180625916,0.250000536441803,-0.19830314815044403,0.055421192198991776,0.715477466583252,-0.3859601318836212,0.10340709984302521,-0.07335053384304047,0.028491593897342682,0.07749320566654205,0.3545030951499939,-0.3280413746833801,0.07405313104391098,0.19584998488426208,0.1862582117319107,0.32174572348594666,-0.05783393979072571,-0.3694089651107788,0.09822478890419006,0.35320135951042175,0.2939329445362091,-0.09583714604377747,-0.4726102948188782,-0.05431044474244118,-0.4178174138069153,-0.15804600715637207,0.29591822624206543,-0.19883576035499573,-0.11260286718606949,0.23189708590507507,-0.3202325999736786,0.052511587738990784,-0.12421116232872009,-0.2508768141269684,0.029000435024499893,-0.01616874895989895,0.04096798971295357,0.05718845874071121,0.012913955375552177,0.06287949532270432,0.05369552969932556,0.06687828153371811,-0.07354222983121872,-0.02773161605000496,-0.03891531750559807,-0.4196617901325226,-0.28788769245147705,0.1341364085674286,0.3674294352531433,0.20800061523914337,-0.019371390342712402,-0.14023444056510925,-0.19191326200962067,0.020973647013306618,-0.05786651745438576,-0.08018044382333755,0.03583792969584465,0.1235097274184227,-0.056785665452480316,0.061165932565927505,0.29758989810943604,0.22792468965053558,0.1915607899427414,-0.38546574115753174,-0.05940088629722595,-0.052227362990379333,-0.2050904631614685,0.03744449093937874,-0.05401632562279701,0.00615253672003746,-0.05491748824715614,-0.3341253697872162,-0.19963820278644562,0.12094886600971222,0.03198800981044769,0.04352572560310364,-0.11232022941112518,-0.17214623093605042,-0.40924370288848877,-0.10690165311098099,0.2077515423297882,-0.00918884202837944,-0.15666858851909637,-0.18343240022659302,-0.10652831941843033,-0.06600301712751389,-0.17777827382087708,0.10127459466457367,-0.08382043242454529,-0.0016442937776446342,0.18605941534042358,-0.2851209342479706,0.19794555008411407,-0.18924765288829803,-0.33790042996406555,-0.08368901908397675,0.08069450408220291,0.16930891573429108,0.2618945837020874,-0.14398294687271118,-0.09938332438468933,0.12509170174598694,-0.16986852884292603,-0.004109379835426807,-0.0628371611237526,0.12020327150821686,-0.15928488969802856,0.1880248636007309,-0.014010665938258171,0.03640696033835411,-0.01481570117175579,-0.21492663025856018,-0.010672520846128464,-0.20814619958400726,0.22837179899215698,0.059622250497341156,-0.1158912256360054,-0.1796460747718811,-0.08056420087814331,0.06663337349891663,0.18706029653549194,0.10585679858922958,-0.21500897407531738,-0.12462953478097916,-0.06498847901821136,0.11013714224100113,-0.18414320051670074,-0.07021920382976532,-0.1299482136964798,-0.16284970939159393,-0.10703021287918091,0.11791212856769562,-0.07203731685876846,-0.005353957414627075,0.10034285485744476,-0.13145045936107635,-0.2017454355955124,0.11528830975294113,-0.03211584687232971,0.23437203466892242,-0.084194116294384,-0.049532923847436905,0.10990481078624725,0.023226944729685783,0.33553701639175415,-0.035363756120204926,-0.18915389478206635,-0.3320072889328003,0.05778762325644493,0.26212409138679504,0.137503981590271,-0.005134715232998133,-0.0011401799274608493,0.20645615458488464,-0.12137778103351593,0.10627072304487228,0.0277139600366354,0.10943803191184998,0.02432035654783249,-0.16814866662025452,-0.06789696216583252,-0.02584945783019066,-0.0550743043422699,0.0019288311013951898,0.030584776774048805,0.022860562428832054,-0.21059957146644592,0.070041224360466,-0.08371749520301819,0.15004155039787292,-0.23393818736076355,-0.19311349093914032,-0.2553102970123291,0.17302188277244568,-0.012397181242704391,0.2820534408092499,0.14131762087345123,-0.017772501334547997,-0.03143743425607681,0.034253861755132675,-0.02666991576552391,-0.02839270979166031,0.19612133502960205,-0.1382022351026535,-0.01967865414917469,0.17649394273757935,-0.522381603717804,0.5011064410209656,0.20459747314453125,0.002998508047312498,0.08898107707500458,0.10031793266534805,-0.116588294506073,-0.11838875710964203,-0.0715329647064209,-0.3161063492298126,-0.16735193133354187,-0.27765026688575745,0.13110703229904175,0.07040050625801086,-0.10891502350568771,-0.003928268328309059,-0.1460600048303604,-0.14265285432338715,0.2264329046010971,0.11862622201442719,0.1387847363948822,-0.3349769413471222,0.12810169160366058,-0.05555150285363197,-0.29826819896698,-0.020493103191256523,0.09038916975259781,0.07049622386693954,-0.1510196179151535,-0.018245749175548553,0.09432712942361832,-0.1339081972837448,0.07295385748147964,0.17898313701152802,-0.028067288920283318,-0.007247572764754295,-0.053496479988098145,0.09746744483709335,0.25587624311447144,0.2624655067920685,0.258083701133728,0.008087380789220333,0.15381743013858795,-0.13920673727989197,-0.1415652334690094,0.1486578732728958,0.023925242945551872,0.09040513634681702,-0.07276660948991776,-0.023386098444461823,0.04389379546046257,-0.16728508472442627,0.2191525548696518,-0.08421477675437927,0.1354920119047165,0.15719030797481537,-0.05846206843852997,-0.07819975912570953,-0.04657547548413277,-0.05089232698082924,0.01709729991853237,0.10936404764652252,0.09246080368757248,0.07349269092082977,0.044743988662958145,-0.06940432637929916,-0.10627447813749313,0.13889682292938232,-0.20986248552799225,0.002480218419805169,-0.10684419423341751,-0.1008368656039238,-0.14267820119857788,0.08508175611495972,0.189638152718544,0.1870582401752472,0.056533634662628174,-0.08938935399055481,-0.18812713027000427,-0.06390698999166489,0.1507098376750946,0.2586740553379059,-0.06359386444091797,-0.14435265958309174,-0.24688035249710083,-0.006566826719790697,0.2788563072681427,-0.09784892201423645,-0.28349193930625916,-0.02772495336830616,0.1063447892665863,-0.08623965829610825,-0.08160531520843506,0.13983413577079773,-0.1758095622062683,-0.21682365238666534,0.043959010392427444,-0.19073790311813354,0.07046455144882202,0.18495909869670868,-0.17861361801624298,-0.06607261300086975,-0.4266752600669861,0.0032187022734433413,0.060753386467695236,-0.008763528428971767,0.09067346155643463,-0.19742068648338318,-0.07333207130432129,0.10766058415174484,0.0529899038374424,-0.1495005190372467,0.0587320551276207,-0.00394674576818943,0.2587103843688965,-0.021399887278676033,0.2892161011695862,0.05956268310546875,-0.41188669204711914,-0.28816893696784973,0.11022990196943283,-0.26408952474594116,0.18335436284542084,0.02252880483865738,0.18377462029457092,-0.11872494965791702,0.1242014542222023,-0.23813562095165253,-0.030118755996227264,0.10531880706548691,0.25204938650131226,0.03016112744808197,0.17922353744506836,-0.28253108263015747,0.0186641626060009,0.40555205941200256,0.41737374663352966,0.1507885903120041,0.11391226202249527,0.07044783234596252,0.1117301732301712,0.030427370220422745,0.3054770231246948,-0.18109160661697388,-0.04704854637384415,-0.0479574017226696,-0.0016622121911495924,0.4491952359676361,0.09611772000789642,0.04073793441057205,-0.03332076594233513,-0.18510156869888306,-0.15331478416919708,-0.09776119142770767,0.11382099986076355,0.26975688338279724,0.017951996996998787,-0.12421678006649017,0.04641171544790268,-0.17200952768325806,-0.19477352499961853,0.02071857824921608,0.2047804296016693,0.2252928912639618,0.07571745663881302,0.009804923087358475,0.27430856227874756,-0.06178133189678192,0.004201342351734638,0.1998966783285141,-0.20274032652378082,0.013967671431601048,-0.15831537544727325,0.08075083792209625,0.05491466820240021,0.06354022771120071,-0.17342419922351837,0.02300172485411167,-0.15424656867980957,0.23023535311222076,-0.06724433600902557,0.2943597435951233,-0.1551639288663864,0.14110466837882996,0.26169073581695557,0.39409807324409485,0.013262714259326458,0.11183737218379974,0.03130895644426346,-0.17514097690582275,-0.09196937084197998,0.17938056588172913,-0.21695095300674438,0.26511821150779724,-0.1614452600479126,-0.015016566962003708,0.1096806600689888,-0.08549527823925018,0.3613959550857544,-0.046373121440410614,-0.17528727650642395,-0.44812414050102234,-0.11898455768823624,0.49811482429504395,-0.1891467124223709,-0.035013746470212936,-0.10076168924570084,-0.07086823135614395,-0.02309567481279373,-0.26227259635925293,0.29051050543785095,0.06302016228437424,-0.26485008001327515,0.016740866005420685,-0.5012609362602234,0.6195534467697144,0.22679537534713745,-0.11654722690582275,-0.04517211392521858,-0.10859780013561249,-0.1927456259727478,0.19975091516971588,0.2644191384315491,0.15603618323802948,-0.05192464962601662,-0.10391468554735184,-0.12038049101829529,0.1880839318037033,-0.03002754971385002,-0.14577502012252808,0.16390979290008545,-0.17020122706890106,0.05796772986650467,0.15589886903762817,-0.2794579863548279,0.002307269023731351,-0.09610354155302048,-0.16063567996025085,0.11959763616323471,0.061210647225379944,-0.15428800880908966,0.13198520243167877,0.319956511259079,-0.16951820254325867,0.09577363729476929,0.13296271860599518,-0.22454725205898285,-0.3010392189025879,-0.33402588963508606,0.3804180324077606,0.217894047498703,0.12973500788211823,0.23631763458251953,-0.01914973184466362,-0.0658329427242279,0.16413791477680206,0.03768389672040939,-0.039831869304180145,-0.24400801956653595,0.0067125651985406876,0.06487856060266495,0.26496103405952454,0.049393970519304276,0.06503623723983765,-0.3772697448730469,-0.02861487679183483,0.21101363003253937,0.21660557389259338,-0.15361487865447998,0.010824347846210003,-0.2677669823169708,0.10036257654428482,-0.0666549876332283,0.3584844768047333,-0.1394140124320984,-0.2581094801425934,-0.1197965145111084,0.15367624163627625,0.37767040729522705,0.22788015007972717,0.1479812115430832,0.021611804142594337,0.21271605789661407,-0.053291480988264084,-0.11174844205379486,0.24288786947727203,-0.12166089564561844,-0.05786089226603508,-0.10809358209371567,-0.03076109103858471,0.0436941497027874,0.5129076838493347,0.17602495849132538,0.206935316324234,-0.2521367371082306,0.3079306185245514,0.0874546691775322,-0.20141185820102692,-0.10968054831027985,0.09325187653303146,-0.19763854146003723,0.24588286876678467,-0.06019872426986694,-0.026575306430459023,0.2549744248390198,0.0030089716892689466,0.01911020837724209,-0.23467709124088287,0.012619038112461567,0.10583361983299255,-0.42549192905426025,0.16879518330097198,0.0906180813908577,-0.30188602209091187,0.06369884312152863,-0.21319076418876648,0.43482476472854614,0.04606213793158531,0.08921576291322708,-0.3206932246685028,0.026281289756298065,-0.32425758242607117,0.3430994749069214,0.22486287355422974,0.3863946497440338,-0.5544498562812805,-0.047042038291692734,-0.10843847692012787,0.08152196556329727,-0.0434194877743721,-0.2519637644290924,0.1796817183494568,0.03279741108417511,-0.21747826039791107,0.23656722903251648,0.1212613508105278,0.20003457367420197,-0.4608912765979767,-0.17874537408351898,0.2031712532043457,0.09505073726177216,0.0857120007276535,-0.25264617800712585,0.3228588402271271,-0.027091659605503082,-0.06260765343904495,0.06400752812623978,-0.05387945845723152,-0.1898590624332428,0.014155842363834381,-0.02265012264251709,-0.0803603082895279,0.07142695784568787,-0.058751001954078674,0.06736139953136444,-0.04797694832086563,-0.005992503836750984,0.04352477937936783,0.16860435903072357,0.05659834295511246,0.17157135903835297,-0.0289091058075428,0.030561814084649086,-0.20262089371681213,0.19857445359230042,0.1888503134250641,0.15697981417179108,-0.23734816908836365,0.019671058282256126,-0.1048554852604866,0.12328005582094193,-0.0372801274061203,0.22745488584041595,-0.39234253764152527,-0.24228805303573608,-0.12878404557704926,-0.019272204488515854,-0.007717571686953306,-0.1399654895067215,-0.06827139109373093,-0.022579310461878777,-0.19388841092586517,0.061660896986722946,-0.060717590153217316,0.03275445103645325,-0.46204498410224915,-0.06321610510349274,0.1958623230457306,-0.0034251350443810225,-0.14067129790782928,0.020144861191511154,-0.10324375331401825,-0.12815606594085693,-0.2663393020629883,0.45127877593040466,0.25924769043922424,0.0190027616918087,0.1403227001428604,0.05573384091258049,0.05991331487894058,0.054289884865283966,-0.022711433470249176,0.07148222625255585,-0.0783892422914505,-0.1814044862985611,-0.007124892435967922,0.1143667995929718,0.3667503595352173,0.20135566592216492,0.07380877435207367,-0.08261757344007492,0.020467594265937805,-0.02250380627810955,0.05361250415444374,-0.0725959911942482,0.0730709657073021,-0.10260787606239319,-0.24942679703235626,0.08929531276226044,0.06998635828495026,0.046875469386577606,0.12901875376701355,-0.05772798880934715,-0.15969526767730713,-0.01401484664529562,0.1622031182050705,0.08563023805618286,0.04379696026444435,0.012108215130865574,-0.054572056978940964,0.025210630148649216,-0.06065426021814346,-0.12203752249479294,0.08331403136253357,-0.07214533537626266,0.05497284606099129,0.19265106320381165,-0.09000497311353683,-0.02700980007648468,0.0938902497291565,0.16738294064998627,-0.01299108937382698,0.03210143372416496,-0.1412678211927414,0.014572391286492348,-0.0038288943469524384,-0.15855103731155396,0.12575501203536987,-0.08017337322235107,-0.12390729039907455,0.10987114161252975,-0.05874716863036156,0.30032381415367126,-0.2934234142303467,0.031770970672369,-0.18521758913993835,-0.10399293899536133,-0.13595646619796753,0.1874939501285553,-0.21283014118671417,0.08956582844257355,0.007266144268214703,0.10457498580217361,0.056481849402189255,0.007669475395232439,0.030376654118299484,0.22476090490818024,-0.07793412357568741,0.18971961736679077,-0.25139984488487244,-0.1695864498615265,0.007152640260756016,-0.1583966314792633,-0.08758828043937683,-0.12453805655241013,-0.0704084262251854,-0.2394283264875412,0.1594233214855194,-0.051889121532440186,-0.13112467527389526,0.23415392637252808,0.02880237251520157,0.0013292948715388775,-0.44865909218788147,-0.4735681414604187,-0.07871561497449875,0.09566807001829147,0.29396238923072815,0.051183488219976425,0.20687581598758698,-0.24035294353961945,-0.08891631662845612,0.008875313214957714,-0.004656631033867598,0.06816098839044571,-0.047239672392606735,0.029176784679293633,0.12618033587932587,0.006728713866323233,0.13939370214939117,0.11732768267393112,0.2155575454235077,-0.037993282079696655,-0.06387591361999512,0.032497670501470566,0.05745820328593254,0.045565176755189896,0.07069259881973267,-0.1829431653022766,-0.045222800225019455,-0.03324012830853462,-0.1165274903178215,0.18295709788799286,0.15748798847198486,0.040874965488910675,-0.1321350634098053,-0.01811680756509304,-0.037403445690870285,0.06715428084135056,0.0412105917930603,0.0010189367458224297,-0.021975990384817123,0.20289982855319977,0.09805339574813843,-0.12307817488908768,0.08921647816896439,0.03240644559264183,-0.10098692774772644,-0.016551189124584198,0.13980773091316223,0.21281664073467255,-0.41866469383239746,-0.7139888405799866,-0.5963740944862366,0.06486839801073074,0.3100186288356781,0.10852695256471634,0.0732654333114624,-0.028334803879261017,-0.11033697426319122,0.010102896019816399,0.018117522820830345,0.05411919206380844,0.06117253750562668,0.17381028831005096,0.15375065803527832,-0.09317300468683243,0.015775294974446297,0.07072517275810242,0.14008717238903046,0.092117078602314,0.07515676319599152,0.05285731703042984,0.07241398841142654,-0.16239981353282928,0.09368880093097687,-0.15215066075325012,-0.0070240553468465805,-0.11842212826013565,-0.14014112949371338,-0.020823758095502853,0.01465302612632513,0.060022689402103424,0.1996016800403595,0.19369666278362274,0.21710556745529175,-0.012679630890488625,-0.04166834056377411,0.022135481238365173,0.14678440988063812,-0.04131314530968666,0.01587776467204094,0.1280459314584732,-0.2548394501209259,-0.07484662532806396,0.002332909731194377,0.15869244933128357,0.2616710364818573,0.2712956368923187,-0.4194892346858978,-0.19076110422611237,-0.317847341299057,0.1710873395204544,0.1881001740694046,0.2270730435848236,0.042259011417627335,-0.05598994717001915,0.012635337188839912,0.17001298069953918,0.1716998815536499,0.011949366889894009,0.1240011677145958,0.18823468685150146,0.11487836390733719,-0.10100944340229034,-0.09582819044589996,-0.0443233959376812,0.003678447101265192,0.006601187866181135,-0.24498099088668823,-0.05791844427585602,-0.16213218867778778,-0.10738644748926163,-0.062433939427137375,-0.10042453557252884,-0.06414513289928436,-0.19661405682563782,0.07313968241214752,0.11692647635936737,0.1242266371846199,0.08887623995542526,-0.15315774083137512,-0.10215701907873154,0.048790059983730316,0.10523355007171631,-0.05598634481430054,-0.2244899421930313,-0.10663991421461105,0.12853477895259857,0.15743018686771393,-0.09392058849334717,0.14746813476085663,-0.04350343719124794,0.040539368987083435,0.11368343979120255,0.19780516624450684,0.07980725169181824,0.05464160069823265,0.06419793516397476,0.029963325709104538,0.22615571320056915,-0.21300624310970306,0.36566704511642456,0.3437161445617676,0.14925801753997803,-0.04416812211275101,-0.01293883752077818,0.024232037365436554,-0.00672292010858655,0.04451294243335724,0.06314679235219955,0.08187742531299591,-0.16654463112354279,-0.3405321538448334,0.09709358215332031,0.15812695026397705,-0.4918890595436096,0.25985535979270935,-0.6111067533493042,-0.7990792393684387,-0.5126482844352722,0.8646958470344543,-0.8255181312561035,-0.6090381145477295,-1.159745454788208,0.7241054177284241,-0.7141193747520447,0.13747479021549225,-0.6856696605682373,-0.11549345403909683,-0.1223539412021637,-0.03300236538052559,0.43183526396751404,0.45968636870384216,-0.3054301142692566,-0.3647069036960602,-0.3579958975315094,0.23123036324977875,-0.19988484680652618,-0.09404817968606949,-0.19296641647815704,0.1693868637084961,-0.08927507698535919,-0.1224365383386612,0.048738688230514526,-0.003489959053695202,-0.19987156987190247,-0.11216659098863602,-0.11334208399057388,-0.34078067541122437,0.47458502650260925,-0.03882544860243797,0.022025996819138527,0.2076820433139801,-0.18487566709518433,0.12579964101314545,-0.05974466726183891,0.11463455855846405,0.3170052766799927,0.375496506690979,0.1413346379995346,-0.6618880033493042,-0.17211781442165375,-0.37336188554763794,0.17089325189590454,-0.37891554832458496,0.7133917808532715,0.07958801090717316,0.1893376111984253,-0.111696757376194,0.2372279018163681,-0.2598192095756531,-0.376912921667099,0.04455948993563652,0.41177335381507874,0.5560663342475891,-0.06685749441385269,-0.10176607221364975,0.26842376589775085,-0.11772285401821136,-0.36211997270584106,-0.29220253229141235,0.14954285323619843,0.10910791903734207,0.23699650168418884,-0.427190363407135,0.20030765235424042,0.2621866762638092,0.3510495722293854,-0.04942910373210907,-0.17661301791667938,0.19229163229465485,-0.1607651561498642,0.09144899994134903,-0.01614704728126526,-0.08580674976110458,-0.025202924385666847,0.19183985888957977,0.061510562896728516,-0.05680867284536362,0.2210354208946228,0.14455710351467133,-0.0869712308049202,-0.21229389309883118,0.11788471043109894,-0.15807971358299255,0.05805797129869461,-0.04163980484008789,-0.0861147940158844,-0.11546776443719864,-0.042477648705244064,-0.011170015670359135,-0.24562957882881165,0.1836513727903366,-0.20920713245868683,-0.018078239634633064,0.008973010815680027,-0.09051313996315002,0.2923392653465271,0.262564480304718,0.1716722846031189,-0.31098097562789917,-0.2480904906988144,0.09150750935077667,-0.19837529957294464,0.3573867976665497,-0.2889534533023834,-0.035759054124355316,-0.024665985256433487,-0.08632051199674606,0.49298524856567383,-0.5076483488082886,-0.1510026454925537,0.16389259696006775,0.34456244111061096,-0.17434345185756683,-0.02770411968231201,0.278708815574646,0.14207300543785095,-0.12756019830703735,0.35271307826042175,0.35663360357284546,0.03143635764718056,0.03369826078414917,0.14553745090961456,0.11030878871679306,-0.13815189898014069,-0.29006534814834595,0.06316027045249939,-0.029174024239182472,0.18931417167186737,-0.19058211147785187,0.0597158707678318,0.020172549411654472,0.019827833399176598,0.15504580736160278,0.012330296449363232,0.33261266350746155,0.11509264260530472,-0.19170957803726196,0.048787400126457214,-0.0656038373708725,-0.10500088334083557,0.06375657767057419,-0.19798490405082703,0.06343251466751099,-0.024704482406377792,0.07099364697933197,-0.20015041530132294,0.11033350974321365,0.11927162855863571,-0.24382206797599792,0.3200182020664215,-0.37345612049102783,0.1599205881357193,-0.05421013385057449,-0.10927258431911469,0.21568161249160767,-0.38630467653274536,0.2389564961194992,0.0233746487647295,-0.11399077624082565,-0.13163141906261444,0.3497782349586487,0.3469882607460022,0.057861775159835815,-0.31269243359565735,0.2883301377296448,-0.3615853190422058,0.1344258189201355,-0.13625946640968323,-0.10595982521772385,0.2811230719089508,0.1074330061674118,-0.06526615470647812,0.0038037272170186043,-0.09569258242845535,0.29525986313819885,0.031158246099948883,-0.3293383717536926,-0.0374017059803009,0.08244650810956955,0.13506655395030975,-0.17191608250141144,0.14797168970108032,-0.11790894716978073,0.20768927037715912,-0.3522270917892456,-0.16829073429107666,-0.1794160157442093,0.14244495332241058,-0.008789783343672752,-0.01208309642970562,-0.3178097605705261,0.38086050748825073,0.25136274099349976,-0.5274107456207275,0.16641925275325775,0.2879144847393036,0.2525990307331085,-0.23293127119541168,0.2719796299934387,-0.31191739439964294,0.044558677822351456,0.3627361059188843,-0.019564369693398476,0.14056968688964844,-0.20330186188220978,0.18817724287509918,-0.031412284821271896,-0.04110581427812576,-0.42955702543258667,-0.22411467134952545,0.15610316395759583,-0.009353766217827797,-0.16545969247817993,0.0925404354929924,0.07253868877887726,-0.09155046194791794,-0.32693034410476685,0.3678116202354431,-0.42299625277519226,0.39561253786087036,-0.14247405529022217,-0.1440257579088211,0.16916313767433167,0.46758338809013367,-0.06914518028497696,-0.2406274527311325,0.2418294996023178,0.4407638907432556,-0.029665648937225342,0.2926461696624756,-0.03580138832330704,0.38430750370025635,0.25686705112457275,-0.16630195081233978,-0.4450182020664215,-0.16251462697982788,0.5993795394897461,0.20100674033164978,-0.33461013436317444,0.02791411429643631,0.00845925509929657,0.24689960479736328,-0.38216373324394226,0.09530811011791229,0.3902115821838379,0.013428401201963425,-0.12054521590471268,-0.32035037875175476,-0.2939012944698334,0.021166250109672546,-0.22006815671920776,0.243625670671463,-0.35955920815467834,0.06105788052082062,0.18198654055595398,-0.10566622763872147,0.2833704650402069,0.2262503206729889,-0.1109173595905304,0.29533201456069946,-0.1940167397260666,-0.08284036815166473,-0.04668382182717323,-0.2277197539806366,-0.21177518367767334,-0.01780499331653118,-0.2945137321949005,0.04962803050875664,-0.09499142318964005,0.185684472322464,0.12568846344947815,0.12790437042713165,0.028075629845261574,-0.2451051026582718,-0.030955912545323372,-0.3438442349433899,-0.19461284577846527,-0.13241684436798096,0.19452643394470215,0.04232114925980568,0.09259611368179321,-0.1456216424703598,-0.02985921874642372,-0.22622695565223694,-0.02723654918372631,-0.22362400591373444,-0.06997702270746231,0.07093828171491623,-0.13732139766216278,-0.08397799730300903,0.1886037290096283,0.22887739539146423,0.1654384881258011,0.08197356015443802,0.12068884819746017,-0.13885550200939178,-0.05711773410439491,-0.05199727416038513,0.06605502963066101,-0.0011968183098360896,0.05141454190015793,-0.23676101863384247,-0.2085919976234436,0.13716629147529602,0.0922934040427208,0.15004321932792664,0.06104979291558266,-0.08786594867706299,-0.099830262362957,-0.009469048120081425,0.013868851587176323,-0.062127504497766495,0.10291396826505661,-0.05825847014784813,-0.1690652221441269,-0.22490635514259338,-0.053962524980306625,-0.1104283407330513,0.06823500245809555,-0.02067064493894577,0.001550266402773559,0.036989081650972366,-0.08505459129810333,0.3368679881095886,-0.029393557459115982,0.2637379467487335,0.10105127096176147,-0.08076975494623184,0.03986090049147606,-0.02077016606926918,0.3734953999519348,-0.17944182455539703,0.2796615958213806,0.08540922403335571,-0.024655219167470932,0.04071364924311638,-0.09432341158390045,0.037741128355264664,0.21321336925029755,0.005095512606203556,-0.01599588803946972,-0.09216596931219101,0.0724039152264595,0.039237022399902344,0.18409664928913116,-0.2813717722892761,0.03277510404586792,-0.30087223649024963,-0.11033321171998978,0.11321291327476501,0.1272645890712738,-0.09390820562839508,-0.2931461036205292,0.07385014742612839,0.12705504894256592,0.1868467479944229,0.3237444758415222,0.0278590377420187,-0.17708618938922882,-0.26584377884864807,-0.01865633949637413,0.2376350611448288,-0.019471637904644012,0.027624381706118584,-0.15956591069698334,-0.03183949738740921,-0.048514533787965775,-0.20529301464557648,0.057675767689943314,0.3024062514305115,0.04745066910982132,0.2531583905220032,-0.36363109946250916,-0.07170809805393219,0.05951034650206566,0.1479731798171997,-0.07186032086610794,0.18413807451725006,0.08097892254590988,0.03492932766675949,0.22656197845935822,0.041135478764772415,0.16229702532291412,-0.058934085071086884,-0.12013336271047592,0.15707357227802277,-0.01647123321890831,-0.11997401714324951,0.11038350313901901,-0.006928502582013607,0.024014832451939583,-0.002245730021968484,0.06869764626026154,0.19943130016326904,0.021618926897644997,-0.1438768059015274,0.18411068618297577,0.034880951046943665,0.15102031826972961,-0.050685200840234756,-0.015623648650944233,-0.08308469504117966,0.1301831603050232,-0.07033515721559525,-0.014913312159478664,0.022758405655622482,-0.07813064008951187,-0.13708147406578064,-0.07400424778461456,0.11625842750072479,0.19276492297649384,0.019833918660879135,0.0450320839881897,0.07022761553525925,-0.0658666342496872,0.008881255984306335,0.20377357304096222,-0.5434600710868835,0.044194646179676056,-0.2974718511104584,-0.03077728860080242,0.14990568161010742,-0.02429022639989853,0.16611646115779877,0.10028186440467834,0.0827261358499527,-0.04595750942826271,0.012595195323228836,0.1549675017595291,0.06248904764652252,-0.17330127954483032,-0.1123635321855545,-0.08058486133813858,-0.010946200229227543,0.08376561105251312,-0.0775686651468277,-0.07885391265153885,-0.08085475116968155,0.04504808411002159,0.209891676902771,0.2834254503250122,0.032907310873270035,-0.1623898297548294,-0.022898321971297264,0.17611250281333923,0.18875519931316376,0.09138322621583939,-0.0547872856259346,-0.016392571851611137,-0.15916860103607178,0.050880640745162964,-0.010871597565710545,0.12465691566467285,-0.047453623265028,-0.10230500996112823,-0.012043438851833344,-0.052802808582782745,0.09320193529129028,0.13899381458759308,-0.11991065740585327,-0.10094277560710907,0.22331684827804565,-0.13813601434230804,0.008343338966369629,-0.10038407891988754,-0.47126349806785583,0.10435508191585541,0.010310751385986805,0.04108140245079994,0.015336333774030209,0.011013965122401714,-0.6032918095588684,-0.14210039377212524,0.14720170199871063,-0.044878099113702774,-0.0633990541100502,-0.0694940909743309,0.11931177228689194,0.03422829881310463,-0.227616086602211,0.4048082232475281,0.010937250219285488,-0.17490658164024353,0.016288552433252335,-0.07749000191688538,0.04146311804652214,0.08095218986272812,-0.040287137031555176,-0.27679628133773804,-0.2669668197631836,0.1773897409439087,0.05549231171607971,-0.21761564910411835,0.014192193746566772,-0.08688531816005707,-0.07416791468858719,0.1372203379869461,0.15832659602165222,0.013023899868130684,-0.0581364631652832,-0.1896173357963562,0.003924682270735502,0.14482855796813965,0.088324174284935,0.05060337483882904,-0.27463090419769287,-0.17202533781528473,0.08172357827425003,0.07579364627599716,-0.164544478058815,-0.04054197669029236,0.22593949735164642,-0.1728907823562622,0.51096111536026,0.14041535556316376,-0.03555179759860039,-0.38872748613357544,-0.11753145605325699,0.036603860557079315,0.08427514880895615,0.05587746948003769,0.43475836515426636,-0.3836725056171417,0.12926551699638367,-0.1729065179824829,-0.18697036802768707,-0.12576232850551605,0.008129173889756203,-0.07323655486106873,-0.0128262247890234,0.19325894117355347,0.03515201807022095,0.26211878657341003,-0.08465344458818436,0.12455891817808151,-0.12299714237451553,-0.06390746682882309,0.19670423865318298,0.09346743673086166,0.014958757907152176,0.06450801342725754,-0.022531885653734207,0.07201819121837616,-0.19505180418491364,-0.1312781572341919,-0.08457001298666,0.21035848557949066,-0.015838896855711937,-0.02264416590332985,-0.10712072253227234,0.0780416801571846,0.20720653235912323,0.20287561416625977,0.02178455889225006,0.06314052641391754,-0.21330717206001282,-0.0679483562707901,-0.0006262813112698495,-0.06241836026310921,0.09876753389835358,-0.07425291836261749,-0.3952193260192871,0.008962265215814114,-0.11022458970546722,0.0996633991599083,0.09362901747226715,-0.12472236156463623,-0.3070930540561676,0.04602700099349022,-0.06126070022583008,-0.1285185068845749,-0.1997148096561432,0.02935929037630558,-0.09454955160617828,-0.027430307120084763,-0.016263287514448166,0.24874618649482727,-0.13215118646621704,0.025185752660036087,0.021330425515770912,0.18258842825889587,-0.14918071031570435,0.006164525635540485,-0.25189003348350525,-0.03461776301264763,-0.22678430378437042,-0.026339085772633553,0.1708855777978897,0.0032806380186229944,-0.21755118668079376,-0.19006064534187317,0.03778916224837303,0.22637958824634552,-0.04051792994141579,0.11404817551374435,-0.25944292545318604,-0.24790966510772705,0.06275629252195358,0.023401131853461266,0.06726133823394775,-0.059206847101449966,-0.21376505494117737,-0.12031637132167816,-0.15295445919036865,0.2221982777118683,-0.04277430847287178,-0.09986555576324463,0.17277508974075317,-0.21864111721515656,0.26940101385116577,0.12977385520935059,0.2392716407775879,-0.4890727996826172,0.3808133900165558,-0.09814731776714325,0.157332181930542,-0.10663705319166183,0.09486936032772064,0.06716956198215485,0.04365387186408043,-0.06137319654226303,0.044124674052000046,-0.03400060907006264,-0.11835797131061554,-0.1139647513628006,-0.028391573578119278,-0.35363054275512695,-0.011077173054218292,-0.060621365904808044,0.0821973904967308,0.1318690925836563,-0.08891645818948746,-0.10035521537065506,-0.029161537066102028,0.10844510048627853,0.16524064540863037,0.16013765335083008,-0.09852077811956406,-0.16382244229316711,0.06416381895542145,-0.05462253466248512,0.0429498553276062,0.21238166093826294,-0.15877915918827057,0.030576366931200027,-0.14699003100395203,0.0352107472717762,0.018098775297403336,-0.10387621074914932,-0.31275710463523865,-0.0005002301186323166,0.02908221073448658,0.18784131109714508,-0.16132909059524536,-0.13363085687160492,0.11185026168823242,-0.06746530532836914,-0.2561560273170471,-0.08217444270849228,-0.030315754935145378,0.009828159585595131,0.18932385742664337,-0.002005633432418108,-0.31235599517822266,0.15066353976726532,-0.2217714488506317,0.601780891418457,0.23086076974868774,-0.18694615364074707,0.19492793083190918,-0.09091144055128098,0.10245504975318909,0.0953119769692421,0.13046494126319885,-0.1391792744398117,0.09031552821397781,0.09018637239933014,0.1444789469242096,-0.17372804880142212,0.07133511453866959,-0.07596392929553986,0.06752385944128036,-0.031947873532772064,0.1003892719745636,-0.23419426381587982,0.009340600110590458,-0.0361715704202652,-0.025032013654708862,-0.06560804694890976,0.14960698783397675,-0.12853963673114777,0.10749336332082748,-0.15174834430217743,0.112139493227005,-0.1304839551448822,0.35130980610847473,0.24794109165668488,-0.1840502917766571,-0.366452157497406,0.23964084684848785,-0.11947454512119293,-0.11085496097803116,0.19238635897636414,0.09951510280370712,0.19433030486106873,0.1875838190317154,-0.12219652533531189,-0.16262833774089813,0.2111920416355133,-0.06722210347652435,-0.08523616939783096,-0.06675782054662704,-0.19622886180877686,0.12783923745155334,0.2184201180934906,-0.08745300769805908,0.05389093607664108,-0.03337667137384415,-0.004947469104081392,-0.061279430985450745,-0.024421442300081253,-0.08699790388345718,-0.055093348026275635,0.04669458046555519,-0.048228081315755844,-0.10419057309627533,-0.1263226717710495,-0.08864396810531616,-0.16847920417785645,-0.13415803015232086,-0.2314882129430771,-0.04711580276489258,-0.32648786902427673,-0.10944180190563202,-0.08060897886753082,-0.07843337208032608,0.15730877220630646,0.11006591469049454,-0.188887357711792,-0.039207108318805695,0.08146857470273972,0.10418916493654251,-0.03200283646583557,-0.2050170749425888,0.056620433926582336,-0.17442713677883148,-0.03821907564997673,0.03957799822092056,-0.045021314173936844,-0.09564114362001419,-0.115507572889328,-0.001166904461570084,0.02120116911828518,0.527787983417511,-0.08615920692682266,0.24199937283992767,-0.1515469253063202,-0.20740631222724915,-0.12192757427692413,-0.047123465687036514,-0.16101595759391785,0.4467732012271881,-0.23115114867687225,0.5493882298469543,0.19657063484191895,0.05489674583077431,0.2767423689365387,-0.06002679839730263,-0.0038774919230490923,0.17487692832946777,0.11601517349481583,-0.23584485054016113,-0.005101127550005913,-0.13863718509674072,0.056767337024211884,-0.16426977515220642,0.12961676716804504,0.115825355052948,-0.07517307996749878,0.06725165992975235,0.3803517818450928,0.0345105305314064,0.03464629501104355,-0.057621393352746964,0.021858276799321175,-0.08756992220878601,0.12830886244773865,0.028575371950864792,0.14808930456638336,-0.1357950121164322,0.05090934783220291,-0.13352015614509583,-0.08481483161449432,0.24694885313510895,0.2089325189590454,0.0031687782611697912,0.06698264181613922,0.19228006899356842,-0.23990395665168762,0.010239453986287117,-0.11379397660493851,-0.22829684615135193,0.0004776068381033838,0.03657899796962738,-0.09320558607578278,0.0977674126625061,0.08437595516443253,-0.0031820146832615137,0.2607972025871277,-0.1602708250284195,-0.20035524666309357,0.055110279470682144,-0.042771123349666595,-0.04546197131276131,0.16919104754924774,-0.11272787302732468,-0.09327656030654907,-0.09594127535820007,0.022541090846061707,0.007585358805954456,0.06820424646139145,0.07543361932039261,-0.1122317835688591,-0.12488662451505661,-0.10291261225938797,0.0874849334359169,0.1339154988527298,0.2265220433473587,-0.0068399421870708466,-0.1705506145954132,-0.3171764612197876,-0.03864263743162155,-0.1207989752292633,-0.016757188364863396,-0.006093012634664774,-0.18977570533752441,-0.20126236975193024,-0.12813515961170197,-0.006138820666819811,0.251506507396698,-0.12897422909736633,-0.055897168815135956,-0.1040930226445198,-0.02640056610107422,0.04185434430837631,-0.20027239620685577,-0.16087490320205688,0.19574475288391113,-0.16105781495571136,-0.22419463098049164,0.1438746452331543,-0.09014979004859924,-0.07742393016815186,-0.032337069511413574,-0.036859262734651566,0.2154347151517868,0.372696191072464,0.04840495064854622,0.019495997577905655,-0.10007712244987488,0.05988124758005142,-0.15848109126091003,-0.02524506486952305,0.06621038913726807,0.12452059984207153,0.1208781972527504,0.16889208555221558,0.11180081218481064,0.04299432039260864,-0.030275659635663033,0.11131305247545242,0.13428471982479095,-0.00657316530123353,0.21260248124599457,-0.008955725468695164,-0.0518169142305851,-0.11103984713554382,0.039081841707229614,0.17743276059627533,-0.12749001383781433,0.034786105155944824,-0.20815816521644592,0.07122590392827988,0.07968925684690475,0.21458257734775543,0.1058746948838234,-0.042888253927230835,-0.02451457642018795,0.008610781282186508,0.27396413683891296,0.01999473012983799,0.018508438020944595,-0.1531980186700821,0.18312469124794006,0.07975483685731888,-0.010633673518896103,0.1441406011581421,-0.09201949834823608,-0.2771238684654236,0.10601107776165009,0.05395593121647835,0.06032712012529373,0.1318240612745285,0.31923016905784607,0.03086310811340809,0.23313982784748077,-0.18537427484989166,-0.1894644945859909,0.19656486809253693,-0.03224239870905876,-0.16718630492687225,-0.10565418750047684,-0.13552412390708923,0.24307353794574738,-0.01081646978855133,0.10181182622909546,0.12482234835624695,-0.13050338625907898,-0.06201636791229248,-0.07020048052072525,0.13225749135017395,-0.03666573390364647,-0.05827706307172775,-0.07164188474416733,0.07869049906730652,-0.03749711439013481,0.13879311084747314,0.030325932428240776,-0.0037810150533914566,-0.09041370451450348,0.0006351677002385259,0.19440646469593048,0.16785144805908203,-0.0005196629790589213,-0.14727386832237244,-0.2304609715938568,-0.10013766586780548,0.06416857987642288,0.0419623963534832,0.045828286558389664,-0.058335863053798676,0.16480781137943268,0.05104616656899452,-0.1556781381368637,0.007014687638729811,-0.20677608251571655,0.012356948107481003,-0.006678675767034292,-0.2198719084262848,-0.08573843538761139,-0.27261653542518616,-0.021257376298308372,-0.04042292386293411,0.14880003035068512,-0.1633189469575882,-0.05527341738343239,0.1442563533782959,-0.07927146553993225,0.22092698514461517,-0.16738282144069672,-0.32306307554244995,-0.17351698875427246,-0.4257737100124359,-0.36530008912086487,-0.6052476167678833,0.15024730563163757,-0.07779119908809662,-0.3024868071079254,-0.11027842015028,-0.0921880304813385,-0.11038414388895035,0.32412511110305786,0.1877501755952835,0.02467457577586174,-0.09062917530536652,0.04811183363199234,0.31507739424705505,0.23619793355464935,0.07507297396659851,-0.00377099821344018,-0.1035768985748291,0.0068566217087209225,0.1112784817814827,-0.3262496590614319,-0.2940153181552887,-0.42906510829925537,-0.014289654791355133,0.024806903675198555,0.15214484930038452,-0.19553661346435547,-0.2741883099079132,0.1176862120628357,-0.05818683281540871,-0.18276573717594147,-0.019376380369067192,0.044084832072257996,-0.020847979933023453,0.12243778258562088,-0.12222887575626373,-0.14218854904174805,0.11236030608415604,-0.1559337079524994,-0.004521280061453581,0.38292020559310913,-0.21561722457408905,0.09171812236309052,0.06936032325029373,0.13001661002635956,0.5415310859680176,0.06063101440668106,-0.0011885912390425801,0.13864845037460327,0.057138219475746155,0.22731046378612518,0.06794269382953644,-0.19938725233078003,-0.0869659036397934,0.0006228657439351082,0.16701152920722961,0.11786190420389175,-0.0710042417049408,0.06517723947763443,-0.12106252461671829,0.036633435636758804,0.18041077256202698,0.04010055586695671,-0.08335408568382263,-0.1490844190120697,-0.26845505833625793,-0.1749304085969925,0.08038207143545151,0.11678260564804077,0.4086281657218933,0.1078076884150505,-0.27837368845939636,0.10538461804389954,-0.06874489784240723,-0.2210739403963089,0.17754316329956055,0.06450529396533966,0.28421109914779663,0.31289756298065186,-0.2328088879585266,-0.26369374990463257,-0.018182650208473206,0.18988999724388123,-0.09786921739578247,-0.005639835260808468,0.05060975253582001,-0.09151897579431534,0.10481756180524826,-0.1925102323293686,-0.11314012110233307,-0.04083957523107529,0.005188430193811655,0.15012255311012268,0.213750422000885,-0.08599746227264404,-0.17932343482971191,0.08953038603067398,0.4991717040538788,-0.003586728125810623,-0.3788524568080902,-0.42400649189949036,0.754747211933136,0.3602634072303772,-0.3708708882331848,-0.07339483499526978,-0.42763224244117737,-0.20119400322437286,0.7304230332374573,-0.6822473406791687,0.9442281126976013,0.5363802313804626,0.16177809238433838,-0.43157511949539185,-0.01203360315412283,-0.5471691489219666,0.18367478251457214,-0.0019831021782010794,-0.023583823814988136,-0.36191973090171814,0.40607717633247375,0.06103597581386566,0.238478422164917,0.06268136203289032,0.13244226574897766,0.1897176206111908,0.0748739168047905,0.24143348634243011,-0.27864766120910645,-0.1885484755039215,-0.08532761037349701,-0.10170578211545944,0.13613413274288177,0.08117859810590744,0.3312998116016388,0.47890976071357727,0.00603807158768177,0.3094531297683716,-0.07423879206180573,-0.17156021296977997,-0.6783203482627869,-0.00022056227317079902,0.5516265034675598,-0.2782106399536133,0.30809688568115234,0.5992850661277771,0.11867428570985794,-0.4286174774169922,-0.23112110793590546,-0.562555193901062,0.0767410472035408,-0.26899588108062744,0.1750403195619583,0.08790940046310425,0.0009551554103381932,-0.1044924333691597,-0.06806039065122604,-0.08324230462312698,-0.13446031510829926,0.21363565325737,0.14941228926181793,-0.28915345668792725,-0.40379586815834045,0.0940367802977562,0.39081308245658875,-0.3705541789531708,0.21782195568084717,-0.07504782825708389,-0.06879270821809769,0.17667722702026367,-0.11534718424081802,0.4195987582206726,0.017951583489775658,-0.13617293536663055,0.19481676816940308,0.49232208728790283,0.03332085162401199,-0.00783909298479557,0.30337241291999817,-0.06285832077264786,-0.0617963969707489,-0.46711084246635437,0.2808819115161896,-0.14464853703975677,0.28234750032424927,-0.21326716244220734,-0.5698750019073486,0.023340905085206032,0.010768869891762733,0.07808545976877213,-0.1886640042066574,0.024446794763207436,-0.23173512518405914,-0.30398598313331604,0.05165034532546997,-0.10265011340379715,0.019651183858513832,-0.12108037620782852,0.1513858288526535,0.05046037957072258,-0.11165159940719604,0.2341414988040924,0.26789969205856323,0.2331518977880478,-0.33231958746910095,-0.3021279573440552,0.1611194610595703,0.11616809666156769,-0.04806764796376228,0.19450919330120087,0.4895179867744446,0.056567464023828506,0.0527869388461113,-0.05230114236474037,-0.17449833452701569,-0.01645170897245407,0.39876577258110046,-0.09056408703327179,0.16187012195587158,-0.10172965377569199,-0.14357531070709229,0.17999590933322906,0.13978886604309082,-0.13512563705444336,0.09901072084903717,-0.11367888748645782,0.0011719873873516917,0.1257603019475937,0.13932056725025177,0.4619487226009369,-0.29266253113746643,-0.12381818890571594,0.2073156237602234,-0.33813998103141785,0.13663768768310547,-0.20135153830051422,0.2114020138978958,0.3430054783821106,0.02017257735133171,0.06541918963193893,-0.039937686175107956,0.08114980906248093,0.1147632747888565,-0.00006554210267495364,-0.1091722697019577,0.3461408317089081,-0.19138649106025696,0.16511891782283783,0.26741302013397217,-0.07279424369335175,-0.12996870279312134,0.005892840679734945,-0.28841930627822876,0.11928769201040268,-0.05219431594014168,0.21047534048557281,-0.3116745352745056,0.011441909708082676,0.062224771827459335,-0.05876303091645241,0.3706432282924652,-0.22915683686733246,-0.0459442064166069,0.25518351793289185,0.0836748406291008,0.31415504217147827,-0.06610921770334244,-0.08051774650812149,-0.07224587351083755,0.0031249048188328743,0.24922652542591095,-0.0005683160852640867,-0.05646379292011261,-0.09706276655197144,0.6639279723167419,-0.09352883696556091,0.24947668612003326,-0.24252261221408844,-0.1992877870798111,-0.3231293261051178,0.2933892011642456,-0.18521994352340698,0.025792336091399193,-0.019095953553915024,0.36978089809417725,0.039526913315057755,-0.4710390269756317,0.0808674544095993,0.005557495169341564,-0.3613000214099884,-0.024800196290016174,0.2713507413864136,0.0926327109336853,0.15053987503051758,-0.07862497866153717,-0.020726684480905533,-0.031827524304389954,0.13518208265304565,0.36070960760116577,0.379831463098526,-0.12096668034791946,-0.16611653566360474,-0.14893928170204163,0.4578425884246826,-0.3920024335384369,-0.39245617389678955,0.2041284739971161,0.09405523538589478,-0.340493381023407,-0.23869450390338898,0.03338688984513283,-0.023368701338768005,0.10159652680158615,0.11834229528903961,-0.338594913482666,-0.3009454607963562,0.1408117115497589,-0.12658832967281342,-0.16046148538589478,-0.10338305681943893,0.18387113511562347,0.1961967945098877,-0.2495173215866089,-0.21963994204998016,-0.33686563372612,0.20267073810100555,-0.28157123923301697,-0.13441649079322815,0.012778419069945812,-0.06698106229305267,0.1063636988401413,-0.20075827836990356,0.045512910932302475,-0.004831913858652115,-0.009611004963517189,-0.274988055229187,0.031206615269184113,0.17979024350643158,-0.48111432790756226,0.03958386182785034,0.02534341812133789,0.24904774129390717,-0.07075842469930649,-0.033937159925699234,-0.20022700726985931,-0.012336799874901772,0.2496289312839508,-0.1085372045636177,-0.013718139380216599,0.1690928041934967,0.2078452855348587,0.1565331667661667,-0.08504697680473328,0.13572058081626892,0.01934715174138546,-0.1908443421125412,-0.17200028896331787,0.06575106084346771,-0.12711547315120697,-0.2130391150712967,-0.10404519736766815,-0.06787014752626419,-0.04458476975560188,-0.2420933097600937,0.13617302477359772,0.14216533303260803,0.1310129016637802,0.19354310631752014,-0.2637774348258972,-0.06132623925805092,-0.09145348519086838,-0.06585319340229034,-0.02868027426302433,-0.08643700182437897,-0.11744926124811172,0.13329213857650757,-0.2095870077610016,0.1548449844121933,-0.00331000960431993,-0.022979332134127617,-0.2739984095096588,-0.16505903005599976,0.024609245359897614,0.10546259582042694,0.09082552790641785,0.09049617499113083,0.0934576615691185,-0.03469276800751686,0.04319247975945473,0.023080645129084587,0.1250724047422409,0.2044248878955841,0.12551772594451904,0.1035878136754036,0.21682167053222656,0.05078524351119995,-0.1933058202266693,-0.3134884238243103,-0.004029839299619198,0.21423649787902832,0.03370171785354614,-0.2640340328216553,-0.1240561455488205,-0.10041604936122894,-0.04615592956542969,0.2475268393754959,0.2843141257762909,0.03279797360301018,-0.22596098482608795,-0.3498934209346771,0.03749718517065048,0.1908431351184845,0.26583752036094666,0.10900818556547165,-0.2061338871717453,-0.23802049458026886,-0.003527355147525668,0.1375761181116104,0.10882047563791275,-0.04465779662132263,-0.1324601173400879,-0.20919837057590485,-0.14761006832122803,0.0448891781270504,0.05653759092092514,-0.002600395353510976,-0.21733185648918152,0.22902587056159973,0.0695049837231636,-0.3307836353778839,-0.024080896750092506,0.02621385082602501,-0.42459580302238464,0.10912830382585526,0.011284531094133854,-0.10266595333814621,0.07119099050760269,0.33307528495788574,0.09888473898172379,-0.1255970448255539,-0.12767335772514343,0.026624411344528198,-0.018488382920622826,-0.017796697095036507,0.03782738000154495,-0.207223579287529,0.00553080253303051,0.020090855658054352,-0.05338418111205101,0.09914672374725342,0.02725340612232685,0.012461761012673378,-0.3231479823589325,-0.17220483720302582,-0.24111700057983398,0.17594832181930542,0.012078414671123028,-0.03976018354296684,-0.2235296666622162,-0.2176797091960907,-0.4055313467979431,-0.030977055430412292,-0.0941048413515091,0.10114123672246933,0.07767600566148758,0.048093996942043304,-0.05326252430677414,0.25240787863731384,0.08882803469896317,0.13923892378807068,-0.07961440086364746,-0.2320706993341446,-0.11492522805929184,0.11181804537773132,0.06966610252857208,-0.24499742686748505,0.11549553275108337,-0.05867834389209747,-0.47905582189559937,-0.197136789560318,-0.02963780239224434,-0.04023187980055809,0.06661532819271088,-0.10128345340490341,-0.15075267851352692,-0.2459505945444107,0.07527115195989609,0.11899587512016296,-0.004550235345959663,-0.2706971764564514,-0.008940530009567738,0.08169623464345932,-0.010146460495889187,-0.1287955492734909,0.050930872559547424,0.09831787645816803,0.14615878462791443,-0.14007383584976196,-0.17621417343616486,-0.1595320701599121,-0.14154763519763947,0.19972802698612213,0.1356288641691208,0.15985341370105743,-0.23250164091587067,-0.09559052437543869,-0.07438010722398758,0.15416976809501648,0.04867386072874069,0.22243669629096985,-0.046283427625894547,-0.05574581027030945,-0.1393594890832901,0.1956818550825119,0.14593563973903656,0.1512829214334488,-0.21518713235855103,-0.17005635797977448,-0.1366925984621048,0.07589388638734818,0.06281473487615585,0.09227733314037323,-0.10294676572084427,0.05679833143949509,0.09773555397987366,-0.20260898768901825,0.28605571389198303,0.12846679985523224,-0.08813563734292984,-0.0050629014149308205,0.11466420441865921,-0.11091969907283783,-0.1359829306602478,-0.08420134335756302,-0.07339845597743988,-0.041053030639886856,-0.09263601154088974,0.11703068763017654,0.23528151214122772,0.1019122526049614,-0.23039346933364868,-0.015568749979138374,0.08033567667007446,0.17095255851745605,0.050179243087768555,0.15464863181114197,-0.10717707872390747,-0.1452106088399887,-0.25308069586753845,0.15000014007091522,0.12858141958713531,-0.03936830163002014,-0.15247350931167603,-0.19990740716457367,-0.19048050045967102,0.10975729674100876,0.11116039007902145,-0.13938383758068085,-0.2856420874595642,-0.2767883539199829,-0.05603676661849022,0.2541722059249878,0.13401202857494354,0.2356584519147873,-0.23365560173988342,-0.019439086318016052,0.0587584488093853,0.20976054668426514,0.05878804624080658,0.20331324636936188,-0.23420998454093933,0.1865726113319397,0.14408820867538452,-0.2812330424785614,0.09498323500156403,-0.06862322241067886,-0.22421851754188538,0.009925449267029762,0.09374769032001495,-0.22094392776489258,0.2063426375389099,-0.17707595229148865,-0.0737840011715889,0.15710505843162537,0.12701097130775452,0.23875363171100616,-0.04301242157816887,-0.02092076651751995,-0.04984125867486,0.22601649165153503,-0.02496499754488468,-0.14698733389377594,0.5041574835777283,0.13025854527950287,-0.31228554248809814,-0.3463292121887207,0.1464107781648636,0.08001941442489624,0.02812906727194786,-0.20956598222255707,0.045490946620702744,-0.14725235104560852,-0.07204896211624146,0.08121725171804428,0.23570506274700165,0.013599766418337822,0.13102585077285767,-0.24713486433029175,0.15344351530075073,0.15329395234584808,0.22201566398143768,-0.12335193157196045,-0.21970917284488678,-0.06918367743492126,-0.01621111109852791,0.04136353358626366,-0.0020755815785378218,0.05110123008489609,-0.06781336665153503,-0.045188065618276596,-0.1625501662492752,-0.0018937779823318124,0.3726591169834137,-0.3701138198375702,0.04122300446033478,0.30408772826194763,0.23014509677886963,0.12292924523353577,-0.19392628967761993,-0.08747970312833786,0.05011574923992157,0.10410018265247345,0.0016024989308789372,-0.22117839753627777,0.14706368744373322,0.09008330851793289,0.05772192403674126,-0.17479711771011353,-0.1247115209698677,0.07838650792837143,0.1510598361492157,-0.17272765934467316,-0.07470221817493439,-0.2179602086544037,-0.14204001426696777,0.10878825932741165,0.1056482270359993,0.12932716310024261,-0.1063339114189148,0.059131983667612076,0.1431054025888443,0.11246088147163391,0.031247636303305626,0.19513875246047974,-0.07188960164785385,-0.11161527037620544,0.032883964478969574,0.16048696637153625,-0.045907195657491684,-0.08699776232242584,-0.09411058574914932,-0.030923446640372276,-0.08812931925058365,0.23984281718730927,0.16161514818668365,0.16853490471839905,-0.1949625462293625,0.17888516187667847,0.028292372822761536,-0.26844120025634766,0.42110124230384827,0.012236417271196842,0.12253382056951523,0.33091673254966736,0.26747891306877136,0.007833206094801426,0.3191336989402771,0.5757604837417603,-0.015205916948616505,0.34929758310317993,-0.19617974758148193,0.04494922608137131,-0.038837309926748276,0.12149008363485336,-0.10882728546857834,-0.1982659101486206,-0.1734142303466797,-0.27055981755256653,0.2997466027736664,0.5426989793777466,-0.0788177102804184,-0.16644537448883057,-0.09487780183553696,0.06672672182321548,0.067908376455307,0.05636526644229889,-0.034528642892837524,0.11980888992547989,0.009130123071372509,0.062095146626234055,0.10573896020650864,0.2606382369995117,-0.05650429055094719,0.022718098014593124,0.10763649642467499,0.16073961555957794,0.07896788418292999,0.10670337826013565,-0.04318432882428169,-0.05950416997075081,-0.11710014194250107,-0.014599045738577843,0.17900113761425018,-0.06903766095638275,-0.15111884474754333,-0.044376224279403687,0.0452716201543808,-0.1785079687833786,-0.1330903023481369,-0.30121132731437683,-0.054962217807769775,0.11950281262397766,0.18936601281166077,-0.182178795337677,-0.2739581763744354,-0.23614564538002014,-0.23861871659755707,0.06038615480065346,-0.07452964037656784,0.359160453081131,0.025518164038658142,-0.06802871823310852,-0.10999469459056854,-0.27025148272514343,0.09580348432064056,0.22507472336292267,-0.17226439714431763,0.019463935866951942,-0.40030547976493835,-0.1980547457933426,-0.18419970571994781,0.10000627487897873,0.10547994822263718,-0.121718630194664,-0.19247202575206757,-0.25829318165779114,-0.05828455090522766,-0.02184867486357689,0.1383143663406372,0.051918648183345795,-0.26967981457710266,-0.22408723831176758,-0.17421536147594452,0.24458803236484528,0.07969252020120621,-0.024844491854310036,-0.4192902445793152,-0.2277863472700119,-0.183585986495018,0.26705530285835266,0.217716246843338,0.05543063208460808,-0.06022856757044792,0.21421033143997192,-0.08118168264627457,-0.28119945526123047,0.10408918559551239,0.01509343646466732,-0.1326356679201126,0.03221103921532631,-0.017985433340072632,-0.24730022251605988,0.13485625386238098,0.17752161622047424,0.03260938823223114,-0.03189391642808914,0.046652961522340775,0.13094298541545868,-0.05087267607450485,0.11231155693531036,-0.01554205920547247,0.1575879454612732,0.29741233587265015,0.07030520588159561,0.004279108252376318,0.2077038288116455,0.2295764833688736,0.05368979647755623,0.09813208878040314,-0.023741062730550766,-0.16004961729049683,-0.07199577987194061,-0.22783921658992767,-0.09533382207155228,-0.335665225982666,-0.27826374769210815,0.0478571318089962,0.2673633098602295,-0.043975502252578735,0.15489144623279572,-0.026037797331809998,-0.1606321483850479,0.1484842598438263,0.11961930990219116,-0.06989898532629013,0.2446971982717514,0.15247999131679535,-0.3004206717014313,0.04653264582157135,-0.028995346277952194,0.03056197054684162,-0.2752319574356079,0.17222537100315094,-0.077769435942173,0.1728779524564743,0.8453412055969238,-0.07711862027645111,-0.09935180842876434,-0.06871967762708664,0.05666656419634819,0.1673567146062851,0.24825561046600342,0.3060833215713501,0.18226879835128784,-0.1461154669523239,-0.09118198603391647,0.029209058731794357,0.04492713883519173,-0.013413960114121437,0.24506163597106934,-0.015040811151266098,0.22367258369922638,-0.06897848099470139,-0.26474708318710327,0.014192137867212296,0.048401106148958206,0.0021188349928706884,0.0706721693277359,0.059074461460113525,-0.11851859837770462,0.06781025230884552,-0.37321770191192627,-0.01672481559216976,0.16596302390098572,0.32277071475982666,0.13025429844856262,0.09333047270774841,-0.2557113766670227,-0.0663960725069046,0.04252594709396362,0.14053936302661896,0.19727249443531036,-0.03620129078626633,-0.07051488012075424,-0.0374448262155056,0.18769878149032593,0.014252984896302223,-0.10610195249319077,-0.36925655603408813,-0.10065587610006332,0.1348116546869278,-0.14113809168338776,0.1347837895154953,-0.004609161987900734,0.1019967794418335,-0.059937845915555954,0.06367109715938568,0.17846150696277618,0.1697021722793579,0.07821284234523773,0.11777924746274948,0.13889139890670776,-0.00831662304699421,0.34602490067481995,-0.18720731139183044,-0.15305809676647186,0.24322424829006195,0.14154435694217682,0.10063527524471283,-0.19126583635807037,-0.002670143498107791,-0.04389505833387375,0.11712300032377243,0.17014332115650177,0.22402946650981903,0.0033701600041240454,0.1649073213338852,0.11890017986297607,0.07497701048851013,0.13104037940502167,0.21880605816841125,0.11288540810346603,-0.07415013015270233,-0.009520195424556732,0.12875843048095703,0.07690455764532089,0.2000316083431244,-0.016547076404094696,-0.11548667401075363,-0.1262439787387848,0.0037567252293229103,-0.12832003831863403,0.1274702250957489,-0.14762373268604279,0.05147528275847435,-0.18813227117061615,0.18087852001190186,-0.04980900511145592,-0.14756816625595093,0.1419624388217926,-0.1457294523715973,0.14509186148643494,0.0614713579416275,-0.02265172451734543,-0.013535844162106514,0.09852617233991623,-0.2342396378517151,0.042448244988918304,0.44687989354133606,0.3986384868621826,0.31966647505760193,-0.4118627905845642,0.048579178750514984,-0.07445934414863586,-0.04463142529129982,-0.21923412382602692,-0.049360621720552444,0.1957320272922516,-0.15199555456638336,-0.11937783658504486,0.25255656242370605,-0.18265525996685028,-0.1155916154384613,0.07522795349359512,0.13621553778648376,-0.10411151498556137,-0.2801874279975891,-0.19718295335769653,-0.054158419370651245,0.2281973659992218,0.11209193617105484,0.019890543073415756,0.13058336079120636,-0.28074344992637634,0.12457039207220078,0.2268514782190323,0.23258943855762482,-0.18861332535743713,0.029263576492667198,-0.12440662831068039,-0.060969430953264236,0.3113061785697937,0.2315450757741928,0.05924269184470177,-0.34779754281044006,0.315059095621109,-0.06041841208934784,-0.10373534262180328,-0.07669322937726974,-0.08428806811571121,0.05439426749944687,0.20417141914367676,-0.09174047410488129,0.12502385675907135,-0.13205286860466003,-0.11121439933776855,-0.0803578570485115,0.04245803877711296,-0.005571857560425997,-0.1307520568370819,0.24171631038188934,0.04724732041358948,-0.213014155626297,-0.24182440340518951,-0.04088646546006203,0.06163306161761284,-0.04927294701337814,0.12265647947788239,-0.0845993235707283,-0.030464403331279755,-0.047808289527893066,0.12506787478923798,-0.05063128471374512,0.09187661111354828,-0.2803913652896881,-0.06474403291940689,-0.051613543182611465,0.11961614340543747,-0.02616671286523342,0.20249660313129425,-0.31546249985694885,-0.2328384816646576,0.05157465487718582,0.20355531573295593,0.012827969156205654,0.021413100883364677,-0.3664802312850952,-0.2649766206741333,-0.07174188643693924,0.29594165086746216,0.14812347292900085,0.07437385618686676,-0.17776238918304443,0.28116315603256226,0.050371184945106506,-0.15154822170734406,0.20943135023117065,0.10434968769550323,0.055305372923612595,0.21847465634346008,0.1529422253370285,-0.15243931114673615,0.22852618992328644,0.1064329743385315,0.07930562645196915,-0.032268375158309937,0.0679456889629364,0.12426633387804031,-0.22572025656700134,-0.04110465943813324,0.14651894569396973,0.15941956639289856,0.08157031983137131,0.062258243560791016,0.13386107981204987,0.11247190833091736,-0.12553000450134277,0.10542508214712143,0.030054248869419098,0.05652862787246704,-0.23994916677474976,-0.02023625373840332,0.15988712012767792,-0.029359357431530952,-0.05426430702209473,-0.3287079334259033,-0.05484306067228317,-0.0431811548769474,0.2649286985397339,0.05049712210893631,-0.11437174677848816,-0.0446791835129261,0.021618453785777092,-0.039468470960855484,0.24772928655147552,0.19041629135608673,-0.05490948632359505,-0.04928933084011078,-0.09882467985153198,-0.07693226635456085,-0.013864279724657536,-0.17937491834163666,-0.13384391367435455,0.17542751133441925,-0.2106475979089737,-0.15089240670204163,0.508661150932312,-0.09075214713811874,-0.10062260925769806,0.0033204162027686834,0.072121262550354,0.15206339955329895,-0.020051104947924614,-0.06535845249891281,0.08024533838033676,0.4061102271080017,-0.1720513105392456,-0.1051359549164772,0.09654832631349564,0.011324156075716019,-0.011385615915060043,-0.054254695773124695,0.11186953634023666,0.14104525744915009,-0.09886050969362259,0.05875483900308609,-0.048905182629823685,-0.19926021993160248,-0.006648182403296232,-0.11566578596830368,0.2016717493534088,-0.0008618435240350664,-0.048717718571424484,-0.09760258346796036,-0.04495793953537941,-0.0006631032447330654,0.15448859333992004,0.017453255131840706,0.18060219287872314,-0.045453060418367386,-0.1402871459722519,-0.1950947642326355,0.08289780467748642,0.11123431473970413,-0.13972416520118713,-0.41191813349723816,-0.2597235143184662,-0.07659365236759186,0.07415153086185455,-0.14296184480190277,0.03247930109500885,0.06736873090267181,-0.10297189652919769,-0.10042288154363632,-0.09698882699012756,-0.2559206783771515,-0.06644105166196823,-0.08480173349380493,0.18803878128528595,0.37122485041618347,0.14312461018562317,-0.4055442810058594,-0.4923075735569,-0.008509279228746891,-0.023027345538139343,0.04599850997328758,-0.22744621336460114,0.20467571914196014,0.0024994676932692528,0.11281131207942963,0.008425652980804443,0.6597501635551453,-0.10756251215934753,-0.079728864133358,-0.19930240511894226,0.10518483072519302,0.05360492691397667,0.009773786179721355,-0.15230746567249298,-0.1385706067085266,0.0600271075963974,-0.08745214343070984,0.20076076686382294,-0.08268970996141434,-0.054599300026893616,-0.1482250839471817,-0.10221073031425476,0.18646898865699768,0.06930495798587799,0.3558000326156616,-0.15328188240528107,0.25005075335502625,-0.23462197184562683,-0.05381367355585098,-0.22931735217571259,0.08776763081550598,-0.06023382022976875,-0.06987365335226059,0.09577992558479309,0.024607857689261436,0.37852999567985535,-0.13093748688697815,0.13746249675750732,-0.014566001482307911,0.11630398035049438,0.027574118226766586,0.03643089905381203,-0.24288581311702728,0.20235256850719452,-0.2209923416376114,0.013782165944576263,0.24211391806602478,-0.17232084274291992,-0.15750333666801453,0.15893037617206573,0.11124121397733688,0.09214390814304352,-0.11867138743400574,0.06811023503541946,0.019562702625989914,-0.2124095857143402,0.04747772216796875,0.9802498817443848,0.08268890529870987,0.6246381402015686,-0.8225647807121277,0.04639654979109764,-0.06861241161823273,0.47239071130752563,0.026907451450824738,0.03875218704342842,0.13701379299163818,-0.8430516123771667,0.3815024197101593,0.0501924492418766,-1.118324637413025,0.07034104317426682,-0.3346778154373169,-0.15940754115581512,-0.16908738017082214,0.02342255227267742,-0.4705091416835785,0.051900286227464676,0.12360695004463196,0.1498459279537201,-0.29606473445892334,-0.20317542552947998,0.05539526417851448,-0.12785391509532928,-0.02514975517988205,-0.04247083514928818,-0.05366833508014679,0.20562446117401123,-0.07589514553546906,-0.25084900856018066,-0.16057977080345154,0.1677575707435608,0.0925431102514267,-0.014211555011570454,0.09038979560136795,0.2405172735452652,-0.21520191431045532,-0.23058170080184937,0.06712226569652557,-0.2147175371646881,-0.3584864139556885,0.004957116208970547,0.06063371151685715,-0.16448259353637695,0.4049549400806427,-0.18692392110824585,0.13979212939739227,-0.33713817596435547,-0.31595379114151,-0.05384394899010658,-0.11444427073001862,-0.2676759362220764,0.08226875960826874,0.32310783863067627,-0.14464044570922852,0.011108807288110256,-0.2517770230770111,-0.23714140057563782,0.24633058905601501,-0.0751783475279808,0.06310291588306427,-0.19565549492835999,0.016277877613902092,-0.1395779848098755,0.20622406899929047,0.23289921879768372,0.2340065836906433,0.3226759135723114,-0.06756522506475449,-0.08270549029111862,-0.09877944737672806,0.12170006334781647,-0.46447616815567017,0.18676452338695526,-0.04783044755458832,0.5336186289787292,-0.26461905241012573,0.24323861300945282,-0.05981737747788429,0.0819629430770874,0.054318394511938095,-0.09086527675390244,-0.11788004636764526,0.3091481029987335,-0.24552035331726074,0.04812388867139816,0.35576698184013367,0.05509336292743683,0.09028401225805283,-0.16625145077705383,-0.4967655539512634,-0.2631933391094208,-0.009768527001142502,-0.2811558246612549,0.19277986884117126,0.3194398880004883,0.5415951609611511,-0.09253782033920288,0.24920380115509033,0.017536142840981483,0.012920862063765526,-0.05702357739210129,0.048259325325489044,-0.28690052032470703,0.19506023824214935,0.04422691464424133,0.07559621334075928,-0.19366803765296936,0.0893743708729744,-0.09021565318107605,-0.20445071160793304,-0.21732869744300842,-0.3861542344093323,-0.01905926875770092,-0.10484428703784943,0.09962055832147598,0.12120506912469864,-0.2531348764896393,-0.16046009957790375,0.03167938441038132,0.3121771514415741,0.009028172120451927,0.1773841232061386,-0.24095074832439423,-0.41092196106910706,-0.04889792576432228,0.19446803629398346,-0.08573704212903976,0.1405448168516159,0.04052215814590454,-0.14977186918258667,0.0862501710653305,0.42400887608528137,0.12731420993804932,0.1273157149553299,0.14444757997989655,0.5273331999778748,0.0011917368974536657,0.27301493287086487,0.07263607531785965,0.004491553641855717,-0.6468176245689392,0.10399279743432999,-0.3796428442001343,-0.14104445278644562,0.09583830088376999,-0.05547866225242615,-0.10655905306339264,-0.41822049021720886,0.2781831920146942,-0.1156550943851471,0.14894385635852814,-0.8962839841842651,-0.244895339012146,0.14309418201446533,0.336038202047348,0.25638189911842346,0.0726107805967331,0.17153646051883698,0.24188633263111115,0.117761991918087,-0.2700381875038147,0.12844668328762054,-0.0645972266793251,0.20989257097244263,-0.34523138403892517,-0.046140991151332855,-0.03400329500436783,-0.10342653840780258,0.4216448962688446,-0.3224436044692993,0.4190571904182434,0.0947054922580719,-0.41272780299186707,0.1908658891916275,-0.5038416981697083,-0.468905508518219,-0.1853702962398529,-0.011096439324319363,0.03696181997656822,-0.43428218364715576,0.5630128383636475,-0.06994691491127014,0.01536632515490055,-0.274231493473053,-0.42327287793159485,0.17230048775672913,-0.012125588022172451,-0.06317512691020966,-0.01834130845963955,-0.07390017807483673,-0.43537014722824097,-0.4721693992614746,-0.02873041294515133,-0.2610067129135132,0.05673443526029587,-0.2650947868824005,-0.1941939890384674,0.23080843687057495,0.2671225666999817,-0.020068956539034843,-0.40395087003707886,0.2926501929759979,0.1794399470090866,-0.24843817949295044,0.1179351732134819,0.23837274312973022,0.06767409294843674,0.09080929309129715,-0.22812871634960175,0.007674741558730602,-0.06449536979198456,0.08195307105779648,0.1624889224767685,0.5815178751945496,-0.12778805196285248,-0.12538255751132965,-0.2690517008304596,0.13713791966438293,-0.3190859854221344,-0.11310085654258728,-0.05780445411801338,0.12650389969348907,-0.3206011950969696,0.11456704139709473,0.1964349001646042,-0.092007577419281,-0.12685517966747284,-0.009640078991651535,0.09335708618164062,0.1388227492570877,0.34361669421195984,-0.17711418867111206,-0.5268842577934265,-0.026877511292696,-0.11834223568439484,-0.01422204077243805,0.2579251527786255,0.0005847141146659851,0.22876234352588654,0.4786875247955322,-0.10169710963964462,-0.1781018078327179,0.14355868101119995,0.24791666865348816,-0.20143458247184753,0.10985483229160309,-0.14592835307121277,0.16280913352966309,0.20627111196517944,0.03944263234734535,-0.1659543514251709,0.13406290113925934,-0.18528223037719727,0.0844307616353035,-0.4813131093978882,-0.48272353410720825,-0.1765982210636139,-0.3373379409313202,0.16869448125362396,-0.0795254185795784,-0.06715609133243561,-0.011355355381965637,-0.031868960708379745,-0.14014102518558502,-0.19710461795330048,-0.04196033626794815,0.27963435649871826,-0.056582387536764145,-0.33760541677474976,0.040339648723602295,0.09385541081428528,-0.047513384371995926,-0.1087794080376625,0.03299817442893982,-0.10955653339624405,0.2402806133031845,-0.2196744829416275,0.11424997448921204,0.1987013965845108,-0.029458023607730865,-0.016730699688196182,-0.06159760430455208,-0.06692298501729965,0.1659577637910843,-0.012009850703179836,-0.10887432843446732,-0.2511592507362366,0.01482551358640194,0.23493464291095734,0.6456186771392822,-0.02306019701063633,0.11242517083883286,0.08313200622797012,0.037985045462846756,0.10858950763940811,-0.193121999502182,0.3247436285018921,-0.24783681333065033,0.047304775565862656,0.0582922101020813,0.08453361690044403,0.1110742837190628,-0.046914875507354736,0.09772340953350067,0.03778496012091637,0.2774515151977539,0.2689787447452545,-0.12580057978630066,-0.05238043889403343,-0.12775924801826477,0.4433620572090149,0.2994655668735504,0.034333761781454086,0.011285181157290936,0.061596207320690155,0.11705633252859116,0.03363758698105812,0.1987278312444687,0.11619526147842407,-0.35592108964920044,-0.03751003369688988,-0.011584760621190071,0.4009917974472046,-0.1898053139448166,-0.15497618913650513,0.12178177386522293,-0.035773396492004395,-0.290658563375473,-0.14841271936893463,-0.03524845838546753,0.023451929911971092,0.3053491711616516,-0.1984073668718338,0.10334275662899017,0.0370718277990818,-0.18251530826091766,-0.6439217329025269,-0.02473938837647438,-0.12023869156837463,-0.22054080665111542,0.1577516347169876,-0.2562118172645569,0.11427281051874161,-0.051026176661252975,0.3352978825569153,0.19549226760864258,0.07109315693378448,-0.06358202546834946,-0.030175119638442993,-0.21084047853946686,-0.13433226943016052,0.19711436331272125,0.13784253597259521,0.11872749030590057,0.30595704913139343,-0.1441727876663208,-0.2612193524837494,-0.18926137685775757,0.1900138407945633,0.0078112040646374226,0.14008164405822754,-0.12228619307279587,0.016503043472766876,-0.26613277196884155,0.20828506350517273,-0.22327929735183716,-0.013411832973361015,-0.10330571234226227,0.13537076115608215,-0.25767195224761963,0.1102728322148323,-0.00694100558757782,-0.20030520856380463,0.13083837926387787,0.16224375367164612,-0.009450889192521572,-0.09488213062286377,-0.0456857793033123,-0.1534131020307541,-0.06981780380010605,-0.20925046503543854,-0.3271847069263458,0.07923611253499985,0.031389206647872925,0.02733016386628151,-0.01890517957508564,0.025315091013908386,0.0008983229054138064,-0.16102388501167297,-0.2919202148914337,-0.13558024168014526,0.28590813279151917,-0.2994787395000458,0.07255914807319641,-0.41592222452163696,-0.13640010356903076,0.1748778373003006,0.45879024267196655,0.05845251306891441,-0.05547238886356354,-0.317379891872406,-0.10569775104522705,0.05649448186159134,-0.08936896175146103,0.06434783339500427,-0.15265309810638428,-0.3198125660419464,-0.014660535380244255,-0.1866256147623062,0.28065064549446106,0.1350954920053482,0.18402470648288727,-0.1929011046886444,-0.09573611617088318,0.08878389745950699,0.1800970584154129,0.00017226816271431744,0.14453057944774628,-0.14923374354839325,0.17006614804267883,0.13465635478496552,-0.1791788935661316,0.22220894694328308,0.08570673316717148,0.13539458811283112,0.056391894817352295,-0.059423863887786865,-0.09090365469455719,-0.1695217490196228,-0.23091605305671692,0.1377015858888626,0.1231498122215271,0.0937558114528656,-0.005342444404959679,0.10391250252723694,0.189602792263031,-0.1292676478624344,-0.07582459598779678,-0.2650914490222931,0.3240572214126587,0.17070677876472473,-0.046250566840171814,-0.04296577349305153,-0.01706659607589245,0.11477891355752945,0.5439846515655518,0.2732071578502655,0.08605135977268219,0.046493738889694214,0.18386295437812805,0.1738303303718567,-0.08740214258432388,-0.016063693910837173,-0.03614808991551399,0.0827011838555336,-0.16313737630844116,-0.00731248501688242,0.1968190222978592,-0.0025039655156433582,0.13097545504570007,-0.1710469275712967,-0.18959105014801025,-0.04397571086883545,0.07377112656831741,0.030850671231746674,0.10229949653148651,-0.18677470088005066,-0.007262309081852436,0.12901288270950317,-0.29332658648490906,0.23710773885250092,0.07434636354446411,0.049497898668050766,0.047956157475709915,0.04485045745968819,-0.05602038651704788,-0.15008120238780975,0.1590629518032074,-0.2275727391242981,0.19256258010864258,0.194533109664917,0.466265469789505,0.2705579102039337,0.2340470254421234,0.14225497841835022,-0.20097872614860535,0.016932036727666855,-0.13948827981948853,-0.08039963990449905,-0.28297725319862366,-0.6678016185760498,0.027785999700427055,0.10998319089412689,0.27119868993759155,-0.022318504750728607,-0.07037748396396637,-0.18481053411960602,0.22058475017547607,0.25622817873954773,0.13148993253707886,0.07344049215316772,0.08526618778705597,-0.0985582247376442,0.19208481907844543,0.12796296179294586,0.16812065243721008,0.048859622329473495,0.19272606074810028,-0.206852987408638,0.05545478314161301,-0.13919880986213684,-0.4582410156726837,-0.19285650551319122,0.010623263195157051,0.003964136820286512,-0.0711224377155304,0.02852621115744114,-0.07430944591760635,-0.1074851006269455,-0.0747813954949379,0.11098688095808029,0.007994639687240124,0.1280704289674759,-0.2530694603919983,-0.07534608244895935,0.2487519532442093,-0.10296789556741714,-0.06142032891511917,-0.39600062370300293,0.10685082525014877,0.09108041971921921,-0.11630722880363464,-0.027858678251504898,-0.07566168159246445,0.029794728383421898,-0.12658825516700745,0.01655777171254158,0.04474062845110893,-0.18662555515766144,-0.0014418159844353795,-0.14453887939453125,-0.029935115948319435,0.18375565111637115,0.038535188883543015,-0.10041531920433044,-0.13381721079349518,0.14845521748065948,-0.03214534744620323,-0.2078634798526764,-0.4906143844127655,0.001652633654884994,-0.09257114678621292,0.0924985259771347,-0.23435649275779724,0.012060088105499744,-0.11721999943256378,0.028016308322548866,-0.27815666794776917,0.1719532161951065,-0.08083374053239822,0.16115233302116394,-0.1193186417222023,-0.10400979965925217,-0.08383512496948242,-0.17725981771945953,0.033266544342041016,0.13489864766597748,0.16402840614318848,0.04066615551710129,-0.07300736010074615,0.0019059976330026984,-0.028295328840613365,0.04713883623480797,0.13803553581237793,0.16195537149906158,-0.053171306848526,-0.02198377065360546,-0.11917045712471008,-0.1437014490365982,-0.22865626215934753,0.20828816294670105,-0.08592810481786728,0.14960810542106628,-0.04540053382515907,0.015140770934522152,0.08265633881092072,-0.07052362710237503,0.09901607036590576,0.008219634182751179,-0.2321457862854004,-0.02274010330438614,0.06516919285058975,0.2805171012878418,0.004574470221996307,-0.07679639756679535,-0.06874383985996246,-0.12325793504714966,-0.056556589901447296,0.2263779640197754,0.1278088241815567,0.23557554185390472,-0.18193508684635162,-0.1438291072845459,0.00882703997194767,0.2104678601026535,0.10640280693769455,-0.03490728139877319,0.06894943118095398,-0.12377794086933136,-0.046694669872522354,0.21191297471523285,-0.03204954043030739,0.031165944412350655,0.26812732219696045,-0.10464951395988464,-0.12624187767505646,-0.051300324499607086,0.015684029087424278,-0.11358901113271713,0.1395205706357956,-0.08079367130994797,0.03195478767156601,-0.2861625552177429,-0.17857882380485535,0.012860093265771866,0.4309806227684021,-0.010665176436305046,0.002060635481029749,0.39023104310035706,0.2938750684261322,0.1402074694633484,-0.10439760982990265,-0.03820999711751938,-0.38126832246780396,0.1860186606645584,-0.1623942106962204,-0.05422544479370117,0.184663787484169,-0.23341479897499084,0.06347586959600449,-0.2086021900177002,0.3388122320175171,-0.047478657215833664,-0.34311872720718384,-0.001356080872938037,0.11706114560365677,0.3472912907600403,0.09595605731010437,-0.00796261802315712,-0.11442951112985611,-0.08031954616308212,-0.00018277236085850745,0.014973736368119717,0.11730319261550903,0.23272638022899628,-0.11554405093193054,0.024911053478717804,-0.07997459173202515,0.38366323709487915,-0.086689293384552,0.042770370841026306,0.1536264568567276,-0.10134614259004593,0.0415174700319767,-0.10770983248949051,0.17572127282619476,0.14413276314735413,0.01636551506817341,0.04215392842888832,0.032569821923971176,-0.1768835186958313,0.16656599938869476,0.08714460581541061,-0.08885293453931808,-0.033574894070625305,-0.18663997948169708,0.026215383782982826,0.008902648463845253,0.0003697613428812474,-0.07161730527877808,0.03780621290206909,0.05883549898862839,-0.5206236243247986,-0.32462167739868164,0.08520853519439697,0.15171486139297485,0.12011128664016724,-0.12399955838918686,-0.16260157525539398,-0.17182253301143646,-0.2229488343000412,0.022490570321679115,-0.05886990949511528,-0.13092677295207977,0.07017012685537338,-0.24179668724536896,-0.061199720948934555,0.08422393351793289,-0.1370464563369751,-0.031807947903871536,0.06044584512710571,0.019353030249476433,0.07182803750038147,-0.16489824652671814,0.05816453695297241,0.01824072375893593,-0.06574521958827972,0.037273477762937546,-0.01929165981709957,0.21054993569850922,-0.018605677410960197,-0.06177826225757599,-0.05621227249503136,-0.08406344056129456,-0.06923829019069672,0.1996724009513855,0.15231849253177643,0.25105470418930054,0.018958374857902527,-0.013018663972616196,-0.1547224223613739,-0.1305290013551712,-0.08433254808187485,0.20316803455352783,-0.16651798784732819,0.18420648574829102,-0.06280537694692612,-0.10593284666538239,0.2417830526828766,-0.06824588775634766,-0.046262145042419434,-0.04950237274169922,-0.2009637951850891,0.04579801484942436,-0.09836030751466751,0.024516161531209946,-0.07261863350868225,0.16311785578727722,0.11271969228982925,0.020241251215338707,0.03566375747323036,0.305044025182724,0.0713341012597084,0.005546192638576031,-0.15496811270713806,-0.15211136639118195,-0.007211734540760517,0.29966652393341064,-0.08221357315778732,0.20188146829605103,0.18036410212516785,-0.0957692489027977,-0.05047626048326492,0.032874178141355515,-0.058065954595804214,-0.09765978902578354,0.11396878957748413,0.10673975199460983,0.02060149423778057,-0.064178466796875,0.022313212975859642,-0.0525122731924057,0.19682224094867706,-0.11453419923782349,-0.045656442642211914,-0.06577323377132416,0.06532978266477585,-0.13460445404052734,-0.07764112949371338,-0.052071452140808105,0.17732204496860504,-0.15265221893787384,-0.036716997623443604,0.11519479006528854,0.1259254664182663,0.02570623718202114,-0.13984839618206024,0.29431024193763733,0.7018482089042664,-0.11977407336235046,0.23264992237091064,-0.15951208770275116,0.09236681461334229,-0.021205510944128036,-0.04856619983911514,-0.0725092664361,0.05919729545712471,-0.1591811329126358,0.5820780396461487,-0.4120529890060425,0.008488991297781467,-0.09604896605014801,0.22609171271324158,-0.17693576216697693,0.26352962851524353,-0.1513407677412033,0.09091818332672119,0.23182860016822815,0.05596784129738808,-0.03565378114581108,-0.06715299189090729,0.027667513117194176,0.14029227197170258,-0.026539040729403496,-0.17120632529258728,0.10896769165992737,0.03532116115093231,0.09935834258794785,-0.12071231752634048,0.18625769019126892,-0.23931053280830383,0.08856754004955292,0.01295642089098692,-0.19380591809749603,0.02193143032491207,0.19958867132663727,0.0202877726405859,0.06212953105568886,0.10721468180418015,0.20936083793640137,-0.2960369288921356,-0.1250283122062683,-0.176375612616539,0.27281031012535095,0.04874911159276962,