{"version":"0.5.4","metadata":{"date":{"year":2025,"month":5,"day":18,"hour":7,"minute":28,"second":30},"loudness":-13.520711898803711,"gain":0.7475942799799982,"name":"APP-6505Plus-Scooped-Gain-5","modeled_by":"ampspedalspickups","gear_type":"amp","gear_make":"tz-make","gear_model":"tz-model","tone_type":"overdrive","input_level_dbu":13,"output_level_dbu":null,"training":{"settings":{"ignore_checks":false},"data":{"latency":{"manual":null,"calibration":{"algorithm_version":1,"delays":[-1],"safety_factor":1,"recommended":-2,"warnings":{"matches_lookahead":false,"disagreement_too_high":false}}},"checks":{"version":3,"passed":true}},"validation_esr":0.007698840716183018}},"architecture":"WaveNet","config":{"layers":[{"input_size":1,"condition_size":1,"head_size":8,"channels":16,"kernel_size":3,"dilations":[1,2,4,8,16,32,64,128,256,512],"activation":"Tanh","gated":false,"head_bias":false},{"input_size":16,"condition_size":1,"head_size":1,"channels":8,"kernel_size":3,"dilations":[1,2,4,8,16,32,64,128,256,512],"activation":"Tanh","gated":false,"head_bias":true}],"head":null,"head_scale":0.02},"weights":[-0.04711456969380379,0.6647112369537354,-0.8428941369056702,-0.8156369924545288,-0.20846404135227203,0.24730908870697021,-0.13373765349388123,0.8493350148200989,-0.09482298791408539,0.11261878162622452,-0.2849343717098236,-0.1925542801618576,-0.9849026799201965,-0.715842068195343,-0.6947664022445679,-0.007771996781229973,-0.10590261965990067,0.18832017481327057,-0.19784055650234222,-0.2794535160064697,0.1465129852294922,0.07876969873905182,0.17211295664310455,0.004009890835732222,0.02319088578224182,0.22381742298603058,0.02624288946390152,-0.08882532268762589,0.11256750673055649,-0.12547416985034943,0.006686499807983637,-0.07405795156955719,0.004154517315328121,-0.1073160171508789,0.14876225590705872,-0.1602889746427536,-0.01504064816981554,-0.08628767728805542,0.1637706458568573,0.014876297675073147,0.23558256030082703,-0.11480908840894699,0.12346583604812622,-0.318865031003952,-0.01077173464000225,-0.14189033210277557,0.29435521364212036,-0.003033410059288144,-0.003517596749588847,0.2041778266429901,0.0016287053003907204,0.1491875946521759,0.261322557926178,-0.08185736835002899,0.14570941030979156,0.12350933998823166,-0.07411400228738785,-0.06141434982419014,0.11951792985200882,-0.16013073921203613,0.1243097111582756,-0.13261361420154572,-0.27946412563323975,-0.22490966320037842,0.18757519125938416,0.20636962354183197,0.23930753767490387,0.21942302584648132,0.32131248712539673,0.3381386399269104,-0.29247260093688965,-0.27928730845451355,-0.13503381609916687,-0.06278308480978012,-0.10232191532850266,-0.06765424460172653,-0.12732663750648499,-0.3257618844509125,-0.15636232495307922,0.07962454110383987,0.08913349360227585,0.3115418553352356,-0.066350057721138,-0.4003850221633911,-0.19845367968082428,0.15560229122638702,0.2029404491186142,0.12490028142929077,-0.112193763256073,-0.2912825047969818,-0.13322240114212036,0.22609931230545044,0.29463085532188416,0.21882477402687073,-0.3209020793437958,-0.3193015158176422,-0.11791428923606873,-0.16718176007270813,-0.34753477573394775,-0.2883603870868683,-0.04283594340085983,-0.12743334472179413,-0.2535908818244934,-0.2144285887479782,-0.36278852820396423,-0.19317328929901123,-0.2979021966457367,-0.346606582403183,-0.20980246365070343,0.08661293238401413,-0.0853801742196083,0.06262877583503723,-0.21254897117614746,0.19913308322429657,0.034405872225761414,-0.2993670701980591,0.1082538291811943,0.10653364658355713,0.18389034271240234,-0.11626143008470535,-0.029797930270433426,0.17922590672969818,-0.21923398971557617,-0.0188941340893507,0.03147275745868683,-0.20973874628543854,-0.09890543669462204,-0.24140489101409912,0.06930779665708542,-0.04516487196087837,0.206033855676651,-0.021363483741879463,-0.15950070321559906,-0.17561689019203186,0.24878844618797302,0.06493236869573593,0.20042996108531952,-0.06949060410261154,0.004324433393776417,-0.06105954200029373,0.25110554695129395,0.13064919412136078,0.3065774440765381,-0.13230173289775848,-0.19693440198898315,0.11647855490446091,-0.016303518787026405,-0.1277843713760376,0.09476283192634583,-0.25784364342689514,-0.21891970932483673,0.04799194633960724,-0.17594245076179504,-0.0031040178146213293,0.25353026390075684,-0.2752997875213623,0.006310246419161558,-0.17093567550182343,-0.08800014108419418,-0.08060621470212936,-0.008088522590696812,0.07264643907546997,0.0944252759218216,-0.01682421751320362,0.03303391486406326,0.0835123136639595,-0.1578650325536728,0.005837968550622463,-0.22114180028438568,-0.10809376090765,0.07346140593290329,-0.1501534879207611,0.030634548515081406,-0.00952603854238987,-0.2341020703315735,0.19350168108940125,0.054755207151174545,0.03928086534142494,-0.044039513915777206,-0.20031124353408813,-0.08601471781730652,0.06600791215896606,0.16224992275238037,0.13818930089473724,-0.04177214950323105,-0.03744439408183098,-0.1574322134256363,0.05211653932929039,-0.050330039113759995,0.2018437683582306,0.012969503179192543,0.03144358471035957,-0.20997710525989532,-0.1178302988409996,-0.18521082401275635,-0.136826291680336,-0.17976859211921692,-0.0003157653845846653,-0.17900320887565613,-0.10199306905269623,-0.04845703765749931,-0.0021596807055175304,-0.21101787686347961,-0.15670780837535858,-0.1797693520784378,0.029972227290272713,-0.0767221450805664,0.09587447345256805,0.1333334743976593,-0.07980075478553772,-0.2780632972717285,0.21669599413871765,0.11030776798725128,-0.24849453568458557,-0.24285635352134705,-0.06528477370738983,0.10855121910572052,-0.3197776973247528,0.026576608419418335,0.10278142988681793,-0.2545740306377411,0.04882333055138588,0.2626148760318756,0.23029275238513947,-0.06613840907812119,-0.1608434021472931,-0.2660585641860962,-0.06170255318284035,0.20198069512844086,0.22540754079818726,0.08789113163948059,-0.10115278512239456,-0.22630643844604492,0.023583928123116493,0.30068454146385193,0.14671945571899414,0.15984204411506653,-0.3196488320827484,-0.30166199803352356,-0.03498328477144241,0.27122029662132263,-0.14141884446144104,-0.13876140117645264,0.1960521936416626,-0.16978590190410614,-0.22809600830078125,0.3239355683326721,-0.36005058884620667,-0.08315593749284744,0.19793803989887238,-0.32235798239707947,-0.06962273269891739,0.34213054180145264,0.13082195818424225,-0.06182882562279701,-0.161545991897583,-0.08611409366130829,0.08547715097665787,-0.16459591686725616,-0.054586466401815414,-0.03998849168419838,0.12264946848154068,0.022166842594742775,0.05929071456193924,0.020379021763801575,-0.09710066765546799,-0.08891651779413223,0.01033398974686861,0.06727642565965652,-0.011871305294334888,-0.09087523818016052,-0.02264782041311264,-0.1108764037489891,0.03844814375042915,-0.06542008370161057,-0.07902000099420547,0.16120843589305878,-0.041424840688705444,0.030529050156474113,0.06763426214456558,-0.018399948254227638,-0.10009148716926575,-0.08996528387069702,0.17223432660102844,0.06688989698886871,0.116613008081913,-0.09606093168258667,0.007985243573784828,-0.04541865736246109,-0.020107461139559746,-0.08500514924526215,0.011265579611063004,-0.006248337682336569,-0.05314437672495842,-0.06218884512782097,-0.13903047144412994,0.05020582303404808,-0.13736741244792938,0.010990110225975513,-0.09202326834201813,-0.09723389893770218,0.0008285104995593429,-0.2745235860347748,-0.24661937355995178,-0.004883663263171911,-0.017623867839574814,-0.11862755566835403,0.000993993948213756,0.17622004449367523,-0.18973605334758759,-0.07077949494123459,-0.14461137354373932,0.23150014877319336,0.0017350941197946668,-0.0661134347319603,0.2752266824245453,-0.020644856616854668,-0.10341904312372208,0.24764463305473328,-0.05023450404405594,0.09943641722202301,-0.18740928173065186,-0.01358044147491455,-0.03927749767899513,0.2967011332511902,0.07789304852485657,0.2032773643732071,-0.16621127724647522,0.13557884097099304,-0.1206452026963234,0.08609095215797424,-0.16423262655735016,0.23163093626499176,-0.11130281537771225,-0.04685313254594803,-0.04251597821712494,0.3064042627811432,0.21922266483306885,0.035162705928087234,0.2730514705181122,0.017881469801068306,-0.17097139358520508,0.30120179057121277,0.13415846228599548,-0.20807844400405884,0.31099218130111694,0.12360634654760361,-0.03559337556362152,0.09387389570474625,0.040085140615701675,-0.14094804227352142,-0.16337943077087402,-0.012712749652564526,0.11282352358102798,0.21074733138084412,0.07147054374217987,-0.12174563109874725,0.21019190549850464,-0.11068063974380493,0.10196700692176819,-0.2432243525981903,-0.15260504186153412,-0.04490704461932182,-0.033604010939598083,0.06860867887735367,0.19644106924533844,-0.018170932307839394,-0.12405303120613098,-0.1726301908493042,0.10888046026229858,-0.07166489213705063,0.16224001348018646,-0.21159477531909943,-0.05880192294716835,-0.2113286852836609,0.06839942187070847,0.13167832791805267,0.17599837481975555,-0.020475804805755615,0.11030664294958115,0.07616078853607178,0.09932909905910492,0.06272844225168228,0.19807952642440796,-0.08615116775035858,0.16994954645633698,0.17234811186790466,-0.011922480538487434,-0.061909887939691544,0.1375816911458969,-0.12715411186218262,-0.04658760130405426,-0.012452235445380211,-0.22688162326812744,-0.12240441143512726,0.1642117202281952,-0.04681651294231415,-0.34272080659866333,-0.2740249037742615,0.03905462473630905,0.15818116068840027,0.1500881016254425,-0.056613773107528687,0.139571413397789,0.15779075026512146,-0.07331298291683197,0.12078932672739029,0.0035286264028400183,-0.08018265664577484,0.07037045061588287,-0.18394529819488525,-0.048415858298540115,0.11811593174934387,-0.08399622142314911,-0.10977187752723694,-0.04884035885334015,0.029662704095244408,-0.03680393844842911,0.05301213264465332,0.0960768610239029,0.020251765847206116,-0.07439102977514267,0.11078089475631714,0.09013345092535019,0.09512924402952194,-0.17508293688297272,0.011460326611995697,-0.09126471728086472,0.02849784679710865,0.04805523157119751,-0.1190236508846283,-0.044431477785110474,0.10355978459119797,0.008593223989009857,-0.1726839244365692,-0.10605208575725555,0.015924768522381783,-0.21644343435764313,0.04400665685534477,-0.1420901119709015,-0.24126271903514862,-0.1640710085630417,-0.037687867879867554,0.0034890053793787956,-0.15585845708847046,0.2687259614467621,0.05953959375619888,0.04173969104886055,0.40958908200263977,-0.43130752444267273,0.14429384469985962,0.46210208535194397,-0.08298922330141068,0.08982321619987488,-0.4838498830795288,0.34140723943710327,-0.011635791510343552,-0.3253147304058075,0.11599920690059662,-0.05971219018101692,-0.5232884883880615,0.1398744434118271,0.006537668406963348,0.2527673840522766,-0.17375881969928741,0.07501727342605591,-0.28125321865081787,0.11636446416378021,-0.05525384843349457,0.3551752269268036,-0.16799764335155487,0.16433025896549225,-0.2837100028991699,0.1991485208272934,0.05975900962948799,0.22923600673675537,-0.3324342668056488,0.0663025751709938,-0.45661014318466187,0.2779768109321594,-0.11816317588090897,-0.41292712092399597,0.11272480338811874,0.0686240866780281,-0.402612566947937,0.32888489961624146,0.06991808861494064,-0.3096161186695099,0.23040767014026642,-0.06334108859300613,-0.4301069676876068,0.2408839911222458,0.052025675773620605,0.14164666831493378,-0.0069816564209759235,0.05706639215350151,-0.21910186111927032,0.13238583505153656,0.2526450753211975,0.018983395770192146,0.19678086042404175,0.25943297147750854,0.17327697575092316,-0.24661007523536682,-0.025117266923189163,0.032048653811216354,-0.28910547494888306,-0.09137328714132309,0.07184898108243942,-0.2591337561607361,-0.1679231971502304,-0.011421785689890385,0.28862717747688293,0.0933215543627739,0.16941694915294647,-0.2609710395336151,-0.2193792313337326,-0.10039559751749039,0.4126931428909302,0.12741325795650482,0.16345146298408508,-0.32054272294044495,-0.06801741570234299,-0.20614764094352722,0.21938028931617737,0.04218115657567978,0.24016021192073822,-0.34654220938682556,-0.12996411323547363,0.038758233189582825,-0.17109814286231995,-0.03131073713302612,-0.0010149158770218492,-0.4453181028366089,-0.25356325507164,0.10999143868684769,-0.3682760000228882,-0.23996615409851074,0.059969738125801086,-0.29658451676368713,-0.22153633832931519,0.11246226727962494,0.012068770825862885,-0.015298624522984028,0.01925782486796379,0.05588998645544052,-0.05110117420554161,0.03549123555421829,-0.24485492706298828,0.0858425498008728,-0.15065930783748627,0.059924617409706116,0.18653248250484467,-0.11278895288705826,0.2225758284330368,0.032917570322752,-0.055559806525707245,0.14041075110435486,0.11463426798582077,0.03496316447854042,-0.29931506514549255,-0.10646236687898636,-0.1458699107170105,0.1671564131975174,-0.08564809709787369,0.1540369689464569,-0.2246718555688858,-0.0649227723479271,0.06288564205169678,0.18176232278347015,0.1076008528470993,0.09145434200763702,-0.21025758981704712,-0.10066673904657364,-0.027792293578386307,0.29766348004341125,-0.02021940052509308,-0.165920689702034,0.23546674847602844,0.22771255671977997,-0.0583682656288147,0.0768958032131195,-0.08843482285737991,0.014812436886131763,0.18248847126960754,-0.0322856530547142,0.0050537604838609695,0.23986314237117767,0.15435227751731873,0.02171839401125908,-0.045983243733644485,-0.11828254163265228,-0.02993670664727688,0.1376146525144577,0.15689311921596527,0.06304387003183365,-0.2553480267524719,0.16663844883441925,0.13061466813087463,0.25358471274375916,-0.1623634696006775,-0.06233115866780281,0.02332126349210739,0.09564126282930374,-0.0694969892501831,0.05387221649289131,0.03532572463154793,-0.06867071241140366,-0.20093204081058502,0.020895030349493027,-0.015209635719656944,0.01546930056065321,0.06784014403820038,-0.06268459558486938,-0.07816515117883682,0.1597600281238556,0.06354531645774841,0.13119307160377502,0.07329104095697403,0.023936066776514053,-0.1813865453004837,0.17997412383556366,0.03766809403896332,-0.008679148741066456,-0.07434426993131638,-0.06875345855951309,0.2804109752178192,-0.032975632697343826,-0.13768698275089264,0.1148923709988594,0.050700828433036804,0.03560619428753853,0.1741529107093811,-0.02191932685673237,0.04892559349536896,0.0901559442281723,-0.09716638177633286,-0.11742211133241653,-0.17021793127059937,0.07063000649213791,-0.1336352378129959,-0.06330950558185577,0.03167419135570526,0.06646746397018433,-0.09608101844787598,0.10766997933387756,-0.12948602437973022,0.1286584883928299,-0.09368608146905899,-0.08508504927158356,0.08539120852947235,-0.036695923656225204,0.06646429747343063,-0.10172757506370544,-0.1207609474658966,-0.008452745154500008,0.04149298369884491,0.14035627245903015,-0.14683769643306732,0.01128465123474598,-0.04582322761416435,0.015969283878803253,0.0990465059876442,-0.12943962216377258,-0.052675049751996994,0.10876832902431488,-0.04075997322797775,0.15489764511585236,-0.04527644068002701,0.1264525204896927,-0.18861238658428192,-0.024054085835814476,-0.02051418274641037,-0.02141740545630455,0.027994507923722267,0.1436672806739807,-0.06887583434581757,0.003591337474063039,0.11916589736938477,-0.08892319351434708,0.13332998752593994,-0.07777046412229538,-0.06935444474220276,-0.009334025904536247,0.08095525950193405,0.012109062634408474,-0.10232803970575333,-0.14829368889331818,-0.011509288102388382,-0.07250889390707016,-0.08255911618471146,-0.04289409518241882,0.09743816405534744,0.15496642887592316,-0.041471660137176514,-0.1385115534067154,0.09196626394987106,-0.159323051571846,0.025680802762508392,0.008210046216845512,-0.12142565846443176,0.04051646590232849,-0.13553999364376068,0.06626985967159271,-0.11858201026916504,-0.025278456509113312,0.07905403524637222,0.20531070232391357,-0.041196878999471664,0.14641009271144867,-0.016063034534454346,-0.061242785304784775,-0.16470849514007568,-0.133371964097023,0.14600707590579987,0.022330155596137047,0.018201148137450218,0.03523795306682587,0.05195121094584465,0.13237501680850983,0.11790728569030762,-0.13994048535823822,-0.007655416149646044,-0.11470143496990204,-0.13576968014240265,0.02820194512605667,0.1253966987133026,-0.16429708898067474,0.08475268632173538,-0.08213497698307037,-0.07317044585943222,0.11805238574743271,-0.039197951555252075,0.02716512605547905,-0.2099856585264206,-0.010548258200287819,-0.15267369151115417,-0.2481393814086914,0.3524845242500305,-0.26598039269447327,-0.3953961730003357,0.13772428035736084,0.28700336813926697,0.23469455540180206,-0.07460761070251465,0.29294252395629883,0.37454652786254883,-0.21504074335098267,0.14076818525791168,0.21392998099327087,-0.2609517574310303,-0.15881651639938354,-0.149417445063591,0.2737704813480377,0.08540686219930649,0.24828478693962097,-0.22773155570030212,-0.06268700957298279,-0.33669838309288025,0.04554352909326553,0.15341810882091522,0.30231717228889465,-0.2875045835971832,-0.03683186322450638,-0.18793244659900665,0.05401388555765152,0.12997768819332123,0.38018798828125,-0.2688172161579132,0.11667724698781967,0.3239724338054657,-0.23413200676441193,0.24716351926326752,0.3488690257072449,-0.05344263091683388,0.0742572695016861,0.4197762608528137,-0.22876951098442078,0.3126625418663025,0.13452057540416718,-0.2722722887992859,-0.09834674745798111,-0.08792901784181595,0.1668727844953537,-0.13541294634342194,-0.11964438110589981,-0.33827832341194153,-0.33664941787719727,0.08023577183485031,-0.033381249755620956,-0.03738714009523392,-0.019891684874892235,0.15503425896167755,0.04804931953549385,-0.20748312771320343,0.07211444526910782,-0.012437925674021244,0.02308414690196514,-0.03922851383686066,0.5174424648284912,0.4021914005279541,-0.237139031291008,0.8911783695220947,-0.6166166663169861,-0.21195067465305328,0.9409594535827637,0.8199774026870728,-0.42982399463653564,0.21111427247524261,0.14549723267555237,-0.3192395269870758,-0.39792338013648987,0.30830204486846924,-0.7239230275154114,0.1825229823589325,0.567482590675354,-0.0687602162361145,0.10228493064641953,0.03154316544532776,-0.02336900494992733,0.3475341796875,-0.0854751318693161,0.25941306352615356,-0.008363557979464531,-0.010831265710294247,0.1996367871761322,0.020782215520739555,-0.08043916523456573,0.019350551068782806,0.04207298532128334,0.14625594019889832,-0.3602159023284912,-0.04794163629412651,-0.07921295613050461,-0.2795981764793396,0.17964866757392883,-0.15344613790512085,0.006002269685268402,-0.26033106446266174,0.149124875664711,0.00461383955553174,0.11240751296281815,-0.07720056921243668,0.05800298601388931,0.34984108805656433,-0.11862052977085114,0.027879511937499046,0.596148669719696,0.17023812234401703,0.21715909242630005,0.07448640465736389,0.17250986397266388,-0.21092228591442108,-0.05936771258711815,0.21593166887760162,-0.22119784355163574,0.0049951388500630856,-0.39397627115249634,0.25420159101486206,-0.2962009906768799,-0.00972038134932518,0.17632149159908295,0.02221023477613926,0.10660430043935776,0.11825809627771378,-0.15591004490852356,-0.17916077375411987,-0.058769579976797104,0.0755791962146759,-0.1448390930891037,-0.0765123963356018,-0.08420363068580627,-0.38952386379241943,-0.10722038149833679,-0.24097180366516113,0.18409471213817596,-0.06094992905855179,0.3983079195022583,-0.16035974025726318,0.06921544671058655,-0.19526439905166626,-0.1545429527759552,-0.2674449384212494,0.3034017086029053,0.3589595854282379,0.17977586388587952,0.19741211831569672,-0.09886721521615982,0.11295308917760849,0.25566643476486206,-0.10031221061944962,0.13672831654548645,-0.023207923397421837,0.11628185957670212,0.10208703577518463,0.056580476462841034,-0.3451259732246399,-0.2078193724155426,-0.04266711696982384,0.20099560916423798,0.3861047029495239,0.20552310347557068,0.19265948235988617,0.00015919015277177095,0.18293054401874542,0.3802465498447418,-0.3303004801273346,-0.014490916393697262,-0.15161201357841492,-0.044107310473918915,0.13006910681724548,-0.11474494636058807,-0.02303311787545681,0.15930403769016266,0.20292679965496063,0.10258879512548447,-0.2972813546657562,-0.291105717420578,0.12459681183099747,0.06768640130758286,0.13594043254852295,-0.5571340918540955,-0.035385794937610626,0.1677415817975998,-0.17414440214633942,-0.20707003772258759,0.060598891228437424,-0.08810479938983917,0.32287219166755676,0.24756455421447754,0.4817691445350647,-0.15669110417366028,-0.2594492733478546,0.22159330546855927,0.3423689007759094,-0.0536683090031147,0.1811816394329071,-0.096509650349617,0.3399534821510315,-0.34996888041496277,0.01283784955739975,-0.1229151114821434,-0.05944528803229332,-0.12297507375478745,-0.06398258358240128,-0.004191492218524218,-0.22694182395935059,-0.1895984709262848,0.17217539250850677,-0.07919105887413025,0.0562979094684124,-0.17511245608329773,-0.18515166640281677,-0.22885482013225555,0.15106216073036194,0.0864967629313469,-0.1456817388534546,-0.10869888216257095,0.1141979917883873,-0.01947331801056862,-0.11606639623641968,-0.21629898250102997,0.3303135931491852,-0.6101058721542358,-0.1812853217124939,0.03177657350897789,0.1410159468650818,-0.22115932404994965,0.11610675603151321,0.337101548910141,0.03931991755962372,0.0413067601621151,0.08145471662282944,0.12750984728336334,-0.3146205544471741,-0.07660328596830368,0.11545640230178833,0.2511677145957947,-0.20916828513145447,0.12245509028434753,-0.023138541728258133,-0.10305291414260864,0.09169061481952667,0.045555632561445236,0.04807319864630699,-0.1674536168575287,-0.15152008831501007,-0.04590218886733055,0.051993515342473984,0.06978954374790192,0.16420045495033264,0.19073612987995148,0.11568013578653336,-0.20304016768932343,0.29437562823295593,-0.17257528007030487,0.0063557615503668785,-0.09136175364255905,0.27786171436309814,-0.31339025497436523,0.07590178400278091,-0.22401832044124603,0.10832292586565018,-0.2500857710838318,-0.4011932909488678,0.06980293244123459,-0.2717061936855316,-0.36050036549568176,0.028507255017757416,0.12599331140518188,0.1447252333164215,0.031603001058101654,0.2152857631444931,-0.09179753065109253,0.15066693723201752,-0.07886455208063126,0.21429534256458282,-0.1881600320339203,0.023847538977861404,-0.03653434291481972,-0.03540840744972229,-0.18057861924171448,-0.0003697685315273702,0.14880132675170898,0.009142855182290077,-0.02620186284184456,-0.17708918452262878,0.2708895802497864,-0.04421328753232956,0.12000929564237595,0.2790875732898712,-0.108784019947052,-0.02077540196478367,-0.4982914924621582,0.08377885818481445,0.03148564323782921,-0.19906581938266754,-0.05597745254635811,-0.12635041773319244,0.1642053872346878,-0.286812424659729,0.36285823583602905,-0.2513740658760071,-0.11999307572841644,0.16561150550842285,-0.1112779974937439,-0.008104984648525715,0.10487580299377441,-0.3157546818256378,0.11366529017686844,-0.2176770120859146,0.07827811688184738,0.05236315354704857,0.3479495644569397,-0.1748264729976654,0.02852536179125309,0.27477163076400757,0.1546800583600998,0.34530824422836304,-0.011267850175499916,-0.19329732656478882,0.1090286448597908,0.16100673377513885,-0.054175857454538345,-0.09895657747983932,-0.23233599960803986,0.10754284262657166,-0.23272529244422913,-0.0821564719080925,0.1596880406141281,0.04525917395949364,-0.13024552166461945,0.25188514590263367,-0.23065921664237976,0.1613423377275467,-0.2682565748691559,-0.34026649594306946,0.0006210579304024577,0.20381680130958557,-0.08815343677997589,0.047244150191545486,0.07734435051679611,0.039064280688762665,0.15595465898513794,0.03314412385225296,-0.11213435977697372,0.11566291004419327,-0.050849974155426025,0.11549797654151917,-0.12564757466316223,-0.02503688633441925,0.046892937272787094,0.039260853081941605,0.06618405133485794,-0.058832958340644836,0.07842990756034851,0.3685997724533081,-0.19226787984371185,0.11588425934314728,0.027097761631011963,0.020050615072250366,0.15151150524616241,0.12221163511276245,0.24377277493476868,-0.07942521572113037,0.07168824970722198,-0.37266412377357483,-0.46906402707099915,0.28811442852020264,0.11690760403871536,-0.27797731757164,-0.09182517975568771,-0.10662070661783218,0.19938236474990845,-0.09381865710020065,-0.04165599122643471,-0.04321793466806412,-0.1382317692041397,-0.13994692265987396,0.17216260731220245,0.10417845100164413,-0.23059546947479248,-0.4146386384963989,0.02210243232548237,-0.20907503366470337,0.13197360932826996,0.06358643621206284,-0.2693583369255066,0.06294505298137665,-0.0898352563381195,-0.05638333782553673,0.3393765687942505,0.05671942979097366,0.1968711018562317,-0.19234353303909302,-0.0004884605878032744,0.018849806860089302,0.036086034029722214,-0.09761453419923782,-0.09234310686588287,-0.07090798765420914,0.2363053560256958,-0.43105828762054443,-0.16324259340763092,0.247768834233284,-0.09142075479030609,0.05705906078219414,0.0776461660861969,0.09280611574649811,-0.22970038652420044,0.2923602759838104,0.0711386501789093,-0.09344758093357086,-0.18672676384449005,-0.5087221264839172,0.056115519255399704,0.09220943599939346,0.26107195019721985,0.0980735570192337,-0.11543388664722443,-0.2773037552833557,-0.1471579223871231,0.08896454423666,0.23439669609069824,0.17257489264011383,-0.27506616711616516,-0.14106978476047516,-0.12981832027435303,0.09828465431928635,-0.0005818461067974567,0.12052341550588608,0.0810306966304779,-0.260696679353714,-0.04796864092350006,0.21656163036823273,-0.16381607949733734,-0.06798254698514938,0.16116556525230408,-0.1796242892742157,-0.2817453444004059,0.08293432742357254,0.04616433009505272,0.2705300748348236,-0.2614087164402008,-0.16039441525936127,-0.17531463503837585,0.12843993306159973,0.17793798446655273,0.23771294951438904,-0.2649005055427551,-0.0018678972264751792,-0.02286771684885025,0.03541109338402748,0.23028802871704102,0.08500862121582031,-0.1733984798192978,0.23327596485614777,0.07195980101823807,0.007387435995042324,-0.13095903396606445,0.041147101670503616,0.24747349321842194,0.11195115745067596,-0.39920371770858765,0.02818249724805355,-0.19150784611701965,-0.18414409458637238,0.32073819637298584,0.09576327353715897,-0.028273586183786392,-0.17734737694263458,-0.13468462228775024,-0.013483977876603603,-0.010748510248959064,-0.028283633291721344,-0.06792815029621124,-0.0723225399851799,0.060426633805036545,-0.27473947405815125,0.1986958533525467,0.1397593915462494,-0.10133739560842514,-0.20976223051548004,0.08689259737730026,0.011544398032128811,-0.07894287258386612,-0.01989455334842205,0.14129671454429626,-0.04558777064085007,-0.2139856517314911,0.011938578449189663,0.2897742688655853,-0.13168329000473022,-0.13484349846839905,0.17869959771633148,-0.07777128368616104,0.16055013239383698,-0.051647596061229706,0.2793995440006256,-0.18901602923870087,-0.11288896203041077,0.15401878952980042,0.1418026089668274,-0.1903379261493683,0.04458023980259895,0.029233520850539207,-0.2794652581214905,-0.22581368684768677,0.06988702714443207,0.08972353488206863,0.15029574930667877,-0.060401469469070435,0.08491666615009308,-0.3587299883365631,-0.10075264424085617,0.23351158201694489,0.28744596242904663,-0.014715629629790783,-0.06736884266138077,0.023890018463134766,-0.21898797154426575,0.2428404837846756,0.31206271052360535,0.05306129902601242,-0.1096930205821991,-0.06850362569093704,-0.22157032787799835,0.2819744944572449,0.2796846926212311,0.11600370705127716,-0.2610934376716614,0.2066686600446701,-0.07858376950025558,-0.26913008093833923,0.17987366020679474,0.17271831631660461,-0.026239721104502678,-0.11814132332801819,-0.10342980921268463,0.251645028591156,-0.19403986632823944,-0.10847865790128708,0.2690502405166626,0.1358441561460495,0.2840595543384552,-0.3679499924182892,-0.007320097181946039,-0.09177125245332718,-0.05046471953392029,0.012461596168577671,0.12845006585121155,-0.039287813007831573,0.12614308297634125,0.07567112147808075,-0.004292283207178116,-0.23333854973316193,0.0432179793715477,0.10298068821430206,0.08434445410966873,-0.36503639817237854,-0.09386498481035233,-0.08494419604539871,0.09195351600646973,0.30027642846107483,0.16917531192302704,0.03275492787361145,-0.19266708195209503,-0.20794762670993805,-0.1818866729736328,0.053547803312540054,0.19263067841529846,-0.0368313193321228,-0.16735981404781342,-0.22560259699821472,-0.24128684401512146,0.3775631785392761,-0.16505484282970428,-0.43577390909194946,0.03627799078822136,0.09690122306346893,-0.02269279584288597,-0.15887407958507538,0.05166732519865036,-0.15145312249660492,-0.12566189467906952,0.004647842142730951,-0.04610741138458252,0.10250728577375412,0.10623326897621155,-0.27273067831993103,-0.017317209392786026,-0.4014585316181183,0.37816321849823,0.017803873866796494,-0.10036168247461319,0.00713085662573576,0.02541176974773407,-0.14514000713825226,0.17460429668426514,0.08725333958864212,-0.1224796324968338,0.20642997324466705,0.06234614923596382,0.28507736325263977,-0.12717707455158234,0.08640459179878235,0.051994483917951584,-0.548481285572052,0.05393867939710617,0.22147652506828308,-0.3127424120903015,0.12372104823589325,0.15571647882461548,0.3060958683490753,-0.002399755408987403,0.13353663682937622,-0.23536914587020874,-0.09451485425233841,-0.013646372593939304,0.28027424216270447,0.12473433464765549,0.39695340394973755,-0.45676344633102417,-0.05219578742980957,0.17082731425762177,0.1469557285308838,0.09495050460100174,-0.048581212759017944,0.07056576013565063,0.1366392821073532,-0.021382363513112068,0.38629987835884094,-0.029130805283784866,0.02279093861579895,-0.26554253697395325,0.0038636247627437115,-0.010989828035235405,0.03120558336377144,-0.007070088759064674,0.07256762683391571,0.2221187800168991,-0.010437910445034504,-0.02406751550734043,0.143932044506073,0.36003175377845764,0.22512049973011017,-0.021046489477157593,-0.08931459486484528,-0.09585660696029663,-0.11392106115818024,-0.1984797865152359,0.3564469814300537,0.09666677564382553,0.17106272280216217,-0.20925453305244446,0.031801823526620865,0.11588851362466812,-0.5905086994171143,0.0006949364906176925,0.02523425966501236,0.4844041168689728,0.05189509689807892,-0.09417522698640823,-0.0823531299829483,0.1373526155948639,0.045774009078741074,0.49197715520858765,0.15871363878250122,0.3120077848434448,-0.27697911858558655,0.07031401991844177,-0.2550758421421051,0.3580768406391144,0.38875821232795715,0.31679442524909973,0.2000492662191391,0.16170747578144073,-0.17653076350688934,0.46869003772735596,0.05939644202589989,0.11248131841421127,-0.5502890348434448,-0.18630994856357574,-0.21098150312900543,0.04153771325945854,0.050870995968580246,0.23251813650131226,0.02738039940595627,0.1169564351439476,-0.3278938829898834,0.004809800535440445,0.05533447489142418,0.32944831252098083,-0.15796606242656708,-0.10344736278057098,-0.08743805438280106,-0.11941564828157425,-0.17181791365146637,0.004296355880796909,0.2352266162633896,-0.04380292445421219,-0.002110981848090887,-0.01594403199851513,-0.20936724543571472,0.23316693305969238,0.15641666948795319,-0.0848827064037323,-0.13552887737751007,-0.04232897609472275,-0.09536214172840118,0.31529417634010315,0.28837162256240845,0.11678721010684967,-0.160070538520813,0.01630965992808342,-0.0037684438284486532,0.15139637887477875,-0.21107396483421326,-0.5332499146461487,0.021683180704712868,-0.09252545237541199,-0.005011130589991808,0.18405869603157043,-0.3476617634296417,-0.10912252962589264,-0.08713813126087189,0.13129138946533203,0.21166358888149261,0.383124440908432,-0.05106201395392418,-0.051706213504076004,-0.09297282993793488,0.07729025930166245,0.07177663594484329,-0.11827447265386581,-0.07677415758371353,-0.12260553985834122,-0.1011316180229187,-0.0636812075972557,-0.12334045767784119,0.009561163373291492,0.12821826338768005,0.0670647919178009,0.052430808544158936,0.281616747379303,0.2776052951812744,0.1751960813999176,-0.12019310891628265,0.12113949656486511,0.030984364449977875,-0.007127256598323584,-0.1252061426639557,-0.06828589737415314,-0.08026312291622162,-0.07406637072563171,0.0648612231016159,-0.12007437646389008,-0.16626997292041779,0.12474605441093445,-0.02796000801026821,0.13097776472568512,-0.1576158106327057,-0.1887044906616211,-0.215993270277977,-0.13790321350097656,0.13657762110233307,0.07385315001010895,0.16934528946876526,-0.18728940188884735,-0.029554851353168488,-0.021553395316004753,-0.033662099391222,-0.10026025772094727,-0.13175249099731445,-0.21514345705509186,-0.22544944286346436,-0.030216950923204422,0.09218611568212509,-0.01008790172636509,-0.06411286443471909,0.2712227404117584,-0.062263455241918564,0.010679012164473534,-0.3447359502315521,0.19202718138694763,0.07926418632268906,-0.10133563727140427,0.07029879838228226,-0.08312554657459259,-0.03928429260849953,0.17127731442451477,0.00039140391163527966,0.2360343337059021,-0.029851309955120087,-0.12145295739173889,0.08019005507230759,-0.1507222205400467,0.12326661497354507,-0.09385746717453003,0.00564082246273756,-0.03436444699764252,-0.24544860422611237,-0.09820640832185745,0.16517390310764313,0.19438880681991577,0.26907986402511597,-0.018336089327931404,-0.20055106282234192,-0.07280874997377396,0.19896996021270752,-0.02755177766084671,0.13040640950202942,0.03602224588394165,0.07608935981988907,-0.18339991569519043,0.010834328830242157,0.2241724580526352,0.013676051050424576,-0.17185279726982117,-0.1126609668135643,0.1450338214635849,-0.058280862867832184,0.13665688037872314,-0.01859060674905777,0.08800367265939713,-0.19505706429481506,-0.17304392158985138,-0.10876774787902832,0.11318518221378326,0.11497994512319565,-0.1615476906299591,-0.39108163118362427,0.07252556830644608,0.012993589974939823,0.18040111660957336,-0.024770749732851982,0.18187856674194336,-0.18219460546970367,-0.05798908695578575,-0.06077749282121658,-0.09800446778535843,-0.0433092936873436,-0.1359221637248993,0.09579476714134216,0.07283840328454971,-0.098492331802845,0.02383790910243988,0.15573370456695557,0.20082668960094452,0.059352632611989975,0.10490788519382477,0.04757128283381462,-0.08942694962024689,-0.021479878574609756,0.18650305271148682,-0.04599746689200401,-0.16869764029979706,-0.11785987764596939,-0.003253169823437929,-0.05759643763303757,-0.00035914889303967357,0.26330292224884033,-0.004547614138573408,-0.17974409461021423,0.14540082216262817,0.0058688633143901825,0.11679352074861526,-0.04296259209513664,-0.0830853208899498,0.1117163598537445,0.04850204661488533,0.04325670376420021,-0.016673235222697258,0.06766358017921448,-0.10224523395299911,0.006171657703816891,0.22039489448070526,0.05503952503204346,-0.1714024543762207,-0.1879914402961731,-0.13661308586597443,-0.07137725502252579,-0.06666047871112823,0.39830878376960754,0.5208583474159241,-0.013737084344029427,0.02711012028157711,-0.05929894000291824,0.09680517762899399,0.02230079658329487,-0.0717717632651329,0.03512859344482422,-0.015036795288324356,-0.3216736614704132,-0.1845856010913849,0.06033127382397652,0.48238110542297363,0.19359974563121796,0.18456028401851654,-0.017481239512562752,0.05892549827694893,-0.12320328503847122,-0.014795850962400436,-0.3003678619861603,-0.047833748161792755,-0.21781165897846222,-0.12269046902656555,0.026262648403644562,0.07891099154949188,-0.15878847241401672,0.15018807351589203,-0.11967640370130539,-0.058900777250528336,0.09054097533226013,0.2454526573419571,0.10244106501340866,0.08990281820297241,0.10788358747959137,0.11549750715494156,0.0242143627256155,-0.05699152499437332,-0.07207193225622177,0.11367689073085785,0.060179226100444794,0.0124259227886796,0.19017080962657928,-0.1389167755842209,0.044508807361125946,-0.018843432888388634,0.06642164289951324,-0.06991690397262573,-0.08510413765907288,-0.204042449593544,-0.10680171847343445,0.010045552626252174,-0.05984172970056534,-0.055884331464767456,0.015304263681173325,0.028260936960577965,0.03369290009140968,0.021224861964583397,0.0834735706448555,0.31947261095046997,-0.1932983547449112,0.117878258228302,0.21170294284820557,0.014422357082366943,-0.0035145990550518036,-0.36128219962120056,0.014476604759693146,0.22581030428409576,0.24977008998394012,0.14183902740478516,-0.13607019186019897,-0.2453581541776657,-0.08941726386547089,0.007278211880475283,0.5246769785881042,0.08909238129854202,0.0426529198884964,-0.27391666173934937,-0.16866260766983032,0.06940720975399017,-0.21710988879203796,-0.16075605154037476,-0.02901441417634487,-0.327571839094162,-0.23384955525398254,-0.055856164544820786,0.35108616948127747,0.2155243158340454,-0.03732851892709732,-0.18546833097934723,-0.2304084151983261,0.1586276739835739,0.15254931151866913,0.36924469470977783,-0.09463438391685486,0.122941754758358,-0.2293257862329483,0.008771060965955257,0.0673503577709198,0.0602746419608593,0.056103069335222244,0.09364311397075653,0.1096993014216423,0.13061796128749847,-0.12334249168634415,0.0658092200756073,0.07725545018911362,-0.06959835439920425,0.03754333406686783,0.001241975580342114,0.009349772706627846,0.02382616512477398,0.0766657218337059,0.08724748343229294,-0.0788847878575325,0.021464265882968903,-0.061671894043684006,-0.12148769944906235,0.21960440278053284,0.11925941705703735,-0.014023108407855034,-0.18187931180000305,-0.16894298791885376,-0.17953233420848846,0.12313155084848404,0.002428686246275902,-0.12168062478303909,-0.07770370692014694,0.15323500335216522,0.09507177770137787,-0.21039453148841858,0.03797854855656624,-0.06730435788631439,-0.14361603558063507,-0.04452551156282425,-0.09279501438140869,0.16601556539535522,-0.2158338576555252,0.056688785552978516,-0.03768168389797211,0.011133948341012001,-0.14130447804927826,-0.2281782627105713,-0.008294801227748394,0.43828460574150085,-0.032705504447221756,0.0721905380487442,-0.05971214547753334,0.007999169640243053,0.05635970085859299,0.00508678937330842,-0.07157036662101746,-0.03753497079014778,-0.19327521324157715,-0.02195020206272602,-0.0855933278799057,0.4788079857826233,0.06828763335943222,-0.14978434145450592,0.02542218379676342,-0.014361063949763775,0.23344792425632477,-0.04968715459108353,-0.08822739869356155,-0.20071153342723846,-0.11658201366662979,0.1559111326932907,0.09313872456550598,0.05232242867350578,-0.0012473948299884796,0.16476093232631683,0.4589112102985382,0.1622508317232132,0.13983219861984253,0.20765872299671173,-0.03276650980114937,0.13361984491348267,0.018517587333917618,-0.10019262135028839,-0.1230994239449501,-0.0869963988661766,-0.18569684028625488,0.04852069169282913,0.05927645042538643,0.05596136674284935,-0.18538613617420197,0.010546382516622543,-0.15446068346500397,0.09779566526412964,0.1436305195093155,0.06837685406208038,0.1896982342004776,-0.025721313431859016,0.04883219674229622,0.10153890401124954,0.1662455052137375,-0.03635769337415695,0.004344251938164234,0.10299044102430344,-0.028738174587488174,-0.2299169898033142,-0.13670429587364197,-0.10591576993465424,0.13839556276798248,0.04585926979780197,-0.11925314366817474,0.051051754504442215,-0.12224165350198746,-0.04356154799461365,-0.1389041393995285,-0.18999150395393372,-0.19503186643123627,-0.2922620177268982,0.05582605302333832,0.1894666701555252,0.17932650446891785,0.1414743959903717,-0.16684949398040771,-0.12638568878173828,-0.15098635852336884,0.04505036026239395,0.07216662168502808,-0.13808050751686096,-0.0070868865586817265,0.1433493196964264,0.1298612356185913,-0.14676138758659363,0.051109377294778824,-0.07363449782133102,-0.04970663785934448,0.14388398826122284,0.22328346967697144,0.27247822284698486,0.059178054332733154,0.05625662952661514,-0.1403195559978485,0.11038549989461899,-0.24494820833206177,0.20976294577121735,0.34567123651504517,0.2581745684146881,-0.2884065508842468,-0.06278882920742035,0.1819150149822235,0.1146402359008789,0.03723854571580887,-0.13478949666023254,0.07124542444944382,-0.27044159173965454,-0.4122123122215271,0.08248911052942276,0.539154589176178,-0.32874929904937744,0.309344619512558,-0.8180649876594543,-0.21465060114860535,-0.59344482421875,0.873114824295044,-0.8282343745231628,-0.6296404004096985,-1.136870265007019,0.13945245742797852,-0.6901531219482422,0.38047441840171814,-0.6499183177947998,-0.2689012289047241,-0.242421954870224,0.1813770979642868,0.36619696021080017,0.3236420154571533,0.0420878566801548,-0.13584472239017487,-0.48333311080932617,0.0007970136357471347,0.011072239838540554,0.06124318018555641,-0.06592053920030594,0.029537837952375412,0.12644052505493164,-0.026625871658325195,0.04783705621957779,0.10294941812753677,-0.07001373916864395,-0.17502430081367493,-0.11497821658849716,-0.40990766882896423,0.37014323472976685,-0.08058496564626694,-0.06302069872617722,0.0879879742860794,-0.2923271059989929,0.16543804109096527,0.24757707118988037,0.06944839656352997,0.05450322851538658,0.1062280684709549,0.12315956503152847,-0.22401127219200134,-0.20166052877902985,-0.05248601362109184,0.18789580464363098,-0.17375299334526062,0.1132257729768753,0.11474650353193283,0.0822800025343895,-0.09862980246543884,-0.0659438744187355,-0.0620332732796669,-0.1679076999425888,-0.014125215820968151,-0.004902411252260208,0.20678012073040009,0.016089025884866714,0.21785105764865875,0.30577459931373596,-0.7085159420967102,-0.5959492921829224,-0.28326570987701416,0.09950858354568481,-0.5733288526535034,0.13451296091079712,-0.31210941076278687,0.0031508994288742542,0.32462164759635925,0.4109809100627899,0.5860381722450256,-0.3172473609447479,-0.28764984011650085,-0.11077453196048737,0.1801108866930008,-0.013412055559456348,-0.4789605438709259,-0.2281486690044403,-0.13117647171020508,-0.03756524994969368,0.06503504514694214,0.34246110916137695,0.1706642359495163,-0.012704288586974144,-0.24698181450366974,0.04017847403883934,-0.16587847471237183,-0.007097862660884857,-0.1030900627374649,-0.029686052352190018,-0.16731910407543182,0.021459074690937996,-0.4294382631778717,-0.08335141092538834,-0.13717316091060638,-0.3026071786880493,-0.03328493982553482,-0.2057526409626007,0.18189093470573425,0.1512296199798584,-0.25111323595046997,-0.45687511563301086,-0.23015356063842773,-0.13112926483154297,0.016011983156204224,0.05073109641671181,0.1191096231341362,-0.24787560105323792,0.34183168411254883,-0.0020536885131150484,0.024534571915864944,0.33325666189193726,0.10039756447076797,-0.26716136932373047,0.30169883370399475,0.05947766825556755,-0.20717045664787292,0.002176361856982112,-0.19859881699085236,0.12009771913290024,-0.0819663256406784,0.34083062410354614,-0.08754947781562805,-0.19554762542247772,0.5126546025276184,0.4678231477737427,0.3152163028717041,-0.2352280616760254,0.27563488483428955,-0.17366936802864075,0.14475004374980927,0.4077058732509613,-0.39396268129348755,0.008598696440458298,-0.35425567626953125,0.26239585876464844,0.28614699840545654,0.19443538784980774,-0.21165823936462402,0.1879698485136032,-0.1734561324119568,-0.2360139936208725,-0.14374302327632904,-0.30552932620048523,0.1888962835073471,-0.1835416555404663,0.08698128163814545,0.003085277508944273,0.19709987938404083,-0.022620029747486115,-0.1653873473405838,0.2612122595310211,0.06292132288217545,0.35259848833084106,-0.19517315924167633,0.0034289846662431955,0.07608218491077423,0.19276876747608185,0.23124432563781738,-0.306610107421875,-0.05275465548038483,0.029651978984475136,-0.223871648311615,-0.16283653676509857,0.292369544506073,0.31875190138816833,0.22911293804645538,-0.08435717970132828,0.10009781271219254,-0.212698295712471,-0.0629691630601883,-0.023573266342282295,-0.08295504748821259,-0.0047917915508151054,-0.0734175369143486,-0.08352088928222656,-0.04455457627773285,0.0015921794110909104,0.25657129287719727,0.3411381244659424,-0.21983827650547028,0.09521619230508804,-0.06144309043884277,0.1399642527103424,-0.03385106101632118,0.10029193013906479,0.12481296062469482,0.24485871195793152,-0.17272357642650604,-0.08103624731302261,-0.0875888243317604,-0.1268594115972519,-0.0018361429683864117,0.010219385847449303,-0.2044910043478012,0.07764274626970291,0.20227113366127014,0.04214883968234062,0.060168277472257614,-0.16143745183944702,0.09226130694150925,-0.2328186333179474,-0.09611242264509201,-0.3324914276599884,-0.0691356435418129,0.3317234516143799,-0.03653993457555771,-0.023582197725772858,-0.3648017942905426,0.26471278071403503,-0.03280330076813698,-0.08628199994564056,-0.35409677028656006,-0.43417540192604065,0.27912476658821106,-0.08836335688829422,-0.10609403252601624,0.08501792699098587,0.17585673928260803,-0.04028875380754471,-0.22172284126281738,0.19743630290031433,-0.3082955777645111,0.2615104913711548,0.12800589203834534,0.004456395283341408,0.18750356137752533,0.33725589513778687,0.013565213419497013,-0.10204160958528519,0.04133880138397217,0.21646615862846375,0.044878315180540085,0.06515534222126007,-0.2002958059310913,0.35843825340270996,0.0037182557862251997,-0.1694040447473526,-0.17857278883457184,-0.42544278502464294,0.21432317793369293,0.007673748768866062,-0.1477155238389969,0.09790898859500885,-0.12023381888866425,0.29482901096343994,-0.05932784080505371,0.1856117993593216,0.3322073519229889,0.19667403399944305,0.07104644179344177,-0.21989820897579193,-0.26206156611442566,0.10389005392789841,-0.3312888741493225,-0.06697326898574829,-0.1542309820652008,-0.03998000547289848,0.18468722701072693,-0.14693263173103333,0.2254118025302887,0.08792449533939362,-0.2372325360774994,0.13446301221847534,-0.23139458894729614,-0.2424130141735077,-0.06747233122587204,-0.007614786736667156,0.011026216670870781,-0.07394964247941971,-0.30376172065734863,0.004601954948157072,-0.03189297765493393,0.053635288029909134,0.10554922372102737,0.2867245078086853,0.08506710082292557,-0.11428088694810867,-0.06949686259031296,-0.4282693862915039,-0.09151306003332138,-0.10512719303369522,0.07962986081838608,-0.06535446643829346,-0.13360685110092163,-0.06470555067062378,-0.1647939532995224,-0.012158934026956558,-0.07428576797246933,-0.04897456616163254,0.10405533760786057,0.10435126721858978,-0.14558538794517517,-0.22340746223926544,-0.16874925792217255,-0.20457829535007477,-0.11560124158859253,0.12752799689769745,-0.02618676796555519,0.047456368803977966,-0.19612108170986176,-0.09861768037080765,0.07101321965456009,0.05849034711718559,0.10074814409017563,-0.0824131891131401,-0.2542618215084076,-0.027903804555535316,0.22878463566303253,0.3196185231208801,0.35421228408813477,0.05095907673239708,-0.16183330118656158,-0.10225609689950943,-0.007831708528101444,-0.02201191522181034,-0.0717640221118927,-0.1099783256649971,-0.17686796188354492,-0.09374920278787613,0.21098947525024414,-0.2605358064174652,-0.10567840933799744,-0.11036518961191177,-0.0504864864051342,0.010922041721642017,0.10332041233778,0.15521939098834991,-0.1686476469039917,-0.2098836451768875,0.06145284324884415,-0.0994008481502533,0.17294928431510925,0.01857328601181507,0.14114800095558167,-0.38484442234039307,0.29245883226394653,0.04034285992383957,0.00564791401848197,0.06399910151958466,-0.03071361593902111,0.03149276226758957,-0.01594843901693821,-0.007516894955188036,-0.005491399671882391,0.08617591112852097,0.41632798314094543,0.03515716269612312,0.15063105523586273,-0.12537921965122223,-0.032041117548942566,-0.21134699881076813,-0.10072935372591019,0.01239224337041378,0.4399562180042267,-0.08057772368192673,-0.1315194070339203,0.12861207127571106,0.01944769360125065,0.18553298711776733,0.27036887407302856,0.1636960506439209,-0.06683366745710373,0.010919037275016308,-0.09060616046190262,0.2700711190700531,0.027355125173926353,0.3475700616836548,-0.3480342924594879,0.09155823290348053,0.047171905636787415,-0.1971084326505661,0.28257912397384644,-0.17741075158119202,0.10923600941896439,0.1085921972990036,-0.030565738677978516,0.11569760739803314,-0.01962408423423767,0.09304968267679214,-0.0265379436314106,0.2554793655872345,-0.02042369917035103,-0.09141276776790619,0.30272504687309265,0.032363131642341614,0.05317018926143646,-0.34931859374046326,-0.16218872368335724,0.12801308929920197,-0.036524541676044464,-0.33123382925987244,0.033784978091716766,0.14179383218288422,0.0840345174074173,0.18017728626728058,0.10536017268896103,0.08527126163244247,-0.05853305757045746,-0.05208904668688774,0.36575502157211304,-0.03317658230662346,0.10472394526004791,-0.08682949095964432,-0.053802236914634705,-0.06628238409757614,0.20679150521755219,0.014166588895022869,0.030990181490778923,0.03674805164337158,-0.1362120807170868,-0.152323916554451,-0.0009798905812203884,0.12745051085948944,0.34068822860717773,-0.1666412204504013,0.027162492275238037,0.10511571913957596,-0.08531331270933151,-0.03378866985440254,0.18211401998996735,-0.33504167199134827,-0.22613592445850372,-0.24718159437179565,-0.004176006186753511,0.1640302687883377,-0.2135404497385025,-0.02403317764401436,0.31055423617362976,0.011830157600343227,0.12234597653150558,-0.15209046006202698,0.18451115489006042,0.1446690857410431,-0.21203018724918365,0.0635358914732933,0.020650021731853485,-0.0015874099917709827,0.09582887589931488,-0.1756979525089264,-0.18125541508197784,-0.05454211309552193,-0.0960482805967331,-0.119424007833004,0.23929299414157867,0.03091520071029663,-0.18376748263835907,-0.0338786244392395,0.20078152418136597,0.2646205723285675,0.19272103905677795,0.0022086782846599817,-0.039261214435100555,-0.1886564940214157,-0.025160301476716995,0.033002112060785294,0.18438254296779633,0.04734012857079506,-0.1288306713104248,0.03792845085263252,-0.10861532390117645,0.04485456645488739,0.022208398208022118,-0.0929441973567009,0.11200980097055435,0.28298020362854004,-0.059121109545230865,-0.041386719793081284,0.27608707547187805,-0.242919459939003,-0.03550082445144653,-0.16609302163124084,0.04469127207994461,0.1956038922071457,0.15528438985347748,-0.37704336643218994,-0.15470649302005768,-0.17774535715579987,0.16737522184848785,0.12201971560716629,-0.09999772906303406,0.06590159237384796,0.04035181924700737,0.08341114968061447,0.2958129048347473,-0.20433096587657928,-0.16578099131584167,0.06595079600811005,-0.06034296005964279,0.11717195808887482,0.07251324504613876,0.18959157168865204,-0.31478115916252136,-0.15248413383960724,0.15368136763572693,-0.02458859421312809,-0.5294868350028992,0.005713062360882759,-0.1590394377708435,-0.09422154724597931,0.15408571064472198,0.22273148596286774,0.06949636340141296,-0.037550415843725204,-0.21887628734111786,-0.03842144086956978,0.1619979292154312,0.17591547966003418,0.15506847202777863,-0.222397118806839,-0.19619311392307281,-0.0917346179485321,0.0038834998849779367,-0.21964319050312042,-0.05126437544822693,0.20132000744342804,-0.15989981591701508,0.0837334617972374,0.23367956280708313,0.19209542870521545,-0.1470278948545456,-0.2457403689622879,0.05184732750058174,0.09597648680210114,-0.005612208507955074,0.1168530285358429,-0.2175162136554718,-0.016639847308397293,-0.09418302029371262,-0.13456566631793976,-0.11551409959793091,-0.19292527437210083,-0.2165629118680954,0.09672031551599503,0.17611685395240784,-0.02961615100502968,0.08697505295276642,0.6339524984359741,-0.33401480317115784,0.10019739717245102,-0.041512615978717804,0.1020587831735611,0.10593771934509277,0.14749865233898163,0.17581835389137268,0.1577981859445572,-0.04919121786952019,-0.11158838868141174,-0.11068546772003174,-0.16585272550582886,0.15772037208080292,0.0464196503162384,0.10906361788511276,-0.048232343047857285,-0.0536988265812397,-0.16875526309013367,0.11318787187337875,0.04755571484565735,0.25014692544937134,-0.15392252802848816,-0.05502646416425705,0.007313186768442392,-0.056630417704582214,0.04029972851276398,-0.11646094918251038,0.061531733721494675,-0.10402372479438782,0.17731572687625885,0.11227869242429733,0.11560871452093124,0.043206460773944855,-0.09496156871318817,0.07483143359422684,-0.006087956950068474,-0.07274436950683594,0.031109165400266647,0.012484898790717125,-0.1656893789768219,0.007293330039829016,0.050906527787446976,0.44090721011161804,-0.14015623927116394,0.02775990217924118,0.12442120164632797,0.08930595964193344,0.38285234570503235,0.20029157400131226,0.04396648332476616,-0.06398400664329529,-0.09986717998981476,0.01543968915939331,0.2000357061624527,-0.15646743774414062,0.10353034734725952,-0.01170880626887083,0.11465392261743546,0.2803938388824463,-0.048344407230615616,0.09148616343736649,-0.18212680518627167,-0.22622258961200714,0.020058901980519295,-0.022235119715332985,0.028355438262224197,0.04921866953372955,-0.08562265336513519,-0.2752743363380432,0.09620557725429535,-0.09595246613025665,-0.09756239503622055,-0.07255963236093521,0.10268127918243408,-0.21883758902549744,0.23757460713386536,-0.050735026597976685,0.22477231919765472,-0.07727769017219543,-0.035295505076646805,-0.18951332569122314,0.1531902253627777,-0.21483632922172546,0.17853562533855438,-0.06964176893234253,0.13383230566978455,-0.06737049669027328,0.11222663521766663,-0.007989243604242802,-0.11893527209758759,-0.17800889909267426,-0.2116042524576187,-0.07254207134246826,-0.0051611317321658134,-0.07487878203392029,-0.2800728678703308,0.0046484023332595825,0.12191497534513474,-0.038966551423072815,-0.0026337855961173773,0.20054693520069122,-0.17791150510311127,0.2917129695415497,0.05154164135456085,-0.12792864441871643,0.0123051842674613,-0.2621775269508362,-0.08466646820306778,0.2405717521905899,-0.13550981879234314,0.13034531474113464,-0.14495129883289337,-0.052382275462150574,0.025782812386751175,0.12410518527030945,-0.05592384934425354,-0.20650392770767212,-0.03446368873119354,-0.30343762040138245,-0.0538613386452198,-0.18775615096092224,0.04780755564570427,0.2049531489610672,0.14671581983566284,-0.5004041790962219,-0.1377796232700348,0.0300757959485054,0.027332235127687454,-0.10467854887247086,-0.1419866979122162,-0.09243399649858475,0.1684631109237671,-0.20066572725772858,0.1835280954837799,-0.11027134209871292,0.018769845366477966,-0.05627518892288208,0.07081584632396698,0.09112215787172318,-0.03175150603055954,-0.20167958736419678,0.04565993696451187,0.0450407974421978,0.08598721027374268,0.059451330453157425,0.6173650026321411,-0.05787992849946022,-0.0777181088924408,-0.056210435926914215,-0.02263280376791954,-0.258870005607605,0.08166816085577011,0.040777239948511124,-0.18089589476585388,0.1093900129199028,0.15165460109710693,0.000984870013780892,0.05550811439752579,-0.04764210432767868,0.023480404168367386,-0.08838935941457748,0.1588100641965866,0.10690511763095856,-0.07182671129703522,-0.2641308903694153,0.3051616847515106,-0.15460631251335144,-0.05207134410738945,-0.035898953676223755,0.13988733291625977,0.18754573166370392,-0.021025879308581352,-0.01839856244623661,0.07634150236845016,-0.009838107973337173,-0.0853566825389862,0.0013056522002443671,-0.2600526213645935,-0.42237427830696106,0.1330755352973938,0.15311630070209503,0.15019696950912476,0.13022316992282867,-0.0648832842707634,-0.003195508848875761,-0.13240794837474823,-0.01562351081520319,-0.09818337112665176,-0.4603699743747711,-0.06719837337732315,0.004286819603294134,-0.37955647706985474,1.147404670715332,-0.7991443872451782,-0.1789584904909134,-0.24242204427719116,-0.2223719209432602,0.019164739176630974,-0.425391286611557,-0.15905602276325226,0.13812470436096191,0.172967329621315,-0.22843191027641296,0.26244449615478516,-0.026254307478666306,-0.03781382367014885,0.044239141047000885,0.034220434725284576,-0.0670146495103836,0.07371845096349716,0.22340154647827148,-0.0776996985077858,-0.4029209017753601,-0.19408206641674042,-0.47880932688713074,-0.0617438443005085,-0.20565180480480194,-0.03446127846837044,-0.0030260588973760605,0.4599464535713196,-0.44187813997268677,0.11616482585668564,-0.19327841699123383,-0.20930840075016022,-0.20529501140117645,0.11828335374593735,0.11698117852210999,0.19776701927185059,0.017569784075021744,0.044102106243371964,0.24228888750076294,0.053014956414699554,0.03802148252725601,-0.10107450932264328,-0.03774802014231682,0.1681899130344391,0.23251473903656006,-0.24233125150203705,0.004230902064591646,-0.0409143827855587,0.0972868949174881,-0.1950649619102478,0.20923036336898804,0.09091180562973022,-0.21465051174163818,-0.05209479480981827,0.23579643666744232,-0.03341443091630936,0.14193563163280487,0.060232650488615036,-0.07064497470855713,-0.1846543550491333,0.0821525901556015,0.15470562875270844,0.2647472321987152,-0.01229073666036129,-0.023316193372011185,-0.11670485138893127,-0.12713459134101868,0.20575973391532898,0.2948451042175293,0.004664935637265444,0.0043741511180996895,0.2925063371658325,-0.21214696764945984,-0.17808657884597778,0.10352436453104019,-0.03707287088036537,-0.348189115524292,-0.18807262182235718,-0.15388278663158417,0.09009850025177002,0.11983169615268707,0.0014291721163317561,0.1238572746515274,0.07741312682628632,-0.11754687130451202,0.05787060409784317,0.13698364794254303,-0.2645822763442993,0.09973938018083572,-0.3490273058414459,0.1386917531490326,-0.03918551653623581,-0.028875455260276794,-0.0656079426407814,0.17222876846790314,0.384309858083725,0.007247806992381811,0.07686598598957062,0.026231199502944946,-0.07094474881887436,0.1815214902162552,0.37955528497695923,-0.1210612878203392,-0.058941345661878586,-0.027251727879047394,0.1472472846508026,0.03709631413221359,-0.12679889798164368,0.12534646689891815,-0.23727598786354065,0.05815676227211952,-0.204616516828537,-0.046748872846364975,-0.008318348787724972,0.011995930224657059,0.09737110882997513,0.028726493939757347,-0.13075394928455353,-0.04654276743531227,-0.048096537590026855,-0.29232171177864075,0.16985315084457397,0.02340243197977543,0.010351413860917091,0.05081398785114288,-0.06765928119421005,-0.1370428055524826,-0.255148321390152,-0.10077774524688721,-0.06666188687086105,0.18075887858867645,0.007792365737259388,0.053461313247680664,-0.1361844688653946,-0.014286955818533897,-0.05712630972266197,-0.025518199428915977,-0.16333499550819397,-0.115141361951828,0.10942406952381134,0.3207930326461792,0.16363739967346191,0.07213068753480911,0.2669806480407715,-0.13264401257038116,-0.15862101316452026,-0.06232525035738945,0.21063199639320374,-0.13966286182403564,0.10268505662679672,-0.0065541621297597885,-0.12002138793468475,-0.11017747968435287,-0.22588707506656647,-0.00755735207349062,-0.2488325983285904,-0.03729187324643135,0.0014992181677371264,0.09819496423006058,0.12414266169071198,-0.016915829852223396,0.033455461263656616,-0.07689400017261505,0.14110364019870758,-0.030034324154257774,-0.24572211503982544,-0.2163279801607132,0.11100015044212341,0.15231063961982727,0.056029800325632095,-0.3088749051094055,-0.12736773490905762,-0.19424010813236237,0.11487182229757309,-0.04380268231034279,0.0923258438706398,-0.13862864673137665,-0.040977708995342255,0.030914921313524246,0.21064689755439758,-0.028238313272595406,-0.1010163277387619,0.2979142665863037,0.09026364237070084,-0.10867267847061157,-0.16916441917419434,-0.11984540522098541,0.027570214122533798,-0.0728113129734993,0.025265628471970558,0.04195711016654968,0.04959585517644882,-0.16482262313365936,0.0725097730755806,0.04659970849752426,-0.055699389427900314,-0.11061953753232956,-0.12400297820568085,0.02542972005903721,-0.10399994254112244,0.1356438249349594,0.003290217835456133,-0.07393999397754669,-0.05825206637382507,-0.0360434465110302,0.20691634714603424,0.12486028671264648,0.011160696856677532,-0.17392869293689728,-0.060772135853767395,0.08789055794477463,0.16301539540290833,0.10623032599687576,-0.1172558143734932,0.034895580261945724,0.15916839241981506,0.11251406371593475,-0.15124572813510895,0.08071410655975342,-0.15736429393291473,-0.14384742081165314,-0.21684439480304718,-0.09225579351186752,0.029194843024015427,-0.24555367231369019,0.047176774591207504,0.11959663033485413,0.09851843118667603,0.21966281533241272,0.025446120649576187,-0.07253757119178772,-0.08301415294408798,0.0434720553457737,-0.22384712100028992,-0.1024414673447609,0.01590481773018837,0.24658456444740295,-0.08782987296581268,-0.01748567633330822,0.14074252545833588,-0.0469670444726944,-0.4542524218559265,-0.11332739144563675,-0.09843388199806213,0.014653562568128109,0.1483394205570221,-0.0503835529088974,-0.03781462088227272,-0.09620901942253113,0.12581215798854828,0.1101340726017952,0.06087841838598251,0.2752718925476074,-0.01100363302975893,-0.03063143976032734,-0.0183282271027565,0.13677187263965607,-0.09151647984981537,0.041210807859897614,-0.33264487981796265,-0.11475717276334763,-0.5306600332260132,0.2424401193857193,-0.04044206067919731,-0.16934292018413544,0.1689751148223877,-0.007445827592164278,0.46608418226242065,0.1318400651216507,0.06650634855031967,0.10096239298582077,-0.09932639449834824,0.008357387967407703,-0.14228664338588715,0.011279869824647903,-0.17286710441112518,0.03138985112309456,0.19933556020259857,-0.31982213258743286,0.11323731392621994,0.2697487473487854,0.06043793261051178,0.1808638572692871,0.055487167090177536,-0.028959445655345917,0.05134018138051033,-0.0780671164393425,0.19083847105503082,-0.7292830944061279,-0.06797550618648529,-0.059035368263721466,0.05873880162835121,0.15511304140090942,-0.05126050114631653,-0.07919695973396301,0.09502062201499939,-0.13844162225723267,0.00164646259509027,0.1376723051071167,0.0248317401856184,-0.048053570091724396,-0.05326099693775177,-0.27335289120674133,-0.19660481810569763,0.10722637176513672,-0.03540046140551567,0.1408984214067459,-0.050168175250291824,-0.3814712166786194,0.07929819822311401,0.19635158777236938,-0.27759334444999695,0.10757798701524734,-0.012061327695846558,-0.130544975399971,-0.1681567281484604,0.09698601067066193,-0.0698130801320076,-0.08410041034221649,0.04042937234044075,0.3553212583065033,-0.0017724644858390093,0.10542099922895432,-0.130209818482399,0.16062873601913452,-0.10166937857866287,-0.09268715232610703,-0.04230763018131256,0.07540586590766907,0.265669047832489,0.18265968561172485,-0.021684085950255394,-0.10557602345943451,0.15566256642341614,-0.07284288853406906,0.087417371571064,-0.2608441114425659,-0.5050875544548035,0.8183446526527405,0.3777834475040436,-0.3957103192806244,0.19034786522388458,-0.26354122161865234,0.007411555387079716,0.6729562282562256,-0.7887229323387146,0.8743418455123901,0.6576424241065979,-0.02704622969031334,-0.4335857927799225,0.14227169752120972,-0.6925684213638306,0.15469281375408173,-0.07685455679893494,-0.01206539198756218,-0.4166320562362671,0.39310991764068604,0.0978294163942337,0.35699859261512756,0.08849506825208664,0.20943906903266907,0.17369194328784943,0.018852651119232178,0.20666423439979553,-0.33298006653785706,-0.15764498710632324,0.017002519220113754,-0.12089353799819946,0.21198327839374542,-0.11497509479522705,-0.06252352148294449,0.2206324338912964,0.09411424398422241,0.17472657561302185,-0.073509082198143,-0.386774480342865,-0.4160228371620178,-0.11497223377227783,-0.08986139297485352,-0.5577311515808105,0.1739010512828827,0.2448749542236328,0.1579924374818802,0.030327778309583664,0.07699542492628098,-0.36657941341400146,0.030608633533120155,-0.30379951000213623,0.3391701877117157,0.18681231141090393,-0.007868737913668156,-0.1250993013381958,-0.12754204869270325,-0.11812044680118561,-0.4529077112674713,0.3380875885486603,0.22339026629924774,-0.4011840522289276,0.23434078693389893,0.12897846102714539,0.3750723898410797,-0.1340378075838089,0.2909163236618042,-0.1541939526796341,-0.16104891896247864,0.2706736624240875,-0.2893967926502228,0.31967464089393616,0.07984814047813416,-0.15815246105194092,0.14880266785621643,0.1157723069190979,0.14326108992099762,0.13522009551525116,0.2567988634109497,-0.12760597467422485,0.05973263457417488,-0.1428261548280716,-0.0940636396408081,-0.10224554687738419,0.4906753897666931,-0.08282235264778137,0.05909041315317154,-0.2395353615283966,0.1585632860660553,0.16349229216575623,-0.7893937826156616,-0.10211984813213348,-0.1912146508693695,-0.3855177164077759,0.047956936061382294,0.045904189348220825,-0.4090898633003235,0.1106758713722229,0.2924535274505615,-0.2880025804042816,-0.014237514697015285,-0.15366798639297485,0.33398571610450745,0.32165446877479553,-0.0021625948138535023,-0.01202307641506195,0.22546900808811188,0.4316173791885376,0.13206394016742706,0.33714190125465393,0.27465441823005676,-0.023110749199986458,0.007018434815108776,0.02202310785651207,-0.19677835702896118,0.0454338937997818,0.3826727569103241,-0.09274791181087494,0.06841591000556946,-0.033271174877882004,-0.13640840351581573,0.17910435795783997,0.09460221976041794,0.1901492178440094,0.09996422380208969,0.12303317338228226,0.21578633785247803,0.1909763664007187,0.07695059478282928,0.3260760009288788,-0.2667181193828583,-0.009847484529018402,0.49680426716804504,-0.15561360120773315,0.0343574583530426,-0.10720814764499664,0.04177677631378174,0.2796396017074585,-0.12871591746807098,-0.008495296351611614,0.07849195599555969,0.08530011028051376,-0.0065437485463917255,-0.05401482805609703,-0.309874027967453,0.4489319324493408,0.06886044144630432,0.06178059056401253,0.40387091040611267,0.03553228825330734,-0.17002032697200775,0.08489638566970825,-0.18209831416606903,0.2099561244249344,-0.08929184079170227,-0.008371754549443722,-0.31548675894737244,-0.0514536090195179,-0.0333263985812664,-0.1226242259144783,0.333989679813385,-0.12020344287157059,-0.16049812734127045,0.3108406960964203,-0.07117999345064163,0.018554409965872765,-0.1398470401763916,-0.47934773564338684,0.008788546547293663,-0.02143813483417034,0.14527375996112823,-0.02087765745818615,-0.10772039741277695,-0.20340602099895477,0.2949402332305908,-0.04531046375632286,0.2100614756345749,0.036483753472566605,-0.47511881589889526,-0.3105855882167816,0.3466232717037201,-0.33296653628349304,0.27679014205932617,-0.1482979655265808,0.22116145491600037,0.07221255451440811,-0.6376798152923584,-0.053019434213638306,-0.08779841661453247,-0.36259573698043823,-0.2570263147354126,0.3278171122074127,0.43894368410110474,0.02109178528189659,0.01323341391980648,-0.08667459338903427,-0.01465513464063406,0.22476349771022797,0.3595304787158966,0.0726170614361763,0.04819563031196594,-0.2157297134399414,-0.22170865535736084,0.24153032898902893,-0.35112494230270386,-0.5460951328277588,0.10763050615787506,0.04405875876545906,-0.3427696228027344,-0.27487996220588684,-0.025108452886343002,-0.10816137492656708,0.4085187017917633,0.27429163455963135,-0.13272416591644287,-0.24658417701721191,0.12467615306377411,-0.056193605065345764,-0.32837051153182983,0.1458149552345276,0.09047593921422958,0.07901909202337265,0.17810432612895966,-0.03163519874215126,-0.05975505709648132,-0.003951886668801308,-0.26534396409988403,-0.1475590020418167,0.05952437222003937,-0.07211910933256149,0.2095177322626114,0.03819788992404938,0.0852721706032753,-0.0038109642919152975,0.0012311657192185521,-0.040828887373209,-0.16012942790985107,0.11014406383037567,-0.15425798296928406,0.08513906598091125,0.05339647829532623,0.3871374726295471,-0.013539496809244156,-0.03704756125807762,-0.3737381398677826,0.00030563020845875144,0.23655949532985687,-0.22786939144134521,0.08412230759859085,0.14514495432376862,0.19160400331020355,0.5210903286933899,-0.21619659662246704,0.15442702174186707,0.1210794597864151,-0.22986671328544617,-0.23591406643390656,-0.05384735390543938,-0.06422742456197739,-0.27213796973228455,-0.1388571709394455,-0.2025143802165985,-0.03133003041148186,-0.27207979559898376,0.12411175668239594,0.3616601526737213,0.16748864948749542,0.4095388352870941,-0.11553668230772018,-0.03921779245138168,-0.40287744998931885,0.072150319814682,0.07614733278751373,0.0545053668320179,0.015521489083766937,0.12385090440511703,-0.24116002023220062,0.07679953426122665,0.06364063918590546,-0.13311423361301422,-0.27796247601509094,0.020082062110304832,0.12269455194473267,0.23035337030887604,0.0994696393609047,0.016818029806017876,0.11051759868860245,0.05888586491346359,-0.10284373164176941,-0.1630949079990387,0.11742190271615982,0.10427502542734146,0.025023816153407097,0.01375353243201971,0.06641796231269836,-0.11222594231367111,-0.3109196424484253,-0.19300799071788788,-0.055196378380060196,0.26949918270111084,-0.06135571002960205,-0.11210718750953674,-0.1384618729352951,0.39505594968795776,0.22913077473640442,0.3013530671596527,0.24693217873573303,-0.02150573581457138,-0.16971832513809204,-0.11602309346199036,0.22451993823051453,-0.016406789422035217,0.022612906992435455,-0.06617114692926407,-0.09590915590524673,-0.11474275588989258,-0.07841580361127853,0.07431074231863022,-0.08037842810153961,-0.011683433316648006,-0.010449318215250969,-0.1118779107928276,-0.25435858964920044,-0.06294319778680801,-0.21712952852249146,-0.014083577319979668,-0.1075311228632927,0.14401468634605408,0.0765811949968338,-0.3075146973133087,0.06970570981502533,-0.05062660947442055,-0.3667945861816406,-0.01468223799020052,0.24214039742946625,-0.012815473601222038,0.12073158472776413,0.0068248361349105835,-0.32790064811706543,-0.019650978967547417,-0.15251211822032928,0.03727160766720772,-0.11849170178174973,-0.09689542651176453,0.07777956128120422,-0.16889865696430206,0.11827361583709717,-0.17315223813056946,0.09597255289554596,0.005178545136004686,-0.05996163189411163,0.22349011898040771,-0.17795464396476746,-0.09122844785451889,-0.24668282270431519,0.04695099592208862,0.1323377639055252,0.03723003715276718,-0.0974305123090744,0.02162114717066288,-0.22933639585971832,-0.025043288245797157,0.08470777422189713,-0.005345391109585762,0.1748100221157074,-0.04046167433261871,-0.082023486495018,0.07456997036933899,0.07313322275876999,0.17739856243133545,0.08070208877325058,-0.3027436435222626,-0.06869856268167496,-0.022538721561431885,-0.0074356477707624435,-0.28442972898483276,0.04017050936818123,0.06733379513025284,-0.2555124759674072,0.07241934537887573,0.5722633004188538,0.1291302889585495,0.4405112862586975,-0.3624632954597473,-0.1724594682455063,-0.2573353946208954,0.2295728325843811,0.16892240941524506,0.08784613758325577,-0.33206209540367126,-0.07822197675704956,-0.0731174424290657,-0.22981761395931244,-0.15402182936668396,-0.03186257928609848,0.20931752026081085,0.0241013765335083,-0.16051116585731506,-0.1565726399421692,0.01900576427578926,-0.1208115890622139,0.26900628209114075,0.15801267325878143,0.1430138647556305,-0.2832537293434143,-0.0532057099044323,-0.08771182596683502,-0.2968173027038574,-0.008563495241105556,0.036705829203128815,-0.09334641695022583,-0.031230349093675613,-0.07266703248023987,0.21996112167835236,0.04804743453860283,0.1039276123046875,-0.28227201104164124,-0.20703263580799103,-0.20980879664421082,0.06326412409543991,-0.00320420041680336,0.01607261225581169,-0.08416660130023956,0.059113871306180954,0.10694519430398941,-0.22381092607975006,0.24027428030967712,-0.015774106606841087,-0.018492305651307106,-0.11216817796230316,0.11465710401535034,0.23100051283836365,-0.055144697427749634,-0.020878050476312637,0.05397415533661842,-0.031068647280335426,0.1565980166196823,-0.0128208938986063,0.13680438697338104,0.11525742709636688,-0.2152749001979828,0.06517529487609863,0.04516904056072235,0.11548919975757599,0.11298222839832306,0.10955526679754257,-0.12242891639471054,-0.13266485929489136,-0.4487428367137909,0.005266033113002777,0.10019055008888245,0.009066339582204819,-0.08361201733350754,-0.17841736972332,-0.3634733259677887,0.0861930102109909,-0.02619631588459015,-0.13343943655490875,-0.24592962861061096,-0.15283098816871643,0.017923608422279358,0.24921801686286926,0.08163021504878998,0.3112492561340332,-0.11407976597547531,0.07763037830591202,0.045900508761405945,0.1941806823015213,-0.05190451443195343,0.2276090830564499,-0.17433449625968933,0.17042866349220276,0.23462799191474915,-0.18086838722229004,-0.002384764142334461,0.07948458194732666,0.10541495680809021,-0.17357014119625092,-0.09562554210424423,-0.027571752667427063,0.44503578543663025,0.23917075991630554,-0.20333188772201538,-0.015770025551319122,-0.1305505484342575,0.29914742708206177,-0.16240736842155457,0.17847561836242676,-0.04716692492365837,0.2191125750541687,0.07317285239696503,-0.1198376715183258,0.031568314880132675,0.041355427354574203,-0.4554135203361511,-0.0639910027384758,-0.026554737240076065,0.27233225107192993,-0.14710497856140137,0.0028365307953208685,0.2385759800672531,0.17804254591464996,0.35471010208129883,-0.0779588595032692,-0.35618820786476135,0.034098781645298004,-0.11052769422531128,0.07904494553804398,-0.08718390017747879,-0.09260024130344391,0.13317787647247314,0.47806447744369507,0.06493432819843292,0.12486542016267776,0.07378792762756348,-0.29069581627845764,-0.12574726343154907,0.07738500833511353,-0.02906126156449318,-0.2820778489112854,-0.01197247114032507,0.172438383102417,-0.12633851170539856,0.10068248212337494,-0.22973674535751343,0.07866647094488144,0.3411683738231659,-0.27366483211517334,0.12822549045085907,-0.10758420079946518,-0.15404601395130157,-0.1783933788537979,0.07440262287855148,0.05379282683134079,-0.0597977340221405,0.25260332226753235,0.00679094810038805,0.18048374354839325,-0.005938885733485222,-0.11768446862697601,0.36591053009033203,0.023815535008907318,-0.054432086646556854,-0.017770132049918175,-0.19004693627357483,0.4868648052215576,-0.09879688918590546,0.20928266644477844,0.10612975060939789,0.17095525562763214,0.18312150239944458,-0.07937128841876984,-0.08688762784004211,0.11007390171289444,-0.01620233617722988,-0.04177117720246315,0.00653688982129097,-0.1732497662305832,-0.1686735898256302,-0.10175629705190659,-0.30098778009414673,0.10524311661720276,-0.1105857789516449,-0.04388918727636337,-0.06749661266803741,0.04645966738462448,-0.34450793266296387,-0.10062485933303833,0.014947129413485527,-0.01398320309817791,-0.26481369137763977,-0.11764663457870483,-0.37599870562553406,0.2173416018486023,0.09773359447717667,0.05199605971574783,-0.03187285363674164,-0.04312099516391754,0.04177660122513771,0.03558456897735596,0.006101960316300392,-0.11189767718315125,0.09241338819265366,0.1534501165151596,-0.05159970372915268,-0.20074981451034546,-0.17138271033763885,-0.2941044867038727,-0.04565655440092087,0.1433974653482437,-0.08416488021612167,0.0155105572193861,-0.05877036973834038,0.12456145882606506,-0.0315035842359066,-0.01929398626089096,-0.17136555910110474,-0.16714511811733246,-0.3215891718864441,0.5640881061553955,-0.03030957281589508,0.2348100244998932,-0.12811389565467834,-0.12269613891839981,-0.07895807921886444,0.26480814814567566,0.17045171558856964,0.15451669692993164,-0.04863671958446503,-0.15772645175457,-0.29319220781326294,0.04851120710372925,0.16150857508182526,-0.01987370289862156,-0.17133170366287231,0.05249587446451187,0.13951286673545837,-0.29324573278427124,-0.07499734312295914,0.08741156756877899,-0.042247191071510315,-0.18280120193958282,-0.0730544701218605,-0.24983076751232147,-0.1523258239030838,-0.2868954837322235,0.030323686078190804,0.16559752821922302,0.039025306701660156,0.06727077811956406,-0.046591080725193024,-0.06383512169122696,0.05841541290283203,-0.26933473348617554,-0.03736672177910805,0.2387208491563797,-0.08449628204107285,0.1825004518032074,-0.14525246620178223,0.2676490545272827,-0.0671425461769104,-0.27534759044647217,0.079840749502182,-0.11959836632013321,-0.08611174672842026,-0.09283975511789322,0.17199906706809998,-0.16471171379089355,-0.028383716940879822,-0.10758047550916672,-0.044720329344272614,-0.22987155616283417,-0.2514733076095581,0.21992598474025726,-0.0016777177806943655,0.01612643338739872,-0.31809526681900024,-0.14078611135482788,-0.22904880344867706,0.22383080422878265,0.1419961005449295,0.08478030562400818,0.22085575759410858,0.1938108205795288,-0.02047615870833397,-0.19157758355140686,0.0956636592745781,-0.2736837863922119,0.0926244780421257,-0.0436718575656414,0.2517157793045044,-0.08823013305664062,0.027748828753829002,0.23386548459529877,-0.09386596828699112,0.06979292631149292,-0.05489322915673256,0.2639520466327667,-0.09596142172813416,-0.16695578396320343,0.22696058452129364,0.002742620650678873,0.08055058866739273,-0.1945539265871048,-0.1601260006427765,-0.047863900661468506,-0.07613389194011688,0.010143273510038853,0.20896746218204498,-0.08471335470676422,-0.09662865847349167,-0.15344440937042236,0.06275966018438339,-0.04654741659760475,-0.20307134091854095,-0.16216005384922028,-0.21611542999744415,-0.03911428526043892,0.09074360132217407,0.16604013741016388,0.13200688362121582,-0.29376518726348877,-0.028838247060775757,-0.1376074105501175,0.09997089952230453,0.19881382584571838,0.06281063705682755,-0.33178213238716125,0.06632985919713974,0.01902337372303009,0.051573656499385834,-0.20677821338176727,0.027726737782359123,0.17799022793769836,-0.1216585636138916,0.09985685348510742,-0.12852297723293304,0.13009433448314667,-0.14916926622390747,-0.041540056467056274,-0.10078319162130356,0.18440726399421692,0.11818639934062958,0.14772231876850128,-0.20005106925964355,-0.07684534788131714,0.13986024260520935,0.13931386172771454,-0.007867948152124882,-0.036449823528528214,0.04557238146662712,0.08700476586818695,-0.38286781311035156,0.02679476886987686,0.0972951203584671,0.2609657347202301,0.3691094219684601,-0.48216164112091064,0.0710306316614151,-0.12156475335359573,-0.016473522409796715,0.4474335014820099,-0.005383837968111038,-0.021360931918025017,0.13060784339904785,0.11183919757604599,0.10596877336502075,-0.20150984823703766,-0.0252645555883646,0.03827715665102005,-0.29869866371154785,0.09255573153495789,-0.017039932310581207,-0.1749698519706726,-0.03105846978724003,-0.00823977217078209,0.10703272372484207,0.10462953895330429,-0.0031611775048077106,-0.10925814509391785,0.07998324185609818,-0.15793782472610474,0.2540552020072937,0.6752445101737976,0.030576325953006744,-0.08914647251367569,0.07858908921480179,0.19708497822284698,0.09362799674272537,-0.031059715896844864,0.11180329322814941,0.15729837119579315,-0.08073464035987854,0.14429393410682678,-0.13630537688732147,-0.20227521657943726,0.1838923841714859,0.13933615386486053,0.3376767635345459,-0.012389298528432846,-0.2950732111930847,-0.38634875416755676,-0.1075190007686615,0.06981965899467468,0.3131735622882843,-0.17409642040729523,0.232650026679039,0.08072055131196976,-0.08421184867620468,0.04945266991853714,0.027298543602228165,0.02639526128768921,0.09054891020059586,-0.08562753349542618,0.005193615797907114,-0.08914835751056671,0.06265028566122055,0.04612048715353012,0.095965176820755,-0.2814435660839081,-0.018420005217194557,-0.20541492104530334,0.13143159449100494,-0.05394600331783295,0.16002872586250305,-0.1691422164440155,0.23860883712768555,0.05576316639780998,-0.18355821073055267,-0.0053935302421450615,0.028287166729569435,-0.11642675846815109,-0.029644550755620003,0.059185367077589035,0.06341992318630219,0.014863121323287487,-0.2653232514858246,0.036879993975162506,0.1698940247297287,0.19852086901664734,0.05005659908056259,-0.24643577635288239,0.03966900333762169,0.03900371119379997,0.03405473008751869,-0.15234333276748657,-0.252651184797287,0.13301588594913483,-0.2023869752883911,-0.28973695635795593,0.17252880334854126,0.12811008095741272,-0.07839027047157288,-0.3424641489982605,0.13648216426372528,0.0028267833404242992,-0.2791622579097748,-0.15167845785617828,0.48923105001449585,-0.015261657536029816,0.11195161938667297,-0.05209539085626602,-0.1795576959848404,-0.26749083399772644,0.11627882719039917,0.25497692823410034,0.17454609274864197,-0.13049085438251495,0.13410253822803497,-0.08354950696229935,-0.10253509879112244,0.17622676491737366,0.10840217024087906,0.039172060787677765,-0.14699822664260864,0.31774890422821045,0.004821901209652424,-0.08673489093780518,0.20965959131717682,0.0005192810785956681,0.038827065378427505,-0.12287020683288574,-0.11009316891431808,0.33544468879699707,-0.04942045360803604,-0.07139081507921219,0.15241847932338715,0.022797994315624237,0.0010286342585459352,-0.2901853919029236,0.18379461765289307,0.07544852048158646,-0.256778359413147,-0.2155880630016327,-0.08489419519901276,0.09870479255914688,-0.02250421792268753,0.10339979827404022,-0.07592247426509857,0.08977663516998291,-0.19422996044158936,0.07277762144804001,-0.0856517031788826,0.1346631795167923,-0.265865683555603,0.04341878741979599,-0.08153916150331497,-0.16096390783786774,-0.03487354889512062,0.10264621675014496,-0.3445212244987488,-0.14552931487560272,0.07595021277666092,0.19914855062961578,-0.02030515857040882,0.06132649630308151,-0.3206956684589386,-0.19893492758274078,-0.09985505789518356,0.2888902723789215,0.05887892097234726,0.0912296324968338,-0.06917579472064972,0.23899351060390472,0.1220850944519043,-0.12212208658456802,0.10404220223426819,0.02546222321689129,-0.13015930354595184,-0.10110902041196823,0.02363923192024231,0.20530179142951965,0.2512648105621338,-0.005223591811954975,0.08195393532514572,-0.10106827318668365,0.13727372884750366,-0.050481222569942474,-0.12529653310775757,0.1465122103691101,-0.028828250244259834,0.2135157734155655,-0.33140048384666443,-0.13322998583316803,0.18176282942295074,-0.01938617415726185,-0.0654212161898613,0.023943953216075897,-0.29987236857414246,0.3884001076221466,-0.23037822544574738,0.18567506968975067,0.17228826880455017,-0.2937721312046051,0.3850966691970825,0.014231286011636257,-0.2135487049818039,0.05421680584549904,-0.08837855607271194,0.14179763197898865,-0.0437341071665287,0.1953815370798111,0.23086920380592346,0.43697839975357056,-0.03661974519491196,0.2626778483390808,-0.13830479979515076,-0.00564973708242178,-0.022645695134997368,0.07260401546955109,-0.22334370017051697,-0.07348936796188354,0.04132374748587608,0.14689187705516815,-0.08472773432731628,-0.24580007791519165,0.5934329628944397,0.16271772980690002,-0.1916026920080185,0.02004113793373108,0.03935829922556877,0.17775686085224152,0.02436155453324318,-0.14793138206005096,-0.17028118669986725,0.0597955621778965,0.11537159979343414,0.1838112473487854,0.041718125343322754,0.14655722677707672,0.11405051499605179,-0.13415512442588806,0.03039088472723961,-0.009015712887048721,-0.03718629851937294,-0.06409774720668793,0.06990069895982742,0.02047697827219963,0.02982434257864952,-0.09393901377916336,0.22402246296405792,0.0727289468050003,0.2670895755290985,0.41542553901672363,-0.012760174460709095,0.148543119430542,0.41801878809928894,-0.025849541649222374,0.005786850582808256,-0.22735120356082916,-0.08141060173511505,-0.23426319658756256,0.08520323038101196,0.24714940786361694,-0.0030635434668511152,-0.28091830015182495,-0.019966695457696915,0.1107746958732605,-0.08568380773067474,-0.2246875762939453,0.04223249480128288,0.032826948910951614,-0.35434845089912415,0.17502720654010773,0.25488144159317017,-0.08806760609149933,0.5013328790664673,-0.05001689866185188,-0.1792987436056137,0.034795425832271576,0.1763213723897934,-0.17259617149829865,0.1184348538517952,0.011715041473507881,0.13617119193077087,0.12769876420497894,0.00046503584599122405,0.1401549130678177,0.004699472803622484,0.14035183191299438,-0.10027559101581573,0.1026734709739685,0.12629704177379608,-0.18847419321537018,-0.22699086368083954,-0.20772616565227509,0.13753770291805267,0.059247106313705444,-0.1631377786397934,-0.24915023148059845,-0.02096537873148918,-0.08529898524284363,-0.11574464291334152,-0.07102903723716736,-0.16471995413303375,-0.2585384249687195,-0.04872341826558113,0.18052366375923157,-0.14835847914218903,0.16635648906230927,-0.05942270904779434,0.1236344650387764,-0.10158313810825348,0.08215013146400452,-0.12524162232875824,0.009254812262952328,0.05838111415505409,-0.042314838618040085,0.1469569206237793,0.1005156859755516,0.3243960440158844,0.28277158737182617,-0.038824550807476044,-0.09174241870641708,-0.30845651030540466,0.03275000676512718,0.2317124903202057,-0.06064470857381821,0.15868312120437622,-0.11115708202123642,0.37616443634033203,0.08050917088985443,-0.07256729155778885,-0.16126151382923126,0.11727164685726166,0.20726469159126282,0.1767929494380951,-0.07550761103630066,0.046796251088380814,0.13830876350402832,-0.052878208458423615,0.05349290743470192,0.8275279402732849,0.12892575562000275,0.5685245990753174,-0.9605599641799927,-0.4153253436088562,0.2376365065574646,0.35701802372932434,-0.08463647961616516,0.3219730257987976,0.35222747921943665,-0.7230778336524963,0.3422490358352661,0.012049284763634205,-0.7337765097618103,0.05693783611059189,-0.36184677481651306,-0.18661446869373322,-0.3604489266872406,-0.09651228785514832,-0.47193026542663574,0.04550999030470848,0.38667434453964233,0.050585560500621796,-0.4210551381111145,-0.13299205899238586,0.022237101569771767,-0.09186167269945145,-0.021495437249541283,-0.24046114087104797,-0.15529415011405945,0.21250301599502563,0.05343335494399071,-0.13953061401844025,-0.04216776788234711,0.15076538920402527,0.15226241946220398,0.014060869812965393,-0.2690695822238922,-0.04019965976476669,-0.0850621685385704,-0.12033974379301071,-0.3300412893295288,-0.4178169071674347,-0.1409001499414444,0.0049474649131298065,-0.0010797531576827168,0.17199330031871796,-0.19065873324871063,-0.04512082412838936,0.1476418375968933,-0.21018603444099426,-0.27083373069763184,0.04662299528717995,-0.14667949080467224,-0.3301301896572113,0.34155967831611633,0.23128806054592133,-0.23288331925868988,-0.12673306465148926,-0.318585604429245,-0.07324147969484329,0.09493253380060196,0.05588255077600479,0.27502137422561646,-0.02936534956097603,-0.07187525182962418,0.0031642571557313204,0.3582547605037689,0.2372535765171051,0.28424039483070374,0.27066725492477417,0.1533384621143341,-0.27257511019706726,-0.25280213356018066,0.022682148963212967,-0.07352079451084137,0.2187187373638153,0.18822716176509857,0.09146717935800552,-0.2181341052055359,0.2022448033094406,-0.10556028038263321,-0.05919443443417549,0.050663553178310394,0.07640740275382996,0.0296801645308733,0.23750382661819458,-0.06328967958688736,0.21208003163337708,0.24816769361495972,0.2293204963207245,0.1469292789697647,-0.22163979709148407,0.07132420688867569,-0.4022523760795593,0.07819952070713043,-0.33812516927719116,0.40442806482315063,0.2320476621389389,0.37534183263778687,-0.11558987945318222,0.07142707705497742,-0.023349666967988014,0.02852385863661766,-0.032703086733818054,0.1749575138092041,-0.0451156347990036,0.24228380620479584,0.28276756405830383,0.005671586375683546,-0.3561328649520874,-0.006945668254047632,-0.3163684010505676,-0.024521656334400177,-0.06698711961507797,-0.1039515882730484,-0.249267116189003,-0.2128421813249588,0.31181517243385315,-0.05068105459213257,-0.33892688155174255,0.12865039706230164,0.12578251957893372,0.7703027129173279,0.27030545473098755,-0.20699886977672577,0.06870413571596146,-0.09717176854610443,-0.23847657442092896,0.16078490018844604,-0.26821309328079224,-0.028499959036707878,0.3317357003688812,-0.2864081561565399,0.01869194209575653,0.2250462770462036,0.14905418455600739,0.1591835618019104,0.16127802431583405,-0.052498213946819305,-0.07765839248895645,0.20289777219295502,0.14900261163711548,-0.01657911017537117,-0.33447587490081787,0.025437166914343834,-0.08793165534734726,-0.11126972734928131,0.44582125544548035,0.1676281839609146,-0.24354448914527893,-0.3372745215892792,0.03738432377576828,-0.12421025335788727,-0.0437038391828537,-0.4142369031906128,0.1384623795747757,0.486449658870697,-0.0381443165242672,0.0210909191519022,0.292164146900177,0.26218175888061523,0.23586472868919373,0.1247968003153801,-0.39778071641921997,-0.00792936235666275,-0.19224312901496887,0.3073616921901703,-0.2536466717720032,-0.012322722934186459,0.16808295249938965,-0.09538121521472931,0.26679641008377075,-0.27720969915390015,0.2895281910896301,0.0907510370016098,-0.41813912987709045,0.15099796652793884,-0.7157459259033203,-0.26914241909980774,-0.1900491714477539,0.10708924382925034,-0.05485104024410248,-0.37302112579345703,0.43452945351600647,-0.06744050234556198,-0.22232800722122192,-0.4707077145576477,-0.4194202721118927,-0.04681519791483879,0.152433842420578,-0.057991981506347656,0.14216652512550354,0.051326651126146317,-0.44281622767448425,0.05155743658542633,-0.05114469304680824,-0.2918349504470825,0.10389711707830429,0.11401330679655075,-0.01594780571758747,-0.026961462572216988,-0.08134864270687103,0.08754424005746841,-0.3490876257419586,0.19969472289085388,-0.02873205952346325,-0.5463315844535828,0.11844219267368317,0.31524527072906494,0.12385834008455276,0.10031010210514069,0.1428234875202179,0.1893738955259323,-0.09477748721837997,0.05161190405488014,0.3837844133377075,-0.07783463597297668,-0.41941097378730774,-0.3438790440559387,-0.2426469624042511,0.1963924765586853,0.03612222895026207,-0.2108863741159439,-0.16164655983448029,0.08218316733837128,-0.0689050480723381,0.14040009677410126,-0.0032221514265984297,0.21599528193473816,-0.07880841940641403,-0.02572515793144703,-0.02164401113986969,0.1408744603395462,0.11575108766555786,-0.6717050075531006,-0.31721049547195435,-0.36261165142059326,-0.16498079895973206,0.04803328588604927,0.22614550590515137,-0.13231481611728668,0.17479713261127472,0.3597484529018402,-0.07571734488010406,-0.2720068395137787,-0.04386957362294197,-0.015745434910058975,-0.25476399064064026,-0.08646434545516968,-0.33813413977622986,0.1816110461950302,0.15539224445819855,0.09264863282442093,-0.06611296534538269,0.15970249474048615,-0.010336600244045258,0.04297297075390816,-0.24508316814899445,-0.04198332130908966,-0.07859085500240326,-0.272467702627182,0.5445128083229065,-0.027004124596714973,-0.44910719990730286,0.03515975549817085,0.05680275335907936,0.16705071926116943,0.3188228905200958,0.13846948742866516,-0.0486643984913826,0.25014060735702515,-0.19641362130641937,0.21246621012687683,0.11715123057365417,-0.05600139498710632,-0.13528665900230408,0.06621632725000381,0.21528129279613495,0.03491685539484024,-0.2884373366832733,0.30314353108406067,0.1007797122001648,0.0820339173078537,-0.04477079212665558,-0.17984992265701294,0.027167487889528275,0.09926537424325943,-0.11241472512483597,-0.2450999617576599,-0.34394747018814087,0.09936042129993439,0.2215380221605301,-0.11143308132886887,0.002734860172495246,0.12854917347431183,-0.2016751617193222,0.332090824842453,0.06265582889318466,0.6160599589347839,-0.022037291899323463,0.25628218054771423,-0.338289350271225,0.1759016364812851,0.10807623714208603,0.7263105511665344,-0.019149722531437874,0.04501623660326004,0.018365874886512756,0.22679604589939117,0.25437605381011963,-0.15682078897953033,0.014555816538631916,0.042320702224969864,-0.22571362555027008,0.03288685902953148,-0.12529262900352478,0.11449532955884933,0.25960052013397217,0.02080116793513298,-0.4725293517112732,0.2876674234867096,-0.19206684827804565,-0.3852085769176483,0.006233593914657831,0.13837051391601562,-0.04753837734460831,-0.19018033146858215,-0.15826231241226196,-0.1855367124080658,0.0056085423566401005,-0.12484406679868698,-0.004097820725291967,0.016383353620767593,0.07841524481773376,-0.3665201961994171,-0.051315195858478546,0.14399586617946625,0.22343872487545013,0.01884387619793415,-0.17107796669006348,-0.034041617065668106,-0.22469840943813324,-0.11233365535736084,0.1086743101477623,-0.003147808602079749,-0.10250307619571686,-0.10065983980894089,0.17694182693958282,0.028238888829946518,0.4053536653518677,-0.03733792155981064,-0.12471310049295425,-0.2438603639602661,-0.06434297561645508,0.09808811545372009,0.21791622042655945,-0.09815105050802231,-0.016383742913603783,-0.053690195083618164,-0.15975387394428253,-0.16317954659461975,0.0665973573923111,-0.005702371243387461,0.13904736936092377,-0.10858206450939178,-0.015668563544750214,-0.12261202186346054,0.35090193152427673,-0.167400524020195,0.014337834902107716,0.040405355393886566,-0.10096237808465958,-0.15436461567878723,0.062005870044231415,0.015229389071464539,-0.14239947497844696,0.1092325896024704,0.10039841383695602,-0.19418002665042877,-0.2183460146188736,0.04492779076099396,-0.017327267676591873,0.18139293789863586,-0.027688130736351013,-0.008231689222157001,0.11753480136394501,-0.036642301827669144,0.28623735904693604,0.09739867597818375,-0.052286695688962936,0.06162421777844429,-0.09504491090774536,-0.1535964459180832,0.16505005955696106,0.058226969093084335,-0.18842573463916779,-0.4325771629810333,-0.4373345375061035,0.10443275421857834,0.152887761592865,-0.12747174501419067,0.032871782779693604,-0.049051254987716675,-0.1911863386631012,-0.22971105575561523,-0.24013656377792358,-0.14480610191822052,0.10931036621332169,-0.07983395457267761,-0.14943274855613708,0.0017003259854391217,-0.14823168516159058,0.18447621166706085,0.07782242447137833,0.29635748267173767,-0.1568055897951126,-0.031164107844233513,0.04148564115166664,0.01746031828224659,-0.01480779517441988,0.08573324978351593,0.05670970678329468,0.06929869204759598,0.2649332582950592,-0.014984441921114922,0.05863058194518089,0.13903690874576569,-0.06404107064008713,0.09006045758724213,0.22870512306690216,-0.3234996199607849,0.04565479978919029,-0.035116925835609436,0.024803772568702698,-0.12271571904420853,0.029571600258350372,-0.10476063191890717,0.07672571390867233,0.19251297414302826,-0.2507306635379791,0.19551925361156464,-0.12470507621765137,0.2058948427438736,-0.2409292757511139,-0.012763283215463161,-0.36245471239089966,-0.2164333015680313,-0.08836764842271805,0.2529420554637909,-0.0016886391676962376,-0.046531300991773605,0.06378213316202164,0.056704193353652954,-0.16238458454608917,-0.20116598904132843,0.05640403553843498,0.0642276257276535,0.06769955903291702,-0.13266299664974213,0.008124742656946182,0.08739744126796722,0.03385268524289131,0.17211608588695526,-0.3625119924545288,0.056109823286533356,-0.13579049706459045,-0.09443105012178421,-0.004542816895991564,0.010836712084710598,-0.13661372661590576,-0.0952092856168747,0.23022226989269257,-0.2005191296339035,-0.10976797342300415,0.04744487255811691,0.24133968353271484,-0.03231559321284294,0.09419014304876328,0.14550337195396423,-0.19841620326042175,-0.03325922042131424,0.05806450918316841,0.03971083089709282,0.03852485865354538,0.2502990961074829,0.038619156926870346,-0.100128173828125,0.19769355654716492,-0.04137329012155533,0.14460650086402893,-0.008801808580756187,0.2841287851333618,0.5066787600517273,0.10899443924427032,0.3189454674720764,0.22604577243328094,0.002973889699205756,0.17058615386486053,0.0827132984995842,-0.0298199150711298,0.13102063536643982,0.37192007899284363,0.06719573587179184,0.054852116852998734,-0.11303438991308212,0.01656751148402691,-0.11527666449546814,-0.014636374078691006,0.10045621544122696,-0.1366068720817566,-0.06676775217056274,0.008437578566372395,-0.056913651525974274,-0.19913128018379211,-0.10843287408351898,-0.23031237721443176,-0.033152543008327484,0.0568673275411129,0.026660442352294922,0.009164695627987385,-0.13871966302394867,-0.17812992632389069,-0.2671690881252289,0.055759016424417496,-0.11091901361942291,0.15205185115337372,0.1666262149810791,-0.19177734851837158,0.16205230355262756,-0.22608144581317902,-0.037869758903980255,-0.09573765099048615,0.1537887156009674,0.05622667446732521,-0.11023543030023575,0.08227384835481644,-0.1427209973335266,-0.1303490400314331,-0.15793243050575256,-0.0008667884394526482,0.019824080169200897,0.008882926777005196,-0.0364663265645504,-0.04418628290295601,-0.012887103483080864,0.12430775910615921,-0.07298750430345535,-0.12012182176113129,-0.015968523919582367,0.13531902432441711,0.11766034364700317,-0.12608219683170319,-0.25765442848205566,0.16541919112205505,0.08775575459003448,0.17012225091457367,-0.22028152644634247,0.03712636977434158,-0.0387125127017498,0.2392641305923462,-0.1947377473115921,0.23986902832984924,-0.13129080832004547,0.023897437378764153,-0.08071871846914291,0.030307220295071602,-0.12240957468748093,-0.23067553341388702,0.11804351955652237,0.0928460881114006,0.04205888509750366,-0.19005075097084045,0.18522945046424866,0.1854538768529892,-0.18189243972301483,-0.15676553547382355,0.046434782445430756,0.09815475344657898,0.207127645611763,-0.1455967128276825,-0.11648859083652496,-0.07189904898405075,-0.2869059443473816,0.25281602144241333,-0.0958874374628067,-0.09211309999227524,-0.08553971350193024,0.2184828370809555,0.16706864535808563,0.3006587624549866,-0.08229199796915054,0.15258143842220306,-0.094111867249012,0.04549875855445862,0.08494629710912704,0.05235210806131363,-0.05055253580212593,-0.12469460070133209,0.06669089943170547,0.08390896767377853,-0.287503719329834,0.2158496379852295,-0.018266426399350166,0.26124319434165955,-0.11032874137163162,-0.029650602489709854,0.0050529069267213345,0.31940755248069763,-0.1077570989727974,0.02603774145245552,0.1621241718530655,-0.03659876063466072,0.029083745554089546,0.22551949322223663,0.1374392807483673,-0.05488717555999756,0.18738824129104614,0.0017497471999377012,-0.15629906952381134,-0.17502036690711975,0.13780787587165833,-0.0668448805809021,-0.05036478117108345,0.03836725652217865,-0.028617437928915024,0.09523168951272964,0.14175410568714142,0.13617673516273499,0.12790673971176147,-0.06631273776292801,-0.07488905638456345,0.042412303388118744,0.07240443676710129,0.048224177211523056,0.26817265152931213,-0.0232807956635952,-0.22182388603687286,0.005967268720269203,0.06626418977975845,0.15652060508728027,-0.18929094076156616,0.14059555530548096,0.21977628767490387,0.043984442949295044,0.00455517927184701,-0.18285596370697021,0.047289445996284485,-0.05245566368103027,-0.21120193600654602,0.00881920475512743,-0.09907460957765579,0.027498217299580574,0.015102417208254337,0.04951726645231247,0.014186193235218525,0.11873912066221237,-0.18351636826992035,-0.054051853716373444,0.08753925561904907,0.05238702893257141,-0.020365087315440178,0.10850924998521805,0.13435328006744385,0.11072057485580444,-0.2332460731267929,0.07233359664678574,-0.08088813722133636,-0.020805606618523598,0.14868848025798798,0.1928189992904663,0.22127269208431244,-0.012185541912913322,-0.05084744468331337,0.0337710827589035,0.204595148563385,0.10380691289901733,0.07693921029567719,-0.0014673933619633317,-0.10045693814754486,0.07781676948070526,-0.13165563344955444,-0.11470193415880203,0.005225826520472765,0.1364665925502777,0.08484861254692078,-0.005008460022509098,0.013197241351008415,-0.22831092774868011,0.2953794598579407,0.00227020843885839,-0.16661618649959564,-0.03795385733246803,0.05554105341434479,-0.07419449090957642,-0.028227468952536583,0.15605060756206512,0.3483112156391144,-0.10573872923851013,-0.38333380222320557,-0.278065025806427,0.06588703393936157,-0.16782814264297485,-0.10771093517541885,0.05412591993808746,-0.016656288877129555,-0.012556015513837337,-0.012471036985516548,-0.02593296393752098,0.021009640768170357,-0.053297288715839386,-0.09507452696561813,-0.022832250222563744,0.04400654137134552,-0.10913438349962234,-0.03061329573392868,-0.11653788387775421,-0.20067986845970154,-0.01302376575767994,0.16645687818527222,0.007496829144656658,-0.0014644092880189419,0.07529354095458984,-0.05969959869980812,0.12205852568149567,-0.10122834891080856,-0.02719981223344803,0.20721784234046936,-0.07916288822889328,0.04825350269675255,-0.26777055859565735,-0.13620096445083618,-0.06831856817007065,-0.2943666875362396,0.12077449262142181,0.013266168534755707,0.3138010501861572,0.04801508039236069,0.06554609537124634,-0.017717408016324043,-0.16103126108646393,0.09307880699634552,0.04192490503191948,-0.01614483632147312,-0.10226085782051086,0.10643478482961655,-0.019974328577518463,-0.11421965062618256,-0.007637807168066502,-0.08899381011724472,0.04990774765610695,0.23949958384037018,-0.04245873913168907,0.021560803055763245,0.03799355402588844,0.009984244592487812,-0.07260092347860336,0.04444863647222519,0.031801287084817886,-0.07203029096126556,0.07169069349765778,0.02926531620323658,0.03289768099784851,0.23043684661388397,-0.11231860518455505,-0.2838982939720154,-0.10503498464822769,0.03860577568411827,-0.1305607110261917,0.1753198206424713,-0.024304106831550598,-0.2192477285861969,-0.12082970142364502,0.0697159543633461,-0.016425350680947304,-0.037450551986694336,0.009849496185779572,-0.07405144721269608,-0.15653884410858154,0.06342551112174988,0.13895709812641144,0.024199655279517174,0.1072310134768486,-0.03446735814213753,0.22780902683734894,-0.8869467973709106,-0.003950568847358227,0.08100118488073349,-0.16711272299289703,0.018189819529652596,0.13259588181972504,0.059419941157102585,0.07998725771903992,-0.162523552775383,0.17215900123119354,-0.035590123385190964,0.22466343641281128,-0.14785858988761902,-0.006850757170468569,-0.12732882797718048,-0.07551801949739456,0.011871465481817722,-0.13760679960250854,-0.10086418688297272,-0.04427430406212807,-0.030107641592621803,0.1542193740606308,-0.08192389458417892,-0.07380339503288269,0.1712535172700882,0.06074550747871399,-0.0943521112203598,-0.28954097628593445,-0.08528417348861694,-0.13767485320568085,-0.5901147127151489,0.08662085980176926,-0.1635165810585022,0.10898730903863907,0.15008138120174408,-0.07602930814027786,-0.1999252587556839,0.16520413756370544,0.22734187543392181,-0.32906705141067505,